#include "nn_params.h"

const unsigned short LAYER_DIMS[] = {
    5, 100, 100, 100, 100, 100, 100, 100, 100, 100, 100, 2
};

const Layer LAYER_TYPES[] = {
    DENSE, RELU, DENSE, RELU, DENSE, RELU, DENSE, RELU, DENSE, RELU, 
    DENSE, RELU, DENSE, RELU, DENSE, RELU, DENSE, RELU, DENSE, RELU, 
    DENSE, TANH
};

const double INPUT_SCALER_PARAMS[2][NUM_STATE_VARS] = {
    {5.4439353670437925e-03, -3.0332346674151528e-03, 4.3492945091876301e-01, 
        1.9901469335059052e-01, -6.5597767228268804e-04},
    {3.6091471975477956e+00, 2.6804985453287311e+00, 3.5763416057635617e+00, 
        2.6319960604793713e+00, 4.4080499656364791e-01}
};

const double OUTPUT_SCALER_PARAMS[4][NUM_CONTROL_VARS] = {
    {-1.8380372389572064e-01, 4.4339469977649371e-02},
    {3.3567888365016374e-01, 4.0054222862102064e-02},
    {1.5273389206082451e+00, 1.3424202702551598e+00},
    {3.7136930562744714e+00, 1.1153219002178626e-03}
};


const double BIASES[NUM_DENSE_LAYERS][MAX_LAYER_DIMS] = {
    {-2.1899695229971123e+00, -8.4293963014770185e-02, 2.4242417133033037e-01, 
        -1.2929242937743612e-01, -3.1832922195400473e+00, -5.1377390211285301e-01, 
        -4.5022395488198536e-01, -1.7564803637596402e+00, -1.4308761778905474e+00, 
        3.8554216733945090e-01, -2.2701112125740261e-01, -1.4809029220211423e+00, 
        1.8426098739014976e-01, -1.1453832784862461e+00, 1.9989055809218706e-01, 
        2.9206627576509502e-02, 1.1429683204108709e-01, -1.5132867793317286e+00, 
        -2.6969712074279178e-01, 4.4592531457867124e-01, -1.7600632660124922e+00, 
        -5.2278719744017665e-01, -2.2608436228848394e-01, 2.8858236654354213e-01, 
        -4.9674080669671733e-01, -5.1766819771584038e-02, -2.6409393659223718e-01, 
        -1.5459082337252663e+00, -7.7151115840677031e-01, -2.3150023206482442e-01, 
        -6.0452962357863120e-02, -3.1059718646629197e-01, -3.7921796668774010e-01, 
        6.5022134639705198e-01, 7.6633943647986880e-01, -9.3846742050588394e-01, 
        -1.3237237795735048e+00, 2.4172206636626539e-01, 5.5161960454314662e-01, 
        -1.6456331842488208e+00, 3.2614287890824917e-01, -5.6732266731134928e-01, 
        -1.6619290470333395e-01, 5.4561699506132466e-01, -1.8594747422691367e+00, 
        -7.3394354027820935e-02, -1.9097633140840955e+00, 5.7216941101666041e-01, 
        -1.7723766083065990e+00, -9.8559773988567079e-01, 7.3525651898561073e-01, 
        -2.9966232731418257e-01, -2.9143213635496679e+00, -1.8076729458119372e+00, 
        1.7819296045383048e-01, -2.6697523006230067e-01, -2.2899585218496119e+00, 
        -3.0276708909614185e+00, -3.4500617693354751e-01, -2.0800484368417438e+00, 
        -2.9851659216691406e-01, 2.2193065964976968e-01, -2.8283966571699699e-03, 
        -2.0735639925472449e-01, -1.5440270552720112e-01, -4.6438027846352659e-01, 
        2.7705991382817202e-01, -2.2378064273624598e-02, -2.8738736503054865e+00, 
        2.7244463888618464e-01, -1.0443443392169260e+00, -1.5515965854417832e+00, 
        -2.3540440322001438e-01, -3.4225590172488923e-01, 5.1542123578916199e-01, 
        2.1449922884569866e-01, -5.4064458991736319e-01, 1.3127706323762792e-01, 
        -2.4449962176009725e+00, 4.1316196002598349e-01, -9.2789239055122499e-02, 
        -3.1089319363542600e-01, -1.8234749055355579e-01, -2.1799091697321851e+00, 
        -1.6967792560048318e+00, -1.1470046815235864e+00, -1.7485452172916255e-01, 
        -1.4261651734587772e+00, -4.5515675443345305e-01, 7.1037740604483215e-02, 
        -1.4118722777978094e+00, -2.8650552351402991e-01, -5.4899488216656844e-01, 
        -2.6713874705745524e+00, -3.3972760238732747e-01, 3.1079673811770442e-01, 
        -1.6310775390714656e+00, -2.2528993837062686e-01, -1.0025917371947495e+00, 
        7.0696034453915979e-01},
    {-1.3075380064235221e-02, 1.6745272708251946e-01, -3.2987789593056243e+00, 
        1.5367459485039150e+00, 1.6359866196982525e-01, 1.6660082865367567e+00, 
        6.7613173052295317e-01, 7.2485719712145469e-01, 2.2993474704394132e+00, 
        1.0980694154334916e+00, -7.8904491589277245e-02, -4.3428450440848358e+00, 
        1.5118798436775949e+00, 3.8177698742149108e-01, 1.8882761611417407e+00, 
        -3.6644981536718428e+00, 1.8101320122811388e+00, 6.7403652395254657e-02, 
        5.6349823808528328e-02, -2.4727301669049710e+00, 1.0404461146817785e+00, 
        2.4121314919005896e+00, 1.9441279367884705e+00, 1.8935270336187398e+00, 
        8.5716963876079766e-01, 9.2265896690896476e-01, -2.4885379723730125e-01, 
        2.4560470026033805e+00, 1.4530678902305763e+00, 7.6265441018992075e-01, 
        2.3091658062328735e+00, 1.3118839519897352e+00, -1.4236995011994025e+00, 
        1.6073609818169918e+00, 1.1672972485778588e+00, -3.8053650116065851e-01, 
        3.0664596302805265e+00, 1.8306945808739126e+00, 2.3931203696423706e+00, 
        1.3427349136116342e+00, 1.3051697870916033e+00, 2.4363233025355480e+00, 
        -4.9460115391575306e+00, -4.0207170638065511e-02, 2.4007137375162815e+00, 
        2.1933295730575266e+00, 2.1210785776251151e+00, 2.0740908830394242e+00, 
        1.6601263573181928e+00, -2.3793902089463690e+00, 1.8600582972423156e+00, 
        -1.2739309327911170e+00, 1.8681200005691943e+00, 2.2239837518162826e+00, 
        -2.1481176788542805e-01, -1.9663229701233814e-01, -4.8557143879444614e-01, 
        5.7326118315128050e-01, 2.5688203114070123e+00, -6.1682333369846590e-02, 
        2.2126361515898560e+00, 2.4326712222764151e+00, 9.0136628038109878e-01, 
        8.3985512795299788e-01, -3.1245899824494932e+00, 1.0259460694327249e+00, 
        1.4884694785648664e+00, -1.2338939689213186e+00, 8.5336197729930385e-01, 
        1.6218668150168865e+00, -1.1536936306862058e+01, 1.0165337996837407e+00, 
        -8.3956138985209527e+00, 4.4594624091033158e-01, 1.3405228185167428e+00, 
        1.9623452303077729e-02, 1.1678365420163614e+00, 5.5731451184356595e-01, 
        1.4686366859941695e+00, -8.5577612353699206e-02, 1.4309662214828409e+00, 
        -3.2206607800621869e+00, -5.1564659950272640e+00, 1.4846351942196454e+00, 
        -2.3311877412940515e-01, 5.0546468178128201e-01, -6.2117558301011684e+00, 
        8.6178405478596376e-01, 3.1555770158192714e-01, 1.8023762660490590e+00, 
        1.1316148117138765e+00, 2.4269210518954432e+00, 7.5625428285845542e-01, 
        1.3159545708540075e+00, 1.7524118251105569e+00, 2.6005041784666472e+00, 
        1.0793266866533404e+00, -3.6972022508289443e-01, -6.2483565835210952e-01, 
        1.2992787365630496e+00},
    {-1.0753269411076510e-01, 4.0372307542367638e+00, 7.4001142000761300e-01, 
        1.3307718564155164e+00, -1.5210706835458289e-02, 7.5909393196960440e-01, 
        2.3952086315696022e+00, -1.5056116294799904e-01, -7.4354462654563247e-01, 
        2.9020748505394200e+00, -1.6071387943321239e-01, -4.7528869885988312e-02, 
        2.4699287382157866e+00, 2.0037564526498519e+00, 7.2908645474466502e-02, 
        2.5184109230044553e+00, 1.6991114821914866e+00, -1.6291969995949728e+01, 
        2.3836640195807318e-01, -4.9632571084714067e-01, 2.8883706056856564e+00, 
        -6.3237457325839390e+00, 1.5862017615101471e+00, 2.2467858802945009e+00, 
        -7.9923085624908921e-02, -6.7673271776830362e+00, 3.1841456016679393e-01, 
        1.8687493052434356e+00, 6.5819090374136546e-01, 2.7103908222803645e+00, 
        2.3232475880377450e+00, 8.1377188347630369e-01, -9.3382096715976498e-02, 
        1.5684957550529153e+00, 2.1905312097558345e+00, -7.4610712572164264e+00, 
        1.2009225930010319e+00, 2.2635790547367716e+00, 2.9854503446091568e-01, 
        1.0893765178472814e+00, -2.5935936459318398e+00, 3.4126293528043727e-01, 
        -1.0253187191647543e-01, -8.4832014296034988e+00, -2.1999193897633553e+00, 
        1.3809612467385306e+00, -2.9338252496043991e+00, 1.5437280161430671e+00, 
        2.0615009823097168e+00, -1.4549486034400279e+00, -1.5400977564506448e+00, 
        -1.7876887115551182e-01, -1.3085942938118309e+01, 2.7322186348905397e+00, 
        4.3777551847267180e+00, 2.2296285454492848e+00, -6.9218539792206468e-01, 
        -1.6664021032366372e+00, 2.0176749507358913e+00, -1.0648662828702646e-01, 
        7.0904737369220283e-01, 1.0806043051114296e+00, 3.4006141096630121e-01, 
        3.3315613235977968e+00, -1.8732884201211588e+00, -1.2931789480288894e-01, 
        1.0790931059059892e+00, 4.3087054051546780e-01, -2.2342132012363528e-01, 
        3.4267821396356352e-01, -7.4879263898465498e-01, -2.0305083371885307e-01, 
        5.4286433050960641e+00, 1.1968541116851015e+00, -1.3335280077073841e-01, 
        1.1353632046918750e-01, 2.5890094856036079e+00, 3.1993853566957692e-01, 
        6.0141039981366273e-01, -5.3871918059587111e-02, 2.4009135258487855e+00, 
        2.7974411557242029e+00, 1.6891734231178708e+00, 1.9107486994172562e+00, 
        -1.5562904059060212e-01, -9.2185168751608195e+00, 8.4257017630086972e-01, 
        -1.4621695001154283e-01, -5.7214325180306003e-01, -6.9558296698897752e+00, 
        1.2183295854260718e+00, 3.3487797656703333e-01, 1.0727494064022323e+00, 
        2.1164055340701227e-01, 2.6526598558874062e+00, -4.2194927348735511e+00, 
        -2.9860818188536240e+00, 1.9061850494833443e-01, 5.5930767314587015e-01, 
        -1.0730125950243964e-01},
    {1.7219538749024850e+00, -9.1657489671864711e-02, -1.4952117071121132e-01, 
        8.9521498715228431e-01, 3.6502483120837095e+00, -7.2698166149939303e-01, 
        9.8307594008290977e-01, -1.0453449966555475e-01, -1.2357956493535915e-01, 
        3.2678031250823519e-01, -9.7852329943129202e-02, -2.2807033436368088e-01, 
        5.2744668672249082e+00, -7.4571699132478741e-01, -8.6897934606079627e-02, 
        -7.0063898630407460e+00, -8.2633739002019549e-02, -6.6510411469350386e+00, 
        -1.5935223530083735e+00, -1.5504469457406548e+01, 2.6202229818293730e+00, 
        -2.0322345674613826e+00, -8.1745431992759715e-02, -3.3005362122541499e+00, 
        -8.8891502795898067e-02, 1.4948856179642800e+00, -7.0276443056378557e-01, 
        3.9184044609574977e+00, -3.1557586152237644e+00, -3.0343170786736445e-01, 
        -6.4816747397874505e-02, -1.5476513067780234e-01, -1.5970543753287523e-02, 
        -1.1734645573290987e+00, -1.6916952333363530e-01, 2.7504466164518657e+00, 
        3.4101212152450953e+00, -5.7197560759717891e+00, -5.9876454877985701e+00, 
        1.8434636370665476e+00, 5.6322314339953483e-01, 2.2416549492513540e+00, 
        -3.1398054810592035e+00, 1.1870243667821974e+00, 4.1090379441853857e+00, 
        2.2962486305129435e+00, -1.3444947477434415e+00, 8.1133543544718290e-01, 
        -1.2541805516225302e-01, 1.1572492739887372e+00, 1.4364039648301694e+00, 
        -5.5531442187023083e-01, 1.7589004363304759e+00, 1.2492628986383401e-01, 
        -7.5794779117926536e-02, 1.0029984008594306e+00, -1.6850873569707522e-01, 
        -3.0248594975912884e+00, 4.2036612489246156e-01, -1.2310921826510486e-01, 
        -3.7380925465029330e-01, -1.3084145523395003e+00, -3.9875876443708389e+00, 
        -1.7870889519891250e-01, 3.4500955320445938e+00, 2.4514379653541964e+00, 
        -2.8792633841213913e-02, 1.0534821421441865e+00, 1.1171030270136599e+00, 
        -2.0292495439379413e-01, 8.0508066000834810e-01, 3.4178850587035008e+00, 
        1.1900282770506996e+00, -1.8797835662091297e-01, -1.3154452351079535e-01, 
        -3.3034241719111290e-01, 4.9893816832975872e+00, 2.1672786350610154e+00, 
        1.6208330559428141e+00, 8.6520747044519886e-01, -5.2412900885976541e-02, 
        2.2624826903640680e+00, -2.1743069363282075e-01, -6.3168573432020175e-02, 
        -7.9954751756920643e+00, 5.9243545882602549e+00, -8.4336787182361874e+00, 
        -7.5168864802973995e-02, 7.3602093255592091e+00, -6.6041298597993611e-02, 
        1.7079854088233412e-01, 9.2440807804650749e-01, 7.2331559673461510e-01, 
        -1.6111261316889929e+00, -1.9317562089083629e-01, -9.3597882963260881e-01, 
        1.2719745994774900e+00, -9.6060696000606749e-01, -1.4610390811134616e-01, 
        1.0651470803083158e+00},
    {-9.1906215360594540e-02, 3.7649850219523753e+00, -4.6020702565805607e-02, 
        5.1678505838194422e-01, -9.9342907761962029e-02, 8.3671184917278030e-01, 
        -7.6305427002757131e-01, -1.0566927447357151e+00, 5.3392255291705693e-01, 
        2.6253756467321545e+00, -8.7890481990469578e+00, -1.3336417877944604e-01, 
        -5.8566258920626953e-02, 2.0560265787896626e+00, 4.6633745313007005e+00, 
        -8.5845354696387335e-02, -4.5509948813072274e+00, -1.5212116392074726e-01, 
        -1.2967582577716347e-01, -4.5965342878090842e-01, -4.9173020536620045e-02, 
        -3.4741711041227460e-02, 9.4602705193025591e-02, -2.3809374339266798e-01, 
        -1.3636904792817732e+00, -5.8240632757277228e-02, -1.6299827642674969e-01, 
        -8.5919795080667244e-02, -1.6311614748410563e-01, -2.7015898439687336e-01, 
        2.5782866997030536e-02, -3.7287958690252754e-02, -4.0260576620552069e-01, 
        -3.0977272128514749e-01, -2.9199790775992185e-01, -8.8289262455119255e-01, 
        1.1922991232050726e+00, -1.2243936375517071e-01, -3.3479899879794153e+00, 
        -4.7869761228895463e-01, 1.8173756427570520e-02, -1.2179382120441999e+00, 
        6.0612786446739886e+00, -1.1463234484713319e-01, -4.2256474132247653e-02, 
        -1.9997264513327197e-02, -1.0933626240496495e-01, 3.5859442729918622e-01, 
        2.1142019628462343e+00, -1.0491767241422265e-01, -2.2607247697824256e-01, 
        8.3131382936016719e-03, 1.9252750407989569e+00, -4.2185906275029779e-02, 
        -1.0368110455382332e-01, -4.3830721632882062e-02, -5.3655386237534977e-02, 
        -1.9269001332009171e-02, -1.7315945977450512e-02, -7.6300570612545082e-01, 
        4.0052443775564539e+00, -1.8579343858995931e-01, 2.0171218778983384e+00, 
        -6.9270831689289478e-02, -1.1243444996912351e+00, -1.0277345698534558e-01, 
        -3.9877913381898411e-01, 6.4098180729634588e+00, -5.5949486297631557e-01, 
        6.3954786247204298e+00, -1.8374273548612943e-01, -3.7307237787060745e+00, 
        -3.1534070845559856e-02, -8.9449046752320654e-02, -1.8486497635626670e-02, 
        -1.1394344406824938e-01, -2.9719526185853407e-01, 5.2218829294437608e-01, 
        -7.2031377932213453e-02, 2.0918476333401577e+00, -1.0194468205098009e-01, 
        7.3688550146486316e+00, -1.0983316404836400e-01, -1.6071238475449634e-01, 
        -1.1773697570911407e-01, -8.1284493567605465e-01, 4.6495702621600330e+00, 
        -8.9616309528594895e-02, -7.9154215885121296e-02, -4.3198014850295277e+00, 
        -3.0911326764403686e-02, -1.6219613039588932e-01, -5.9868797809543739e-02, 
        -1.1009881974629016e-01, -4.2116099345134134e-02, 4.3618524968903177e-01, 
        -8.3654187979437938e-02, -9.7558535876162783e-02, -1.6867829117820858e+00, 
        -8.7666718393828696e-02},
    {-1.2834358305396065e+00, -8.8292062146323333e-02, -1.4194767663990931e-01, 
        -2.1853273886605024e-01, -2.1474712475407662e-01, 4.4238577060555940e-03, 
        -2.2989603193503932e-01, -1.6598711164996732e-01, 1.3771264577185618e-01, 
        7.0232669037418073e-03, -1.8947962656176331e-01, -1.4039087780814388e-01, 
        -3.1556907269802542e-01, 4.6290767879188961e-02, -5.7740958439524398e-02, 
        -2.7041304722938025e-01, -7.5077710133472399e-03, -1.2310846561816272e-01, 
        -1.7991458385008577e-01, -8.0714812288239665e-02, -1.8533710265141221e-01, 
        -1.4420525645431559e-01, 9.5695389321787658e+00, -1.3282265912741753e-01, 
        -1.4818336334655130e-01, -4.8720838948948586e+00, -8.6599219544620643e-01, 
        -1.3996638019713756e-01, -1.4628712594684168e-01, -2.9409317978501376e-01, 
        -2.0100534231050957e-01, -1.7790755711091835e-01, 2.3937926585447817e+00, 
        -1.6512023653072272e-01, -2.3323648536056943e-01, -1.2397405844876247e-01, 
        -6.5133325898301925e-02, -4.5544403737853639e-01, -2.3410431336478565e-01, 
        -3.1510195234480842e-01, 2.0119508352899778e+00, -1.7046739092395799e-01, 
        -6.7077427250355204e-02, 1.9970348606875177e+00, -1.2261142914783268e-01, 
        7.1065893504206901e-01, -1.4751013420800099e-01, -2.1304753101058785e-01, 
        -1.2240591940398746e-01, -2.6022663523939610e-01, -2.0887201311516904e-01, 
        -5.6698843886311065e-02, -1.4805758794690879e-01, 6.8969350405846186e-01, 
        -1.9753654675625215e-01, -8.4329162728691998e-01, 1.0156645067046996e-01, 
        -1.7257565975527123e-01, -5.2496020078458751e-02, 5.1471016370652725e-02, 
        -2.5739756120888307e-01, -5.3278226095584269e-01, 2.3817594255707459e+00, 
        -1.3340856182065042e-01, -8.0603191546512881e-02, -1.2823704093455854e-01, 
        2.6572273018742119e-02, -7.7382366400689018e-02, -1.5298428338546391e-01, 
        -4.0721519154031362e-02, -2.2577682437281618e-01, -2.9326691142369802e-02, 
        -3.8803892736910263e-04, -6.6114305127101969e-01, -3.2940022926507057e-01, 
        -1.0226810674403306e+00, -2.0452713018872459e-01, -8.5849852493155743e-01, 
        -3.2820727511327107e-02, -1.8997803448497966e-01, 1.0065069164442832e-01, 
        -1.3215019047533086e-01, -1.4668916698272152e-01, -1.0284381849631101e-01, 
        -8.4758544026970334e-02, -2.6404486074771527e-01, -1.8157844367678622e+00, 
        -1.2149182152543410e-01, -6.8403017209377082e-02, -2.9373499030591338e-01, 
        2.7926270304329892e-01, -3.6964373724235988e-01, -2.2127812776145794e-02, 
        -1.5630980259446378e-01, -1.3982909512848676e-01, -1.8137312074034537e-01, 
        -5.3491281015686454e-01, -7.4539734508419914e-02, -2.2525153589039465e-01, 
        -8.0749033342438326e-02},
    {-3.2740983255060951e-01, -5.2409224550918321e-01, 2.1508279080478556e+00, 
        -1.3731140575926351e-01, -2.0998553438322828e-01, 8.5792679349857270e-01, 
        2.0656281445866256e-01, -3.1667362751035610e-01, -8.0182918922805463e-02, 
        -2.0762398626605991e-01, -8.2447361215617121e-01, -1.6354541611260789e-01, 
        -2.9313271407748076e-01, -6.5190778282942952e-01, -2.9913956262927061e-01, 
        -1.8238511348329028e-01, -2.2402007487785300e-01, -3.4131342479905641e-01, 
        1.2312268496008172e+00, -2.1989179724332711e-01, -2.5851363498124663e-01, 
        -4.3142471065940297e-01, -4.6003143980482375e-01, -1.0554506532866566e-01, 
        -1.3047040419140798e-01, -4.1843096931612034e-01, -2.1320093616131217e-01, 
        -2.1571271589433400e-01, -2.8776598260367980e-01, -2.1558907411427211e-01, 
        -1.4162493140289426e-01, -1.5998362928549420e-01, -3.4107198439324066e-01, 
        -2.8295518330023226e-02, -2.7722220678429094e-01, -1.4020128594151104e-01, 
        -3.1789789757117753e-01, -6.0743947989407787e-01, -2.2151844613740704e-01, 
        -4.7133989363614695e-02, -1.0650145574633960e+00, -1.2730031553128671e-01, 
        5.5274018079564486e+00, -2.2910797474996111e-01, -2.9964283387207341e-01, 
        -2.2265336733644039e-01, -2.4029673142713887e-01, -4.6351733012719121e-01, 
        -1.4786039212286878e-01, -2.9246685292113983e-01, -2.8708020710143162e-01, 
        -4.4536310557802239e-01, -1.6941348445885202e-01, -3.0541679551225992e-01, 
        -3.5833050036591724e-01, -3.0288833298121370e-01, -6.0622397590066546e-01, 
        -6.2867200662189260e-02, -3.6732896484963362e-01, -2.7332691012796678e-01, 
        -1.0810661085463560e-01, -1.2574121175595365e-01, -2.0570671703455287e-01, 
        -1.4386066587050139e-01, -3.9435808670167466e-01, -1.1272866173125634e-01, 
        -4.8303503051328889e-01, -2.2958339588503018e-01, -4.6822454131510916e-01, 
        -1.2725418044198549e+00, -3.2031803425146094e-01, -1.2227029125413168e-01, 
        1.1743181320285286e-01, -3.1394370824032347e-01, -5.6351751188414234e-01, 
        -3.3583415178642523e-01, -3.7176346281718681e-01, 2.6092822407348009e+00, 
        -3.2143210837412634e-01, -3.7819344721395648e-01, -4.1475860992328883e-01, 
        -3.9173505027220290e-01, -4.0955581129189267e-01, -2.7069478288596216e-01, 
        -3.8477977598539487e-01, -5.8364605767819799e-01, -8.2314601936172915e-01, 
        -2.1833722110670467e-01, -2.2116357432109221e-01, -6.2585916766806776e-02, 
        -2.9508855572266596e-01, -1.8283446800771597e-01, -2.7616654723732709e-01, 
        -1.4705265947509263e-01, -8.8086804930017776e-02, -3.6912741879314807e-02, 
        -2.3711901945546626e-01, -4.8403075389020611e-01, -6.3841606296918249e-02, 
        -1.9809368044095516e-01},
    {-1.3861225445912914e-01, -2.0701771275378328e-01, -3.9498242846533582e-01, 
        -6.1010581242309159e-01, -1.6908247776953136e-01, -4.6532641851638934e-01, 
        -4.4407223987510352e-01, -9.0883025985572435e-02, -2.1471720062897062e-01, 
        -7.3570928670918967e-01, -1.4131959994434667e-01, -2.6325257822599102e-01, 
        -7.8143449677360796e-02, -2.0683540836794126e-01, -1.8303347070062551e-01, 
        -5.2070306365951491e-01, 4.7243336267322594e-01, -3.5561133677506668e-01, 
        -4.6210486294254299e-01, -2.8042337865621925e-01, -2.6742464426913121e-01, 
        -3.4161177841672752e-01, -6.4337880782811074e-01, -1.2175986857280878e-01, 
        -2.1365556381066672e-01, 3.0008338750449792e+00, -4.1206471303750036e-01, 
        -8.4607234510179652e-02, -2.6757316607926612e-01, -3.0133076258752278e-01, 
        -4.0682000340933444e-01, -4.1425052653180916e-01, -1.6221643327360374e-01, 
        -2.0806618145963920e-01, -2.6237259106779365e-01, -4.0248049860077234e-01, 
        -3.6531450694792805e-01, -3.2204185109836370e-01, -1.4273689097769413e+00, 
        -3.2466543344543264e-01, -7.5080408803652576e-01, 3.8494028828877053e-01, 
        2.2727011629524680e+00, -1.7110162673248566e-01, 1.6233476686369810e-01, 
        -1.3512190829595630e-01, -3.4257302950845342e-01, -4.6541434981404511e-01, 
        -4.1564727914048349e-01, -4.0154022942034984e-01, -5.4781824138585433e-01, 
        -3.3685377864585969e-01, -1.6509662449417690e+00, -3.3961350179863514e-01, 
        -1.0658871865818328e-01, 2.9282778968336611e+00, -3.0275319770043169e-01, 
        -1.3945959699127436e-01, -2.7062327288643229e-01, -1.0344000226526534e-01, 
        -5.6300790669663769e-01, -8.9196415949669845e+00, -6.8798306156170705e-02, 
        -3.5715957568791978e-01, -1.6356575121744121e-01, -2.7293824048117937e-01, 
        -2.3793869567433956e-01, -3.4654798779974993e-01, -2.1677109750691109e-01, 
        -3.7298188885662426e-01, 1.1760790158953398e+00, -2.3993362165127780e-01, 
        -5.3022587068476741e-02, -2.0556090777736002e-01, -2.5157388767473299e-01, 
        -4.0067835350947067e-01, -3.5879768801005746e-01, -9.2114682745352450e-02, 
        -1.6411943055394412e-01, -1.5346486588274497e-01, -2.5452724026584733e-01, 
        -6.3965918073662675e-01, -1.9849604561860265e-01, -1.8077026532347362e-01, 
        -1.3033708009479908e-01, -7.0338818582269602e-01, -1.8777450583094052e-01, 
        -3.7111381871866295e-01, -5.5963450225658892e-02, -1.2268350610972474e-01, 
        -2.3878828714554320e-01, -6.0870791688539216e-01, -1.7673669315697335e-01, 
        -1.3713504572906549e-01, -5.6482502251544808e-01, -4.1282950372765004e-01, 
        -5.6170275427521255e-01, -4.7468532101814837e-01, -4.1058000997440963e-01, 
        -2.8828845514753976e-01},
    {4.5059784013390003e-02, 3.3721538152107461e-01, -3.4665160845149767e-01, 
        -1.3973258665414870e-01, -1.8072493084071647e-01, -9.4451594037469153e-02, 
        -1.6934989631310368e-01, -1.6494462412747063e-01, -1.0134168960569576e-01, 
        -3.4192947151066239e-01, -2.0960674348865449e-01, -1.2043184842181680e-01, 
        -2.6217169679830360e-01, -1.8137854964162475e-01, -2.7567435388528144e-01, 
        -2.6838817182673108e-01, -2.5548090062338880e-01, -3.7703267797967233e-01, 
        4.0044186676703009e-01, -2.9224797467695923e-01, -3.0813334022428601e-01, 
        -1.5978406644664056e-01, -2.5075413785506745e-01, -3.7242789012564387e-01, 
        -2.4145540749012565e-01, -2.1478184429065442e-01, 1.9079986096523286e-02, 
        -1.6917766219764593e-01, -5.2653738655435045e-01, -1.4374340184748716e-01, 
        -2.1376610956174041e-01, -2.1131999660225917e-01, -1.2265706449097612e-01, 
        -2.4711751040318050e-01, 4.6591692790884036e-02, -2.9819802983826338e-01, 
        -2.3796480075034251e-01, -2.4111335782084459e-01, -2.6727010970793452e-01, 
        -1.8978718861787339e-01, -6.7004560468881491e-01, 6.0681800190994251e-01, 
        -4.3907364041371877e-01, -1.7762215043693452e-01, 1.9170761105564732e-01, 
        -2.2049290137617020e-01, -4.2085269082090770e-01, -3.0096618226572336e-01, 
        -1.5772204824297711e-01, -8.1921723981412300e-02, -2.3013384225559136e-01, 
        9.6678929579593662e-02, -2.5144657137795295e-01, -3.4450073284250865e-01, 
        -3.0616242445187897e-01, -2.7015067060969294e-01, -2.2016516888536242e-01, 
        -2.1801163040710664e-01, -1.5982886606300781e+00, 1.7700148674793900e-01, 
        -1.1737794395806626e-01, -1.4758209721306764e-01, -4.5545567172578361e-01, 
        -2.9329406300611260e-01, -2.1303114998591810e-01, -1.9170467489830140e-01, 
        -2.7790775950668539e-01, -4.9990503057199520e-01, -2.6212710466080208e-01, 
        -3.5116802375962386e-01, -2.4460994166353692e-01, -1.3749696893689162e-01, 
        -2.5305489201281289e-01, 3.3328537363557875e-01, -2.7945379446755336e-01, 
        -2.0331601212907249e-01, -1.3124345494377959e-01, -8.5339067269669014e-02, 
        -1.6737418262909212e-01, -1.6162961381059290e-01, -2.6524001749329185e-01, 
        -9.1304382883912211e-02, -2.4558037099095889e-01, -3.0281839708984870e-01, 
        -1.0656790845585888e-01, -2.8319132508983480e-01, -2.7243218458546831e-01, 
        8.8470568695291213e-03, -1.0285487331246046e+00, -1.4060344099501415e-01, 
        -1.3848769492219676e-01, -1.8476938513941529e-01, -5.0728717534809797e-01, 
        -1.7894462087192511e-01, -2.9061333597742312e-01, -2.6126728744400646e-01, 
        -2.3449946713327710e-01, -3.4507490038595884e-01, -4.9317365420233905e-03, 
        -3.5989138551184124e-01},
    {-2.1342420602849307e-01, -3.2311255885723550e-01, -4.5724463046721708e-01, 
        -1.8803507936660999e-01, -1.7548042652956267e-01, -4.0716428378107999e-01, 
        -2.2639537477650709e-01, -6.6667698463034900e-02, -4.9217212296917323e-01, 
        -1.5001860009662427e-01, -1.2067523785529462e-01, -1.6277961082704853e-01, 
        -2.2889356515638273e+00, -6.7495514025942727e-02, -3.2869282235391817e-01, 
        -1.2410331529634985e-01, -1.0907296326801333e-01, -4.3088598392680155e-01, 
        -3.1449282921664218e-01, -8.8260751059286616e-02, -1.0627996071417084e-01, 
        -4.5543978322097561e-01, 9.8705268266739851e-02, -2.6936286116140362e-01, 
        -3.1025787007033973e-01, -2.3160378403537440e-01, -2.4265950840667350e-01, 
        -2.0005065598417718e-01, -2.4444047863846105e-01, -2.3484410946276282e-01, 
        -1.6840917697615512e-01, -2.3344407736192851e-01, -1.1445696028436544e-01, 
        -1.2048280435100114e-01, -1.5527922532710503e-01, 9.2206738072467820e-02, 
        -2.9230797247519907e-01, -9.8992850680359179e-02, -2.3294124504700112e-01, 
        -1.2825442885246216e-01, -1.9390509976865449e+00, -1.1996174554694258e-01, 
        -3.0875188681096960e-01, -9.1868833616559828e-02, -3.1925216392162989e-02, 
        -1.7789048802242674e-01, -2.5218469884637867e-01, 1.2263769732036717e-01, 
        -1.5230816839448932e-01, -9.3832762421333940e-02, -1.2408677024640750e-01, 
        -2.6911908022754866e-01, -5.2793322345866943e-02, -2.1132842962669615e-01, 
        -2.3293837684210694e-01, -8.1773900975587746e-02, -4.8411819530551597e-02, 
        -2.9078727060981163e-01, -1.5294564623691451e-01, -1.5829020525802975e-01, 
        -8.3346504095531085e-02, -4.5805268372243073e-02, -3.1086813286312936e-01, 
        -1.4492147002416164e-01, -1.1666448243463337e-01, 1.9024917695852323e-02, 
        -3.8761603806293993e-01, 1.3053401075998589e-01, -2.0033959137886956e-01, 
        -1.2228567364288677e-01, -2.3201550757572253e-01, -2.0639174206267036e-01, 
        -1.3286684229445231e-01, -2.3760571873944880e-01, -1.1294198699182048e+00, 
        -1.9477107589812548e-01, -2.7540038843391712e-01, -5.8724509356898569e-01, 
        -1.8149140961553914e-01, -2.9162160516253094e-01, -1.2784931166768032e-01, 
        -3.8527848137657816e-01, -2.3109879179083403e-01, -2.4282059856383836e-01, 
        -4.9561385741169217e-01, -2.1506830783841532e-01, -1.1435554485394868e+00, 
        -2.5144376590925893e-01, -3.6755585086949494e-01, -5.3340117888784078e-01, 
        -4.1428583102658939e-01, -9.5423686454360238e-02, -4.9283137244883801e-01, 
        -3.3276652661015116e-01, -1.4494082325311056e-01, -3.8109119738006969e-01, 
        -9.5001421238796291e-02, -2.0406725425373892e-01, -1.1063836643820908e-01, 
        -2.0750068732869523e-01},
    {-7.5184559695089900e-02, 5.2047802346285983e-02}
};

const double WEIGHTS[NUM_DENSE_LAYERS][MAX_LAYER_DIMS][MAX_LAYER_DIMS] = {
    {
        {3.0734182273624933e-01, 1.1033640154172593e+00, -1.6341252845233873e+00, 
            -1.9734371484916295e+00, -5.8230729389914260e-01},
        {-1.0996267584175901e+00, 2.7140808870179561e-01, -9.1137504497893096e-01, 
            -1.7255003649309514e-01, 6.9911586763268752e-01},
        {2.4154328514519685e+00, 9.3044806867263075e-01, 1.2861719200895774e+00, 
            1.5795060320633195e-01, 4.6288473526001855e-01},
        {-4.8020936997884833e-01, -6.5149164785053171e-01, -9.1552400803479428e-01, 
            2.4472173959354154e-01, -6.4152746510264180e-01},
        {2.1306741757248902e+00, 1.0834833889053856e+00, 3.2212683812660736e-02, 
            -2.2799802629633259e-01, -9.7587719686504748e-01},
        {2.8675434598522037e-01, -8.3856369918841867e-01, 2.2753160841655706e+00, 
            1.6150065096196908e+00, -4.6782333016455249e-02},
        {-2.1285313369724164e+00, 2.7653016715392992e-01, -2.7976582745775067e+00, 
            -1.6262369556147891e+00, 4.5371589868998924e-01},
        {5.2193252142949320e-01, 5.2666584797032012e-01, -1.3099013448413772e+00, 
            -2.0072987593505878e+00, 1.2580278607612456e+00},
        {-2.3318971275305533e-02, 1.0894663406141354e+00, -1.6381973899626825e+00, 
            -1.0118380911098719e+00, -5.6414744129178729e-01},
        {-1.6619327270726203e+00, 1.7984747332524422e+00, 2.2983401186906547e+00, 
            3.0590483112421901e-01, 4.3504829998560835e-03},
        {-3.3733343284743622e+00, -8.1625094728128678e-01, -1.9202857954849608e+00, 
            -9.6623499259032541e-01, 1.0545972537980639e+00},
        {-7.6562426720760057e-01, -8.6218736037089283e-01, -1.7414581582676882e+00, 
            -3.3650300028608443e-01, -9.7615671322655195e-01},
        {1.6163730168435197e+00, 1.0680236687126390e+00, 3.3922316262280261e+00, 
            -2.1580242270392849e+00, -5.1481753578778454e-02},
        {-2.6839106548062590e+00, 5.6177242134300281e-02, 2.4359665470531852e-01, 
            1.5856807129535551e+00, 7.1705452734067920e-02},
        {-7.7741474799330035e-01, -1.6318820805028598e+00, 1.4842482853091314e+00, 
            1.0053340814012370e+00, 1.3807718821444093e-01},
        {1.5625033763774077e+00, 8.0854059467809725e-01, -4.0329765239728588e-01, 
            -3.4492176501381300e-01, -9.5835460135589945e-01},
        {-6.8177859023975689e+00, -4.1349473966302828e+00, 3.0934979539046718e-02, 
            2.0490114089287806e-01, -1.1798930121545721e-01},
        {3.1253917796560478e+00, 4.5409648426605426e-01, -2.4407068879903479e-01, 
            -1.6058592320726870e+00, -8.4268794979437067e-01},
        {2.5659992779127081e+00, 5.2977954809865191e-01, -2.0038895319040937e+00, 
            -1.1772173642306523e+00, 2.4174129001450273e-01},
        {-2.1552546007680412e-01, -2.9585641177186948e+00, 2.7929580583899583e+00, 
            2.5859386060305334e-01, -2.5940469061370802e-01},
        {3.3940091854004928e+00, 3.0318724323833746e-01, -6.8468482086893212e-01, 
            8.8708832629921741e-01, 3.3252120991639311e-01},
        {2.1358640822414245e+00, -1.3716251909677681e+00, 3.3047242770158913e-01, 
            8.2446182591995576e-01, -3.3404668273737809e-01},
        {3.9240319882134718e+00, 6.4965170147727491e-01, -2.1767223880451629e+00, 
            -8.6380891032949059e-01, -5.7422094480262198e-01},
        {1.3676447689189670e+01, 9.0996315503891967e-01, -8.3938332636904001e-01, 
            1.1352358732456248e-01, -1.1247966009508781e-01},
        {-2.8105438472031630e-01, 9.2173419710757853e-01, -3.1569723794091558e+00, 
            -1.8881652106661615e+00, -4.4610112908353028e-01},
        {-1.5400087566584955e+00, 1.1702818213570951e+00, 3.6309465012353836e+00, 
            1.9615053545909076e+00, -9.5913923269188312e-03},
        {-2.0100801086770617e-01, -1.7036858768907082e+00, -1.5388992482572894e+00, 
            -1.4801581184596302e+00, -3.1216508886840211e-01},
        {1.1777992634322378e+00, 1.1473627236522543e+00, -1.3180214459296786e+00, 
            4.6705927263772451e-01, 1.1426541635718799e+00},
        {1.7175906757635533e+00, 6.5806481811755035e-01, -6.6463898329007354e-01, 
            -6.1459490285506291e-01, 9.7256094859976827e-01},
        {-5.9423109262578189e-01, -3.7832113857834754e-01, -1.3390225292373554e+00, 
            -9.3135970135647328e-01, 4.0311980497650812e-01},
        {2.9139728694346294e+00, 1.3881316199647464e+00, -2.5430639953835854e-01, 
            8.4971001540587987e-01, 6.6040810000018402e-01},
        {-2.6001490504789961e+00, -4.7840304422238522e-01, -2.9323184820617660e+00, 
            -1.0355853557110617e+00, -4.3046133763650851e-01},
        {-1.2415655026117709e+00, -1.0841587427114732e+00, 4.2768588254756928e-01, 
            2.5441211615678166e-01, -8.3415765542909592e-01},
        {-3.7285840695364643e+00, -1.2979500250419107e-01, 3.8034630855548461e+00, 
            4.8107616006036119e-01, -1.4187613516300007e-03},
        {-1.1968556243537261e+00, -1.5739584767606418e-01, 4.3729667048916188e+00, 
            5.1332963698882383e-01, 3.4713864386601560e-02},
        {-1.0691777462269839e-01, -1.5889847151608922e+00, 3.4173376309687220e+00, 
            7.0936799817228713e-01, -1.2110386001273446e-01},
        {1.8969741612774296e+00, 1.3961446083826210e+00, 2.0066088833188903e-02, 
            1.0486412762234597e-01, -1.0220132449075578e+00},
        {-1.3477570043208316e+00, 2.5111660469993635e-01, 2.1339998178918109e+00, 
            -7.2737064715989930e-01, -6.3794663278309993e-01},
        {-8.9972578760555111e-01, -2.9422179721254782e-01, 2.9579031698962899e+00, 
            1.3691245385520936e+00, -1.3061402381438733e-01},
        {-3.8671007654950412e-01, -2.7276319580480890e-01, 3.3216771161363297e+00, 
            8.5906122023816356e-01, 4.4327027261429702e-02},
        {1.8166244998124306e-01, 9.1609983368022216e-02, 1.3268689282177326e+00, 
            8.5108195912962914e-01, -3.0919536536701771e-02},
        {-2.1346712785224389e-01, 1.1170471242684649e-01, 1.9588345743568849e+00, 
            -3.9619238080548458e-01, 8.3883115246526418e-01},
        {2.2192659365040055e+00, 2.1841682986438937e+00, -1.3469642417896817e+00, 
            -7.3090755068029101e-01, 3.8569196553212615e-01},
        {-1.8530163325413209e+00, -6.1266293235431979e-01, 2.9465452041203428e+00, 
            1.0041580374789536e+00, -1.7755459594303197e-01},
        {3.3158328502938256e-01, 3.2584931284902363e-01, 3.2573766568562688e+00, 
            -3.6185131319854019e-01, -1.0548034577282683e+00},
        {6.4531844765360153e+00, 3.1823847727161564e-01, -1.4486503569061882e+00, 
            4.5033498968698377e-01, 3.0925084754971660e-02},
        {-2.4227468076428695e+00, -8.4089556778855368e-01, -1.0355583558269605e+00, 
            1.5765188520506708e+00, -8.8142604792359372e-02},
        {-2.4430042296609060e+00, -1.3954159053484299e+00, 3.2167986998874820e+00, 
            -1.3747088008886418e-01, -1.3797001639314393e-01},
        {-1.5488748359623228e+00, -8.4022825810738078e-01, 1.9159792382781077e-01, 
            -3.0070121624114060e-01, -1.1121815588410022e+00},
        {1.0971454757638004e+00, 7.6857696050526580e-01, -1.6404899808546258e+00, 
            1.3680852055750481e-01, 3.7416028762915293e-01},
        {3.3929334974155054e+00, 3.7313567745392662e-01, 3.8382003926800272e+00, 
            6.1252723684244792e-01, 5.1385702915779227e-03},
        {3.6414053216272753e+00, -1.3069654735644559e-01, -2.8702332001316981e+00, 
            -6.2413664206861297e-01, -5.4592101004896176e-01},
        {-8.8491718249602236e-01, 6.6627719309415090e-01, -2.4942900043034713e+00, 
            -1.8845984509241548e-02, 1.1146344103436103e+00},
        {-1.2228395238985845e+00, 1.4417364131661534e+00, 2.8448715776776194e+00, 
            1.2829309154301907e+00, -2.0347870079537594e-01},
        {4.4730894776209457e-01, -3.4669477387271369e-01, 1.3914689898646215e+00, 
            8.7889179280150909e-01, 7.7964846183509476e-02},
        {2.6140870781901970e+00, 3.2726877082927858e-01, -1.7674093805867797e+00, 
            -1.4619952819547075e+00, -4.8399707796262681e-01},
        {-2.4025383199838504e-01, -3.5313828923905005e-01, 2.2020136033873681e+00, 
            5.1068771241329192e-01, -4.0703893277225456e-02},
        {-8.1481210724687891e-01, -6.7932122465839484e-01, -1.7616207559651145e+00, 
            -6.4329256404219359e-01, -1.3287782889140916e+00},
        {1.8241916233106767e+00, -1.7220106769390697e-01, -1.7453816780929738e+00, 
            -2.3669923239354795e+00, -3.9069014960739432e-02},
        {-4.2836172535072103e-01, -1.2114150131838465e-01, 1.9629620200425475e+00, 
            -1.1658822931493296e+00, 1.4298004584752533e+00},
        {4.1841449105116322e+00, 3.4987268653502546e-01, -4.4548618730855463e+00, 
            -4.7966393118881967e-01, -4.9339116788211540e-02},
        {-5.7094021324952782e-01, 5.9112575471507589e-01, 2.7434491213027585e+00, 
            1.1487875572453086e+00, -3.6517649750780275e-03},
        {4.4654506801551950e+00, 2.0167001754106710e+00, 1.2536216606298498e+00, 
            -5.5316410540628813e-01, 5.0875272066161514e-01},
        {-1.8018093868252880e-01, -3.6988667417873700e-01, 2.0511128517146489e+00, 
            -3.9574332548341079e-01, -7.9019159575632025e-01},
        {2.6499009070880444e+00, 1.8776359569097112e+00, 9.8099652288967443e-01, 
            -4.8922395008490366e-01, 7.7669802001547439e-01},
        {1.0341082374098878e+00, -2.1218330304565444e-01, -3.6736765911458091e+00, 
            -1.5728878562164146e+00, 6.4499274054600597e-01},
        {-1.0707711870186916e+01, -5.1220348699448026e-01, 6.2915781848804142e-01, 
            1.9181206053428301e-01, 2.3688732546536138e-03},
        {-2.3222727625363371e+00, -1.0756170139893688e+00, -3.2062852483423987e-01, 
            7.7030733917838212e-01, -4.3683134428235687e-01},
        {4.5253013771469935e-01, -5.9372442279631710e-01, -2.1525982960414582e+00, 
            -3.1472914430683790e-01, -1.0374867425372647e+00},
        {2.4237640423138664e+00, -1.8434050300471472e+00, 1.8578967686712242e+00, 
            3.2990952896087428e-01, 6.6983436155872468e-03},
        {-2.6033972287672955e+00, -4.6426284123090150e-01, -6.5547666666550164e-01, 
            -1.5207188330194450e+00, 4.9912885922320416e-01},
        {-3.5845015391835768e+00, -1.6888109029572800e+00, 1.0794596007602613e+00, 
            -5.2737245051058579e-01, 9.0004231400436652e-01},
        {2.7257255240749521e+00, -1.6132025230093994e-01, 1.8334356502401865e+00, 
            1.3524712742751801e+00, 1.2892693638779937e-01},
        {8.5896585437992012e-01, -2.7699326768363458e-01, -4.3428640880974081e+00, 
            -3.7587392575090306e-01, -7.5950379451853928e-02},
        {-3.8041357002192622e+00, -1.5180467002186446e-01, 2.4640267467514421e+00, 
            3.8174524586069991e-01, 2.3648369260695995e-02},
        {2.6920564883703908e+00, 2.4434287577347402e+00, 1.4699111213539235e+00, 
            6.3440294724800594e-01, -1.0860318616920833e-01},
        {1.5103571488091196e+00, -7.5426359528294995e-01, -9.3059393954577463e-01, 
            -1.2655102445048336e-01, -4.1901401144348255e-01},
        {-1.2795396763207611e+01, -1.0681748950028462e+00, -1.2736493641518187e+00, 
            -1.9370700613468485e-02, -5.3475834668075581e-02},
        {1.4506238757018846e+00, 7.9678386871097640e-01, -1.3290497325104791e+00, 
            -7.9882198213537459e-01, 1.4627379447134636e+00},
        {-4.5683693856012937e+00, -1.2814786130882376e+00, 2.1139946980337174e+00, 
            -4.5052713465966468e-02, -2.5662324601527492e-01},
        {-1.0245841406208420e+00, -9.9969719462223117e-01, -4.5729601882863147e-01, 
            -2.5667249051855023e-01, 5.4955476893456412e-01},
        {-4.6860189002470589e+00, -4.6003560407370692e-01, -4.2249144742101317e+00, 
            -4.8439143627044323e-01, 2.6771481932928156e-03},
        {9.1350035576730826e-02, -6.0369682378883271e-01, 1.5820288477799904e-01, 
            6.9625292564018548e-01, -2.7536332169275628e-02},
        {-1.8564972056380669e+00, -1.5140825770879025e+00, 1.0105106253651879e+00, 
            -4.6248585855017112e-04, 9.4678315936667212e-01},
        {2.4266778655124397e+00, 1.2879358726389609e+00, 1.7316136926556889e+00, 
            1.0303793734058937e-02, -8.1724981430934940e-01},
        {-2.5069097319915906e-01, -8.9803034657791858e-01, -1.4614135390788527e+00, 
            -1.9174458560451686e+00, -7.4816149258468345e-01},
        {-4.4914807078662164e+00, -8.8837582051445119e-01, -5.5709060604196392e-01, 
            -2.0384134005014336e+00, 1.8686308272320723e-01},
        {-1.0338678549643028e+00, -1.5506825041416490e+00, -9.3172913378805799e-01, 
            -4.6686108315038549e-01, 7.0287694904098219e-01},
        {2.1942015691773600e+00, 4.3319108810423457e-01, -6.4769587556680552e-02, 
            -6.8853929200856956e-01, -3.0126646287960518e-01},
        {-3.5463212600453291e+00, -1.6884341877505722e+00, 3.8447015335732665e-01, 
            -9.2701829842623529e-01, -7.4222437728612922e-01},
        {-5.0254822061654734e-02, -1.4537105897817419e+00, -1.5560391343324358e+00, 
            -1.3614096133710587e+00, 2.0630853703199209e-01},
        {-3.1339332865072413e+00, 1.3098130313148458e-02, -3.2682334930821293e+00, 
            -6.3887611882131401e-01, 2.9950961670570753e-01},
        {2.0376148983598719e+00, 1.9308250045253346e+00, 2.1578018343258784e-01, 
            2.3726975513653735e-02, 2.8389885782265178e-01},
        {-6.2342133997491866e-01, -6.4696847981786099e-01, 1.4412681261491642e+00, 
            -1.7897704618502062e+00, -9.6010574229348133e-01},
        {-3.8305758934776790e+00, -1.5771370862541538e+00, -3.2465544349697112e-01, 
            -9.0744765263179916e-01, -7.6039313911343565e-01},
        {7.0739067974817293e-01, -7.6095424894184083e-01, 3.4384669000105643e+00, 
            -4.5700951899194919e-01, 4.8801271081754705e-01},
        {-2.0022777831358263e+00, -2.1478619701286967e+00, 1.2674028969837756e+00, 
            7.2881046842628960e-01, -2.1450258293072830e-01},
        {-5.4390588130638271e+00, -1.9231466846285705e+00, -1.9747033166359476e+00, 
            -3.1526374894779841e-01, -3.1914671819793766e-01},
        {-2.8907869550799905e+00, 5.2430227845670407e-01, -5.6377301436208815e-01, 
            -7.5004243991813913e-01, 8.2282474640329328e-01},
        {4.3822672357492731e+00, 2.8499517223438448e-01, 3.7740028343407204e+00, 
            5.3540763870122254e-01, 6.9696327965873495e-02}
    },
    {
        {-8.6329794057195597e-02, 3.1502951249678439e-02, -1.0583212116722682e-01, 
            -2.9140281144919320e-02, -4.8686887290569796e-02, -4.5094670857447366e-02, 
            -1.5262668299740720e-01, -2.0530784672573049e-02, 7.2749749789198487e-02, 
            -3.5974082884569825e-02, -1.1821535784848930e-02, 1.1007225225672890e-01, 
            -6.6774748116403063e-02, -1.0094498461632286e-01, -1.6046020266458355e-01, 
            -2.2305969895906511e-02, 5.8195541230625647e-02, -1.8124743462294174e-02, 
            -1.8201093467766875e-02, 4.7681296709443419e-02, 2.6210691325802397e-02, 
            8.8697311196805281e-02, -1.4590274685593133e-01, -1.5201133723814658e-01, 
            -1.5481206407205483e-01, 1.4261822669211477e-01, -1.2615507727441125e-01, 
            -1.3167897531287567e-01, 2.2401552104381182e-02, 1.0599951380585726e-02, 
            6.5431106561584546e-02, 3.0830067935579963e-03, -9.5775890578803646e-03, 
            -1.4218021726867230e-01, -2.5516802535878735e-03, 7.6173023247356475e-03, 
            1.4297251776302244e-01, -4.4204102755220881e-02, -4.9713561815173807e-02, 
            -1.6753599167884994e-01, 1.3186116231953948e-01, -5.1492345433921713e-02, 
            1.2846002106231494e-01, -3.0951817972697304e-02, -1.5293994724299759e-01, 
            -8.6315019649264059e-03, -1.8415706472349475e-01, -1.0795171208792757e-01, 
            -5.5897710963218078e-02, -1.2440435186602455e-01, -9.3878579399647777e-02, 
            -7.7905820149895472e-02, -1.7719687097370432e-01, -1.7376406588279859e-02, 
            -1.1274610800556556e-02, -7.6970185892179910e-02, -6.6333899014458172e-02, 
            1.8806466584387199e-02, 9.8261661703026720e-02, -1.4052488005518463e-01, 
            7.3368245099765944e-02, 3.9427289628796464e-02, 4.0894337293139016e-02, 
            -1.3266199943927440e-01, -1.3380700941044785e-01, 4.2394536242187459e-03, 
            4.6421783738755940e-03, -4.4487061719813176e-02, -1.6201351913015757e-01, 
            5.2581077562246165e-03, 1.0619992849181109e-02, -1.5535283739093284e-01, 
            1.2874527922548251e-01, 1.0500826922926466e-01, -6.4349292160293087e-02, 
            -6.6612872452790461e-02, 1.0268310192312692e-01, -1.0428178029176861e-01, 
            1.5840883780761469e-01, -1.0268901533816914e-01, -3.4445595998610301e-02, 
            -1.6905128867795216e-01, -1.3540409758865501e-01, -2.6358135511967851e-02, 
            -1.5295584730809939e-01, 1.2082139822626675e-01, -3.2568632430722361e-02, 
            -1.7507001444164810e-02, -1.4300190659115075e-01, 1.1087366699947715e-01, 
            1.3885573115771196e-01, -7.3028830679996298e-02, -1.7836916922548279e-01, 
            1.0871471856083986e-01, -8.0545943888013435e-02, -8.2207193106661122e-02, 
            -1.4945265462814705e-01, 2.6332803413869788e-02, 1.5801378364131680e-01, 
            -7.6503385294325210e-02},
        {1.7616903329261220e+00, 2.2022609199366570e+00, 1.5484321739801494e+00, 
            1.1483069320962072e+00, 1.5033157750653792e+00, -2.1172565628185049e+00, 
            1.5891549592058416e+00, 9.2109310513036191e-01, 1.0333868105697854e+00, 
            -1.7563770968534538e+00, 1.4350982403211356e+00, 1.6944255411939932e+00, 
            8.5829369091221808e-01, 5.5867008337976509e-01, 5.4349152208670903e-01, 
            1.0052835141881884e+00, -4.3554875685507566e-01, 1.9653373726557355e-01, 
            -3.8078782273998812e+00, -1.9560467170557234e+00, -2.5578891311301710e+00, 
            -2.2551947034313441e-01, -1.0060500495339145e-01, 5.4025979287695935e-01, 
            1.5304523017691107e-01, -9.8922191956506311e-01, 6.3926005652509788e-01, 
            8.5283056264942581e-01, -9.2831996758155608e-02, -1.6765493425929381e+00, 
            1.1726661563358411e+00, 4.9378674476430029e-01, 1.3661338659379449e+00, 
            -4.1215400579069650e+00, -1.9636002917454805e+00, -1.1084219674993505e+00, 
            1.3004208676403612e+00, -8.9709023180586744e-01, -4.6518687511152668e-01, 
            -6.2958972465961063e-02, -2.7176541922322994e-02, 7.8448339766547837e-01, 
            -6.7071592354344967e-01, -1.0468256225209287e+00, -1.2081104075100197e+00, 
            -3.7973651443696604e-01, -1.3998336938301953e-01, 4.8112881558526238e-01, 
            4.9424029987445839e-01, 9.1969677689099041e-02, -1.1933654345657820e+00, 
            4.5767758977683301e-03, 3.2877471960837212e-01, -1.6314636275042547e+00, 
            6.4002536504368823e-01, 7.7425502909341171e-01, 1.1422458154588333e-01, 
            -6.4387011780456160e-01, -2.6506349913524381e+00, 1.3801405087114224e-01, 
            6.1825987985489761e-01, -7.5499031090338709e-01, -2.5364599623273181e+00, 
            4.7892785771139373e-01, 3.8938459414974447e-01, -1.9340972429157384e+00, 
            -3.5626048614455721e+00, 4.1435487957608358e-01, -1.6653769156880254e+00, 
            -2.8770657601170846e-01, 4.8909369144891607e-01, -5.5383311336009355e-01, 
            -6.7433936898567326e-01, 3.4185788301532199e-01, -3.2950570825634466e+00, 
            9.5899339971710895e-01, 5.3526716447994205e-01, -2.9626071556232807e+00, 
            -6.3833952142910533e-01, -5.3365072082233611e-01, 1.2346027367498640e+00, 
            6.9672805126137427e-01, -8.8601541989748095e-02, 3.1686099100247334e-01, 
            2.7434288562391407e-01, -2.6865616387089825e-01, -7.4012867687267248e-01, 
            4.3742065760363974e-01, 3.6085822565094339e-01, 9.4539929873008355e-01, 
            -1.6983118223890361e+00, -2.7712158588692537e-01, 5.2366793785214127e-01, 
            1.7203115648277178e-03, -2.3355691570961120e-02, -4.6622347317191265e-01, 
            -1.4107839759418883e+00, -1.9066446106559780e+00, 6.2950839298261307e-01, 
            -6.6188553283352713e-01},
        {2.8014161911537716e-01, 1.1128945552298510e+00, -1.6860888502499741e-01, 
            -1.7652630969588210e+00, 1.7232808189243964e-01, 3.7710362665259350e-01, 
            1.1425974556148135e+00, -2.8310161182742688e-01, -8.8456227612768690e-01, 
            -4.6700733515159215e-01, 2.2472146082674174e+00, -1.1048563070308759e+00, 
            7.9979844978982606e-01, -1.0622929673788455e+00, 1.6257015885636501e+00, 
            1.7240149239080480e+00, 9.8945525814974766e-01, -1.4042593087559312e+00, 
            -2.1032512197675870e+00, 2.8630625259414344e-01, 6.4022272251739321e-01, 
            1.1300914624054166e+00, 3.9110999642768450e-02, -3.1077597933353651e+00, 
            -3.0436149712330057e-01, -1.2207705204459640e+00, 2.7427969699902560e-01, 
            8.1101577427247096e-01, 4.5564590978837238e-01, 4.6737658898529627e-01, 
            1.0827612046961961e-02, -5.0370398621586687e-01, -4.6572289365283455e+00, 
            6.4070656318715979e-01, 8.4323653215841587e-01, -6.6604244118396916e-01, 
            -1.4333997092259660e+00, 2.4816346779788848e-01, 2.3369991742007334e-01, 
            -3.9061742418438550e-01, 3.2532934853278100e-01, 2.0311706820687014e+00, 
            -1.8541677059857058e+00, 1.4521493420556902e-01, -1.4534181455563633e+00, 
            -6.7215907735222502e-01, 4.8789729779807173e-01, 2.1201242957429894e-01, 
            -8.2709271475383375e+00, -4.0450435059149054e-01, -3.7073553239384044e-01, 
            1.4209949351988946e+00, 2.5778169293635406e-01, -1.7721891327013268e+00, 
            1.0147392213741677e+00, -5.6628061419879572e-01, -1.1972967252372497e+00, 
            -5.2916497207102642e-01, -9.2915673705422627e-02, 1.0268829183536599e+00, 
            -1.1142041717943483e+00, -1.0287749114863806e-01, -1.5208761900407990e+00, 
            6.9376719774870921e-02, -1.6844433924490858e+00, 5.5335362807410204e-01, 
            5.1356434713534704e-01, -1.3899206033248592e+00, 1.7109918609032160e+00, 
            2.1392385625975178e-02, 1.0335326584952635e+00, 2.6667821164245670e-01, 
            9.2166201549406768e-01, 3.5763762901712826e-01, 7.4689183020114214e-01, 
            -8.4053551770034185e-01, 9.0330413426504752e-01, -1.8076099638571468e-02, 
            -3.9239697510589350e-01, 5.9147802513047576e-02, 1.6947018159695411e+00, 
            1.7145531430570099e-01, 1.5076418916943899e+00, 4.6615141022595719e-01, 
            -2.2115220298415206e-01, 7.4657579003011187e-01, 8.7672787579235056e-01, 
            1.2804066080150306e-01, -3.1846442818500541e-02, -1.8693820811073646e-02, 
            5.7322998761928881e-02, 1.2704991216233161e+00, -1.8752601257373065e+00, 
            -6.9501866937943302e-01, -4.7585656176203979e-02, 9.6410943728199694e-01, 
            -3.0074853509209104e-01, -3.4609590300136883e-01, 7.0472382120170540e-01, 
            -2.0713760522207578e+00},
        {3.6280577304315532e-02, -1.2922098267680375e+00, -7.1492661503511168e-01, 
            7.8734810337483266e-02, -2.7439902162297134e+00, 5.9163897293488055e-01, 
            -2.3863862319564051e+00, -7.6256363479961298e-01, -1.0407681375896048e-01, 
            7.7419535802212247e-01, -1.2116806698436151e+00, -3.0261604473270332e-01, 
            2.5276854852029867e-01, 5.0858677736618907e-01, 3.5045762364541222e-01, 
            4.6074652612561318e-01, -2.7615252280324010e-02, -1.0930464556990664e+00, 
            -2.6460309168145574e-01, 1.2030072679752981e+00, 9.3653627614943213e-01, 
            -1.5786561087236672e-01, -5.2959258081102012e-01, -4.7622513864554534e+00, 
            4.8536344367456108e-01, 1.1817822328379120e+00, 5.0290107399947526e-01, 
            -2.3090810566265244e-01, 1.4638451692483190e+00, -1.1008085483012260e-01, 
            7.9220695210355985e-01, 5.0030551820979219e-01, -8.7619763691641372e-01, 
            2.5562485822694847e-01, -5.7225472249736486e-01, 5.8017384724834009e-01, 
            -1.5483376967996743e-01, 6.4102807426232955e-01, 4.6405130471286210e-01, 
            -4.5052864130255704e-01, 8.0576518371588679e-01, -4.0027862394896436e+00, 
            -1.6803088120731364e+00, -1.8772318630743436e-02, -1.4096562444511660e+00, 
            -1.4437816114977846e+00, 2.7341348000412019e-01, -2.3378648172046876e-01, 
            -3.8400792206199458e-01, -8.7388686288499584e-01, -3.3596795181132671e-01, 
            -1.3863218652268834e+00, -3.3396691550555802e+00, -1.6468802363512562e+00, 
            5.2636752156174627e-01, -1.8910740983333635e-01, -2.2717131725464390e+00, 
            1.1065987563932047e+00, 5.5347592938734413e-01, 1.1549570030572744e+00, 
            -1.9511197258244191e+00, 7.6547826388185913e-01, -1.2333775001842826e+00, 
            5.0837059579794441e-01, -1.3915184261357105e+00, 1.3008500620181549e+00, 
            1.5356728860759961e+00, 6.7111668184596895e-01, 3.3227695044333805e-01, 
            -1.3539229729030575e-01, -2.2138835012623237e+00, -3.3041992815917789e+00, 
            -8.4714738277149870e-02, -1.0795336924817558e+00, 2.4961495683775198e-01, 
            1.0799245223018707e+00, -9.2529242093620345e-01, 1.6702319521867273e+00, 
            2.7279754778229464e+00, 5.4529255740657800e-01, -3.1244371881288518e-01, 
            6.1544269127577056e-01, 4.9481355454631948e-01, -1.1832322685033618e+00, 
            -1.1861330016584093e+00, 7.3602334879587783e-01, -1.4909655101886592e+00, 
            3.4845049446880522e-01, -1.7312510457358571e-01, 1.0334814619179575e+00, 
            1.6382468538205762e-02, -1.0436991321937130e+00, -1.3385424414013909e+00, 
            1.3263113787477816e+00, 7.2819124959991344e-01, 2.0774707029084913e-01, 
            -3.6391933705643870e-01, 5.0245413765841218e-01, -4.4266042165900332e+00, 
            -7.1597864271233980e-01},
        {1.4315795327754248e+00, -2.2138078660559724e+00, 8.7578656878202021e-01, 
            6.8362696177269633e-01, -1.1905710874900892e+00, 1.3848677755606327e+00, 
            -2.6297365914778776e+00, 7.5436839321690097e-02, 4.5091930919618955e-01, 
            6.4739645127105316e-01, 8.3636711955117027e-01, -6.4713312542347523e-01, 
            1.3241742163884215e-01, -3.0978021474127093e-01, 6.1679167221857889e-01, 
            6.7409351440303855e-01, -1.8399261210720064e+00, 2.0285625003770580e-01, 
            -2.0401381186428473e+00, -1.3204328770883760e+00, -1.5607545751845340e+00, 
            4.8985016593067687e-01, 4.2528678895334787e-01, -1.6580465536494444e+00, 
            2.5917797514961133e-01, -9.8501555110570049e-01, -2.5954275034805825e+00, 
            -7.7129183153910419e-01, -3.7922753147279975e-01, 8.4817865806841053e-01, 
            -1.8210223814573026e+00, -2.5574851831793954e-01, 9.0066481954634892e-01, 
            -2.9817722934332793e+00, -3.3068662158450453e+00, -2.7861958635956058e-01, 
            5.2989832637407708e-01, 8.2560804937408816e-01, 2.9315953093468725e-02, 
            -8.0229474242092069e-01, 4.9151912142784804e-01, 4.9662084937644096e-02, 
            -1.2256705809272304e-01, 3.6530648779559566e-01, 3.2104860005647906e-01, 
            -6.4544834350074098e-01, -1.2514690803624537e+00, -1.8447355142945476e+00, 
            5.3340925859577248e-01, -1.1885581758752801e+00, -9.6240236573294446e-01, 
            -3.6272577323725991e-01, 1.0402599056886819e+00, 4.2025840082558347e-01, 
            9.1678326512094299e-01, -2.8141511379858025e-01, -7.5772424152782558e-01, 
            1.4879465248082144e+00, -1.5630394721335794e+00, 5.0511874319536243e-02, 
            2.5246077835148339e-01, -1.0029937441133920e-01, 1.4112964265543917e+00, 
            7.0972346132165443e-01, -2.9861665018507882e-01, 3.5731495005833747e-01, 
            8.5441998184897217e-01, 3.7654615206412523e-01, 1.1705294041435409e-01, 
            -1.6311875937704430e+00, -1.2101991170768469e+00, 7.5736689985692784e-01, 
            -5.1435782241596228e-01, -7.7007904054255538e-01, -1.7990915795514189e+00, 
            6.0628185861273365e-01, -2.9629421089021435e-01, 7.0750206744787802e-01, 
            -1.0140629615925593e-01, 7.6839262801111904e-02, -1.8941553878285788e+00, 
            -2.4764728229627345e-01, 5.5522776917009398e-01, -4.0589750541404880e-02, 
            1.9236239207992750e-01, 1.2238484620024877e-01, -1.8526023753887479e-02, 
            -1.5301390976442167e-01, 1.9474426147748938e-01, 1.1326191792233475e+00, 
            -8.3622332248468445e-01, -1.2910728383091303e+00, -4.7014274750233781e-01, 
            2.2483563264412929e-01, 1.3760130605962297e+00, -8.1675224487164699e-01, 
            8.4043764936659604e-01, 1.1672082087833875e+00, 1.7909697689336381e+00, 
            -2.3072430967176287e+00},
        {-5.7103549554811084e-01, 5.9610244972908488e-01, -1.2689895365211725e+00, 
            -1.9128997525293587e-01, -1.6857615749007124e-01, -7.0590580139442541e-02, 
            8.0278807584797751e-01, 6.8859580219315586e-01, 4.0445930750749765e-01, 
            5.6478734348276494e-02, -5.2182456301165014e-01, -4.3827124548185231e-01, 
            -6.2906532719932380e-03, -4.9005555888042374e-01, 1.6158974576942395e+00, 
            4.9704372714975920e-01, 5.1036494647714381e-01, -6.4486835848567892e-01, 
            -5.0099966861813261e-01, 7.0593883050526229e-01, -1.4532969434282392e+00, 
            1.4839173352931281e+00, -2.2497622275412271e-01, -1.5524997346162364e+00, 
            9.4997554740976675e-01, -1.8725861496519027e+00, 9.2021724741323674e-01, 
            1.0521986312055871e+00, -1.8490760453673596e+00, 2.1444227305364222e-01, 
            -2.3112849702236959e-01, 4.6403991142866086e-01, -6.2097443279506837e-01, 
            1.0213565356975964e+00, 1.3385793849390459e+00, -8.1267967807594976e-01, 
            -8.4744975845159187e-01, 4.1505841989859382e-01, 9.6554333132977155e-01, 
            -2.0133010430673592e-01, 2.1276440733352112e-01, -1.9785917395193811e+00, 
            -1.5826023958033164e-01, 1.0042582492315997e+00, -1.3766473979142480e-01, 
            5.0503502237249698e-01, 7.7967365356429508e-01, 7.1145295444049472e-01, 
            -3.2742163408281927e-02, 1.2576040138675761e+00, 7.9014317323481331e-01, 
            -1.3533642852881740e+00, 2.0859222587249282e+00, -1.3197144318424354e+00, 
            9.6849846686392349e-01, 2.9211764784508143e-01, -3.0307078043296432e-01, 
            -8.0619399760193422e-01, 2.4288551235243055e-01, -2.2623892711623967e+00, 
            -3.9057887200990975e+00, 3.4617904956544127e-01, -2.9826903699227607e+00, 
            -3.5612184919625500e-01, -2.0663917934600091e+00, -7.7337016619505039e-01, 
            8.5817735014302710e-01, 4.6707306553311262e-01, -3.5450377244269954e-01, 
            1.1818088695956951e-01, -1.7239597276532479e+00, -2.0623235499909525e+00, 
            5.4691008207815495e-01, -2.3986451706768506e+00, 3.2145484196317275e-01, 
            -2.7458348320924980e-01, 1.9149448280953238e-01, -4.6938356001171022e-01, 
            8.0228754578906458e-01, 5.1812951017637454e-01, 4.1805765776466869e-01, 
            -1.3771822330949490e+00, 1.5582939263860154e+00, -2.1350785288467820e+00, 
            -1.2422572579599798e+00, -4.8352178843641880e-01, 7.4711362862409636e-01, 
            -1.0392027229148777e+00, -2.5748194876849145e-01, 6.8147810996577407e-01, 
            7.9282715518702557e-02, -1.1805635037935964e+00, -1.5483762919518904e+00, 
            6.8834772221156315e-01, -1.5531750373804012e-01, -7.8508617502772871e-01, 
            -1.0537856900861480e+00, -2.5435949485106496e-01, -9.1861173821801800e-01, 
            8.5718300044285212e-01},
        {-1.7711318416686794e+00, 6.0230885537794587e-01, -3.3961696066926961e-01, 
            3.8089103011744030e-01, -9.3184506956480492e-02, 4.6702662751492785e-01, 
            -6.2924124071468657e-01, -1.3605987771984267e+00, -1.3122579995782089e+00, 
            2.2386585771387352e-01, 1.3633970203757355e+00, -1.6954430505733922e+00, 
            1.3153751444796404e+00, -1.4199266252020115e+00, 1.1099998595564284e+00, 
            7.8653457012021055e-01, 3.0312016814832893e-01, -1.0220934590279199e-01, 
            -1.9016804886810723e+00, -1.6726016971529891e+00, -9.8038747898471224e-01, 
            4.0480001258931780e-01, 1.0780933722129755e+00, -2.1295642714260170e+00, 
            1.0604790150678196e+00, -1.1929208802266371e+00, 4.0298936864398133e-01, 
            -9.6971334058525716e-01, -1.2940929316635441e+00, 2.3025260058622241e-01, 
            -3.7597027137575928e-01, -6.7711114625584889e-01, -1.2175504002919104e+00, 
            5.1377076535955835e-01, -4.7358952916197017e-01, 3.5761193547566599e+00, 
            -2.3980306749547070e-02, -1.1047410174410907e-01, 4.8368163587315982e-01, 
            1.7754606918100655e+00, 1.0828826184673875e-01, 6.7600947847867121e-01, 
            -7.3795048180469525e-01, -4.5299679610200633e-01, -5.9782562559433061e-01, 
            -2.3386388097711722e-01, -1.6579050061958187e+00, 5.8843933104887780e-01, 
            -5.5583223374228057e+00, -5.0793997606039631e-01, -1.7039836281348815e+00, 
            1.0846465938496810e+00, -3.3554663508028484e+00, -4.6520589579774079e+00, 
            6.2291967864800368e-01, 5.4454595981852671e-01, -2.9610952211846675e-01, 
            -4.0129142550153070e+00, -2.8175979941818480e-01, -1.7683835410504187e+00, 
            1.2683085498005608e+00, -1.5727219805548745e-01, -1.2962456087551832e+00, 
            2.1707688481963569e-02, -1.5658577572304038e+00, -3.7334631271466234e-01, 
            1.2438251309686574e+00, 4.6694651491848926e-01, 8.6626258831985381e-01, 
            -1.9915590357794923e+00, -1.4419906850439015e+00, -5.8023813490488585e-01, 
            -7.0749755841705647e-02, 1.4071555470087442e+00, 7.3719197701640682e-01, 
            -6.8488006397297296e-01, -4.9271373860898293e-01, 1.9121354615160373e+00, 
            -2.0204284867457858e+00, -8.2143492454451028e-01, 8.2351061933662029e-01, 
            2.5785239755326064e+00, 8.5526810205881987e-01, -6.9172805548710428e-02, 
            9.5312014247682653e-01, -8.0993969190626691e-01, 3.5524134321760376e-01, 
            -9.8751336258824418e-01, -8.6762453558010300e-01, -1.7365442619256415e+00, 
            1.3718021787682104e+00, 1.7046758506609156e+00, -3.1089919609408927e+00, 
            9.0098465649035808e-01, -3.3927322451397250e+00, 1.4437847076222954e+00, 
            1.8792091049028494e+00, -1.5142078404219252e+00, -1.8598734265892483e+00, 
            -2.2594895092614951e+00},
        {4.5715446755863608e-02, 8.7792751153559667e-01, 8.0478092230858678e-01, 
            -2.9947410631061531e+00, -2.0516915554826469e+00, -5.3841345829624454e-01, 
            8.3098481001344016e-01, 4.3561161392211022e-02, -9.7067773356724574e-01, 
            5.5365372433566673e-01, 6.1453354039520558e-01, -2.3847876354698623e+00, 
            -8.1177428651403227e-01, -3.3673342989458703e+00, -1.0434203474779506e-01, 
            -6.2523813681411333e-01, 6.1738950551339178e-01, 9.3463688925249078e-01, 
            -8.4249342914609526e-01, -7.9456510769747224e-01, -4.4525059553554636e-01, 
            8.9859847985731267e-01, -1.9338538795892766e+00, 7.1189906080323107e-01, 
            -1.2823626284804876e-01, -1.4240271327269778e+00, 4.1450156494910650e-01, 
            3.9626052905898712e-01, 1.3882195468000107e+00, 1.0072301641188480e-01, 
            2.0228706918822330e+00, -1.9398334328220277e-02, 3.0264034737652801e-01, 
            -9.9427072814869977e-01, -2.0971714246230393e+00, 4.8984626585086277e-01, 
            -8.2189615043457653e-01, 1.9206657963804976e+00, -7.2359729370933712e-01, 
            -1.0345196790824956e-01, 4.1864283079273222e-02, -1.1873817271263500e+00, 
            6.7589682657771388e-01, -9.2535717684629193e-01, -1.1407652067420326e-01, 
            6.1939248822916870e-01, -1.6324291484427509e+00, -1.7070405949997560e+00, 
            1.7164780010366423e+00, -6.8252661975805951e-01, -1.3577984823188831e+00, 
            -9.8453985310449699e-01, -1.3787939858175038e+00, 8.8443733212570111e-02, 
            4.1043882124582048e-01, -1.4789037702260099e+00, -1.1047122105853803e-02, 
            6.6818797861414847e-01, -7.7910054688858110e-01, 4.0755822910275175e-01, 
            1.5522229701093559e+00, -1.5008932559973434e+00, 1.1699106760740596e+00, 
            2.0095211088557074e+00, 1.2071738236242204e+00, 1.6313687408302513e+00, 
            1.9748217856390648e-02, -2.1121812029193601e+00, -1.2926399144349847e+00, 
            2.2552080117253830e-02, -1.1564578603704576e+00, -1.1897207809586887e+00, 
            1.0198245445216501e+00, 1.1609669971273637e+00, -5.7744251667946878e-01, 
            -1.3333201689703527e+00, -2.0081483346661891e-01, 3.8992497066200399e-01, 
            4.1915983402631352e-01, -4.1693352404437767e-01, 6.7886960387849427e-01, 
            1.4337095303417728e+00, -3.2382477100979934e-01, 1.9326759446316127e-01, 
            5.2439631454478286e-01, 1.4476162972765478e+00, -2.2866328634624939e+00, 
            1.7573143707653551e+00, -7.8347513541549196e-01, 6.3330461975729690e-01, 
            -4.7314320183739111e-01, 1.6999112293122249e+00, 5.5615941454634769e-02, 
            -1.9618164096217094e-01, -2.7981650757573523e-01, -3.7239963186318428e+00, 
            4.6052742296468474e-01, 1.7801543510559106e-01, -6.1615508786675643e-01, 
            -1.7606714195155175e+00},
        {7.5068772785903393e-01, -2.8719638475625586e-01, 4.2006533969931786e-01, 
            2.7355203178628645e-01, -5.9444808346379552e-02, 1.7021787693815809e+00, 
            1.2238746616321290e+00, -1.5718976013457340e+00, 1.3933233652467622e-01, 
            -1.6605183480090624e-01, -6.5333125118800095e-01, 6.2165600888053074e-01, 
            -1.6350373018237705e+00, 1.1157468204138237e+00, -2.6841368232424262e-01, 
            -1.1656131889839829e+00, 2.0206618122435940e-01, -6.0018251645519027e-01, 
            1.3805537385229951e+00, -7.1155095921022304e-01, 1.5698099601133710e+00, 
            2.4498394502264800e+00, -2.2958094275402638e+00, 4.6111760625906506e-01, 
            -3.9971814602910496e+00, 2.1874995671964323e-01, -1.8338079688661002e+00, 
            -2.2964774689393090e+00, 2.5351866569133802e-01, 5.1431842185645527e-01, 
            -1.3091575839354647e-01, -1.6219485768517039e+00, 8.3969817035297367e-01, 
            -6.5634156046167369e-01, -2.9722176550322249e-01, 2.1586493392789747e+00, 
            1.9724499962260100e+00, -5.0855079020147180e-02, -1.1349534045356644e+00, 
            2.4455553574021751e+00, -7.6794661773414130e-01, -1.6033169027336755e-01, 
            2.1380143468825756e+00, -3.5462772919238184e-01, 1.6135366443404302e+00, 
            -5.3994194369390658e-01, 5.1169590874820514e-01, -6.9612776778937080e-01, 
            1.1307345085141194e+00, -7.3656952296601741e-01, -4.6628445216296291e-02, 
            -1.9221468332939879e+00, -6.0690612161109958e-01, 3.9816154653155351e+00, 
            -9.3561016218890503e-01, -2.2510134547807237e+00, 3.0580952496175535e+00, 
            1.7505191563919889e+00, -4.9924419188084537e+00, 1.8229013704604853e+00, 
            6.0052468053231267e-01, -5.9935604192558378e-01, -2.9452477397404181e-01, 
            -1.9305997082756415e-01, 9.1022580236617123e-01, -8.1669891002184813e-01, 
            -2.6087730591817543e-01, -2.1720525134780694e-01, 1.7845580524659228e+00, 
            -2.0198089577390063e-01, 4.2675324613635886e-02, -3.5505447097834625e-01, 
            -1.3464174121315591e+00, -1.2194294692595211e+00, -2.0232934160216792e-01, 
            -3.7244968783524762e-01, -6.1713351034654229e-01, -6.6712065380923014e-01, 
            1.4520701976853365e-01, -3.3839047887564877e-01, 1.1769814960860441e+00, 
            2.7793474296076326e-01, -4.4551704012854415e-01, 3.7296841328288255e+00, 
            7.4628630473016544e-01, 6.5283303729676767e-01, -1.8489269488423465e+00, 
            -1.1680361168305438e+00, -2.2223426168772771e+00, -5.3550338904140704e-01, 
            -2.2572366220189561e-02, 6.9970328175045149e-01, 1.3703319777410743e+00, 
            2.1720063353352023e-01, 4.5708633080413485e-01, -1.1462015928040865e+00, 
            4.3128895557390328e+00, -1.5719134523090921e+00, -1.4116276211538215e+00, 
            -9.0258514349079277e-01},
        {-1.1128600852038109e+00, 5.4514743811293953e-01, 4.0032684398675455e-01, 
            7.1667616441014548e-01, 6.9356540779330833e-01, 1.1190635778974358e+00, 
            1.6757079536774469e-01, -3.4113057307857220e-01, -1.1113803242818703e+00, 
            -5.0450027286990606e-01, 1.9341550045984621e-01, -1.9245912099815507e-01, 
            -1.6416725066297335e+00, -1.0870439000588610e+00, 3.0834256246274439e-01, 
            4.8451692541610691e-01, 1.3135300421910616e+00, 3.3394332878696753e+00, 
            7.1875112206712083e-02, 1.2436970231843507e+00, 1.9036388508477660e+00, 
            -1.4396374264695558e-01, -1.8964910623191691e-03, -1.3935909910512754e+00, 
            -5.4475371648524418e-01, -1.9641269565942188e+00, 5.6478004404002569e-01, 
            -1.4010206145932322e+00, -2.9698270252597005e+00, -1.5360212621555017e-01, 
            -1.2203124984399587e+00, -4.7911436115305717e-01, 5.8550449358163714e-01, 
            -9.1706852357705992e-01, -1.0835792341922119e+00, 6.2365861496442121e-01, 
            1.0347431867153927e+00, -1.1492478199695140e+00, 9.2714187589077124e-01, 
            -2.7324571197169423e-01, 5.4381044980181514e-01, -1.5179112442458083e+00, 
            -2.3746610012799746e-01, 7.5513449351945972e-01, -1.5907894025409812e+00, 
            -8.0002518563502822e-01, -1.2534516764769934e+00, -7.3541112447326151e-01, 
            -1.6770069629831177e+00, -8.5760529618680503e-01, -2.1227762553100469e+00, 
            7.7513083625240209e-01, -1.2972652758163437e+00, 7.4161719323968744e-01, 
            4.7390875095949009e-01, 1.7505684516825787e-01, -6.2604063866807369e-01, 
            -3.8458475895068092e+00, 8.4993571320096095e-01, 8.6672457033156092e-01, 
            -1.2325483887419965e-01, -5.0078642464226919e-01, -1.6477413679860657e+00, 
            3.5739018654359106e-01, 7.5169289180137544e-01, -1.9520778367141611e-01, 
            4.8689865726443943e-01, 9.7348359391000683e-01, 6.1092046481872975e-01, 
            -8.8574646896939266e-02, -9.6726637323779807e-01, -1.1860755722682668e-01, 
            -1.6525059000044640e+00, 9.4017905313395034e-01, -4.4250692281073499e-02, 
            2.7577118062241468e-01, -1.9756851871667344e-01, 7.2987349202661067e-01, 
            -7.1843189145038622e-01, -1.8156444465070856e+00, -3.9790344426018848e-01, 
            1.3995160171428618e+00, 2.7171788098885025e-01, 4.2997111939115934e-01, 
            3.2552506049982755e-01, -6.9145520033264884e-01, -4.7707701607676395e-01, 
            -7.2793978654603630e-01, 1.8356130824788686e+00, 1.7511413828447547e-01, 
            -7.6291573484118214e-01, 4.1751656090791767e-01, -5.1227657796678538e-01, 
            -1.4674680748556115e+00, -2.9167766462292399e+00, -1.7717622951545831e+00, 
            5.0159431592624981e-01, 7.7600715787512831e-01, 1.1108738975386562e-01, 
            -1.9152565452357260e+00},
        {-6.3764359857973130e-01, 5.1402249729627070e-01, -2.2655648781253726e-01, 
            -1.9298837281451245e-01, -2.5901566844060704e+00, 1.0016865564464492e+00, 
            2.1322800563168087e-01, 1.0609967301295213e+00, -7.0004296192711646e-01, 
            1.1111001946636083e+00, -1.5235985389927931e-01, -7.6986992158983414e-01, 
            -4.6877030980398404e-01, -1.4827306591843594e+00, 8.1071200296466051e-01, 
            6.2101352212117489e-01, -3.2739625951208895e-01, -7.7966493141777993e-01, 
            -7.4230385727793946e-01, 5.7408116120448893e-01, -3.4770440525176458e-02, 
            1.6032904327779751e+00, -4.8751622739544698e-01, 4.5656895316321272e-01, 
            3.0617730877263877e-01, -7.2147174156609553e-02, -1.0933895831897329e-01, 
            -8.3403951880306182e-01, -1.0539611557745276e+00, -9.9529285767976594e-01, 
            6.4483051484317322e-01, -1.3671420365305005e+00, 1.0150762936849991e+00, 
            1.9884439842874690e+00, 1.5307871005293363e+00, -3.5815252420238219e-01, 
            -2.1202206599623558e-01, -9.3090101645609091e-01, 8.9762552616121472e-01, 
            -1.8974652884826317e+00, 6.4690345468382526e-01, 1.8663325309354839e-01, 
            1.4913769797425807e+00, 8.2068796099540786e-01, -6.3849496535342964e-01, 
            5.4126811300801558e-01, -1.2429087576975120e+00, 3.4342358523407374e-01, 
            8.6754765806638623e-01, 2.3134898505502025e-01, 9.9470036226449376e-01, 
            -2.4459390844810158e-01, -2.0081517132599931e+00, -1.3926140644443716e+00, 
            1.9706114027761948e-01, -1.4917231475725363e+00, -1.3027841943908820e+00, 
            -3.3706508913854999e-01, -1.9244360314536930e+00, -4.5166909816779727e-01, 
            -9.4897657780715128e-01, 3.5543844107018746e-01, -1.1304488918485066e-01, 
            -1.7242040707652995e-01, -9.1085019146356516e-01, -9.0241584078439074e-01, 
            -2.3451715324880543e-01, -6.0545387047704402e-01, -2.0723121707767271e+00, 
            7.1148769344820639e-01, -1.0540767138500376e-01, -3.5233745785608950e-01, 
            7.1433849668742988e-01, -1.1527458408348010e+00, 7.6299787600836511e-01, 
            3.2528116033185867e-02, 9.9032927169052742e-01, -1.4378433154548220e+00, 
            1.1517285276991520e+00, 6.2998374102457089e-01, -3.5269636184231769e-02, 
            -1.4159670849470698e+00, 1.7780745544562199e-01, -8.8787518392588849e-01, 
            -2.2890431032345036e+00, 4.5126390488744605e-01, 1.7724181218475832e-01, 
            -2.2765191242200081e-01, -6.0466328881360476e-01, -1.0460429883467006e+00, 
            -2.2290816600496912e+00, -2.9474274373901882e-01, -5.4464247301501867e-01, 
            -7.6071327624209240e-01, -9.8846848561738543e-01, -1.9029184411467825e-01, 
            -2.1140273483124172e+00, 2.6585627684164781e-01, 1.1589461397816021e+00, 
            1.3481412543626019e+00},
        {1.3122390229557868e+00, 5.3446418140672791e-01, 7.2042152052604015e-03, 
            2.5537519696343358e-01, -7.7797826150773894e-02, 1.1993708280337847e+00, 
            -1.3487788579855351e+00, -1.1327155066515333e+00, 2.0183338955224168e+00, 
            -1.7065768546292919e+00, 6.7431875918159578e-01, 1.2074472001887910e+00, 
            -7.4146579149326686e-01, 1.1062608346306908e+00, 1.1694694259635907e+00, 
            -6.1445214954158234e-01, 1.4801354994132954e+00, -1.1008248366885832e-01, 
            -5.8310858251000497e-01, 5.1502027534451911e-01, 3.1420944823525736e+00, 
            3.4576040079645209e-01, -1.2960671560390156e+00, -1.6579067206848306e+00, 
            -3.8069895954337740e-01, 1.2149795628471638e-01, -2.8193176737119213e-01, 
            9.9742159800357977e-01, 9.3039164425386012e-01, 1.1722326893669759e-01, 
            1.1641191564976170e+00, 9.8357275355412044e-01, 9.0115534054249968e-01, 
            1.9037398399154640e-01, 8.9496441390332271e-01, 1.2649294022232318e+00, 
            3.0947468860862121e-01, -4.8087400235234096e-01, 1.0375309791825089e+00, 
            2.1549511557130492e+00, 9.2566017222133479e-01, 9.6504809312148976e-01, 
            -1.6847552026987547e+00, 3.2357918981543704e-01, -2.2724803887737002e-01, 
            -8.8719025907798066e-01, 1.2447957939516046e+00, 4.9877998540264246e-01, 
            4.4011653204334222e-01, 6.7760503204642852e-01, -1.4767809873027329e-01, 
            -1.1036708659604777e+00, 1.3289754641102811e+00, -1.3956633352360333e+00, 
            1.9916194000003062e-01, -3.8013611813254483e-01, 1.5735281224279039e+00, 
            3.8845750529251027e-01, -2.5571472434589655e+00, 1.5981965687742743e+00, 
            -2.3148818886422631e+00, 2.6955504556421628e-01, -2.4405962723446084e+00, 
            -8.1062381543249212e-02, -7.4599499749452514e-01, 4.0053497072702698e-01, 
            -4.7803169394379935e-01, 1.1525162104657452e-01, 1.5969213298883456e+00, 
            -2.4684562269982144e-02, 4.7743379235342986e-01, 4.3955317103276748e-01, 
            -6.3987814536523996e-02, -1.2308070991150846e+00, 2.8525770435649173e-01, 
            -1.5996149945931750e+00, -1.0932845452841029e+00, -3.5164568947773978e-01, 
            5.2748469828106437e-01, 1.8529794792844781e-01, 6.8036697997151929e-01, 
            -7.2585029428304593e-01, -3.2504364589496892e-01, -1.9964786494865879e-04, 
            -6.7354500604809064e-01, 7.4255477672180470e-01, 3.9488947359873061e-01, 
            -1.1647550422120463e+00, 8.3617691028570229e-01, 1.0342646925850378e+00, 
            -2.5131971049529471e+00, 1.4835467903155122e-01, 1.9301542644273442e-02, 
            7.7653942209462490e-01, 9.7184088140349778e-01, -8.8761512236500098e-02, 
            1.8935268061503960e+00, 7.9167739239834267e-01, -4.4247974322146116e-01, 
            -1.7695643893654229e+00},
        {-3.8060891982340958e-02, -7.1407969768862622e-01, 1.9078674543555624e-01, 
            5.6421934596983338e-02, 1.3465432034057576e+00, -1.3474529195551517e+00, 
            1.0663159676933007e+00, 5.8338183014723169e-02, -3.3296315744212002e-01, 
            1.6597949643919561e+00, -5.8090819120967230e-01, -2.4528286854984760e+00, 
            -2.4743300665861492e+00, -7.5562199995007850e-01, 1.0388570630731582e+00, 
            3.2566395523124408e-01, -1.8417423909306394e+00, -1.5066688123888110e+00, 
            -1.2100393967348368e-01, -8.1518557688653259e-01, -1.3103912476925201e+00, 
            -1.4435516300168181e+00, 1.0497747813153107e+00, 6.4477458273356514e-01, 
            1.3296378196125933e+00, 2.7801385273489992e-02, -3.6617028752804165e-01, 
            -2.6196106533311512e+00, -3.7666818730847416e+00, -2.3556088043624304e-01, 
            -8.2207381091108933e-01, 1.0893310831199368e+00, -1.4384176536683329e+00, 
            -2.1514573850542775e+00, -3.7656347570577107e+00, 5.1311942760129757e-02, 
            1.6719064970756456e-01, -7.4550312695063337e-01, -1.0579438186233032e+00, 
            1.4500752211650977e-02, 2.1738350617862692e-02, 4.1059492537887049e-01, 
            1.7762555579599224e+00, -8.3531783577687557e-01, -8.9915928144657553e-01, 
            -3.2640917795867147e-01, 5.2541769272446838e-02, -1.7311743753657414e+00, 
            9.3096772737107245e-02, -1.7648249653394699e+00, -1.6767619142017391e+00, 
            4.9997177173124452e-01, -1.3593244689985748e+00, 4.1913993306659271e-02, 
            -3.3328616684654597e+00, -1.9843037400112051e-01, -9.3012690650743649e-02, 
            -1.5546418902221666e+00, -5.1729491629279345e-01, -5.1948442504971581e-01, 
            1.0934550680382820e+00, -6.6472273939301774e-01, 4.6263694147793316e-01, 
            -1.4549519230605481e+00, 2.6776737155141833e-01, -1.5513054693391357e-01, 
            -2.6088199471866280e-01, -4.1979573468780523e-01, -1.6507587478471684e+00, 
            1.0686325507184420e+00, 1.1236000187968735e+00, 3.0963211588019965e+00, 
            1.7204337418256530e-01, 7.5171092980502086e-01, -1.6328560693211132e+00, 
            6.4752602872743903e-01, -9.9278955465033591e-01, 2.7305116706374982e-01, 
            -5.3148444924526062e-01, -1.3111572319198725e+00, -9.8745232254259330e-01, 
            8.8834595433453278e-01, -1.5043233601554695e+00, 4.9206705725002675e-01, 
            1.1618752257372256e+00, 4.7492172132184945e-01, -5.2195395969084313e-01, 
            2.3635052208911284e-01, -1.3313543553806499e+00, -1.1227902537280046e+00, 
            1.7851153646493059e+00, 1.0951978318335827e+00, -7.4086340568911682e-02, 
            3.2480532856631071e-02, -8.2166057117389935e-01, 1.1048246069679492e-01, 
            1.2119904574406901e-02, -8.8017796744864785e-01, 2.7759992938288436e-01, 
            -1.1497956765011170e+00},
        {7.7196182301554395e-01, -5.2672925099571766e-01, 2.5980560157719803e+00, 
            1.7936405236001007e+00, 1.3364725036322567e+00, -7.9210845378330785e-01, 
            -1.6382293574774696e+00, -1.6008797743262300e+00, 1.3780646313448261e-01, 
            2.8255479605635647e-01, -1.6625011719970944e+00, 1.1924022403859131e+00, 
            -1.2215938997441080e-01, 2.6416917780042770e-01, -2.8045833584156507e-02, 
            -7.5285722561314428e-01, 4.2035205763997335e-01, 7.2661489475492380e-01, 
            -7.5208385671046463e-01, -7.1880839576676389e-02, 2.0345349716856171e+00, 
            1.5071721268356268e+00, -8.2015580729369347e-02, -1.2480734430073042e+00, 
            -1.8345963230217714e+00, 4.9066751497212785e-01, 5.4428455605716419e-01, 
            1.2093723389745068e+00, 2.8237892394759783e+00, -1.4576869624530524e+00, 
            1.0037009935682457e+00, -6.1595196841896082e-03, 1.3048303061015892e-01, 
            1.5609510409776122e+00, 1.5488073254093835e+00, -5.5354098927441286e-01, 
            -1.4507638951039594e+00, -8.5069187268266788e-01, 9.9987979431685381e-01, 
            -2.0902003948278325e+00, 8.1727300497378552e-01, 6.9647686155848054e-01, 
            8.7701287677012615e-02, 6.4620152745259873e-01, -1.4841064404592870e+00, 
            -1.8366221524476662e+00, 4.4624601113921780e-01, -1.8064674572807088e-01, 
            5.3314362763625989e-01, 5.9333949278973985e-01, 6.8610451889312907e-01, 
            5.1265159933862459e-01, -8.5137951573334780e-01, -1.1713981405632663e+00, 
            -1.3592405669457084e+00, -2.1664378622172391e+00, -1.2538723741413249e+00, 
            7.5132387279512869e-01, -1.4664030342585475e+00, -8.7279362948381123e-01, 
            -9.5178500713021669e-02, 9.3860667701279765e-01, 8.1317726747877872e-01, 
            -6.7673710132347376e-01, 1.4922342570019063e+00, -1.0719594619453920e+00, 
            7.6196701625224361e-01, 1.0854233104528308e+00, 7.6786285656757813e-01, 
            -9.3370867569966554e-01, -2.3671653212263104e+00, -1.6518920956283754e+00, 
            -1.2092860410481943e+00, -1.3252995295753031e-01, 1.6520598917279847e+00, 
            -3.9944393239527137e-01, 8.4614089026938077e-01, 1.0418021427978423e+00, 
            7.8643653185529216e-01, 4.0863903302030008e-01, -8.2512041343485831e-01, 
            -3.4242766373139194e-02, 6.8399694235647387e-02, -1.1050387691401986e+00, 
            -3.3189969262195311e+00, 3.0068255562927333e+00, -1.0997357639779630e+00, 
            -9.7558539485948081e-01, -1.8872740820678833e+00, -7.1620791187991562e-01, 
            -5.3138688693287095e-01, -3.2606764328263582e-01, 3.4623177326415061e-01, 
            -1.0630777626241852e+00, -2.1369732915230299e+00, 2.6746479273188084e-01, 
            -1.2390476182252228e+00, 8.9014602713843960e-01, -1.5745118254093902e+00, 
            1.0763463715160135e+00},
        {8.2022743899587314e-01, -4.4179239227565081e-01, 1.1200137535328152e+00, 
            1.1133954576578493e+00, 7.3634012240529911e-01, -1.0278858344640836e-01, 
            -4.3258556265356568e-01, 1.7932141951108833e-02, 8.9293744037040224e-01, 
            2.2264983077773576e-01, -8.0325299049224763e-01, 1.0563063370557491e+00, 
            5.2947526015654589e-01, 1.4414912121104506e+00, -7.4212783077540634e-01, 
            -2.3005459519041187e+00, -4.9844620852314074e+00, -2.2970648285531436e+00, 
            8.5247788935978952e-01, -2.8811335927638582e-01, 5.7574169423034427e-01, 
            -1.3292673858741204e+00, -3.7362006182682916e-01, 3.0812819715483863e-01, 
            6.7138300397445694e-01, 1.9483965118763621e-01, 4.9451502423354965e-01, 
            -9.2258390267526955e-02, 1.2061725528591878e+00, 1.0576689402057768e+00, 
            3.8987384487099497e-01, -6.5347350603176924e-01, 6.2366928754634343e-01, 
            5.7356014392926413e-01, 4.6619467075827326e-01, 1.8515392901411074e-01, 
            -1.4208027345471590e+00, -8.7344805822279870e-01, -9.8178194807636981e-02, 
            -1.1613931221694997e+00, 4.8031847628248914e-02, 8.8431161442992534e-01, 
            2.7879302818208668e-01, 6.2113901818244288e-01, -2.1780498351964468e+00, 
            6.2781188981547373e-02, -5.3974407456865237e-01, 3.2423571724763978e-01, 
            -1.5465173425136929e+00, -9.9675456230812642e-01, 8.2129326200079955e-01, 
            -1.7831882486969416e-01, -9.3477679038742834e-01, 2.5637555012148716e-01, 
            1.8165916941542931e-01, 2.9179216478082631e-01, -1.1759173362207285e+00, 
            -3.2828773209261791e-01, 1.5679209482175467e+00, 1.0195257848208201e+00, 
            -2.7764087502415885e-01, 4.7075232015036127e-02, 5.6214303696774515e-01, 
            -1.9906500038273620e+00, 8.0654499834165749e-01, 5.2252677309971518e-01, 
            -9.2582910136507146e-01, 6.6494870140118323e-01, 1.0990878610359722e+00, 
            -1.9581400886588060e-01, -1.1732936194046839e+00, -3.1738650731755153e-01, 
            -3.9197939644397289e-01, -7.9581664796312879e-01, 4.6893537085083165e-01, 
            6.0917320943608999e-01, -1.3918965395231895e+00, -6.0557942024683731e-01, 
            7.1552842838878927e-01, -1.3119893322098466e+00, -5.8841989540389272e-01, 
            -2.3698188442445534e+00, 1.8404985736375412e-01, -4.9314384785465445e-02, 
            -1.5727405907860268e+00, -1.2627447278711283e+00, 4.9299884184154624e-01, 
            1.7899873595330467e+00, -4.7766177232431717e-01, -3.1234252742465820e+00, 
            3.4335744087846726e-01, -1.5139066481790042e+00, -6.3987819540466051e-01, 
            1.0181513905127974e-01, -3.0393139556152353e+00, 8.2017059248269308e-01, 
            -3.4916726365993003e+00, -6.1213203666431113e+00, -5.6505595692579902e-01, 
            9.0069664608622890e-01},
        {-2.1953374331553685e-01, 1.1943738749680450e+00, 9.7197876054663956e-01, 
            -2.3323006198285656e-01, 1.9293789837225839e-01, 2.4328152385396518e-01, 
            8.1261233442892822e-01, 1.0216979421323533e+00, -2.8057195732749594e+00, 
            7.8420237106687551e-01, 3.5591122339631392e-01, -5.4069085941089688e-02, 
            4.3666682961823072e-01, 1.7111639457249608e-01, -3.2096874297433903e-01, 
            -4.6900846747580716e-01, 1.2000473663921591e+00, -1.9737531409619172e-01, 
            2.1874627345593387e+00, 6.6449974877764073e-01, -2.7303803380376239e+00, 
            -7.1248541406563073e-02, 5.1340090418129802e-01, -2.1166470038483771e+00, 
            -1.3519081690476693e+00, 1.3631647414812884e+00, 5.2861138556001475e-01, 
            5.1738673228720522e-01, 6.3247262704196150e-01, 8.8998858106026746e-01, 
            4.4725457115717732e-01, -1.3616918090902452e+00, 9.4794571958983453e-01, 
            -8.3262701818087581e-01, -7.9580003148002021e-01, 2.2918696071708093e+00, 
            3.9297154200050105e-01, 5.1518570223711080e-01, 1.9143521138861528e+00, 
            2.0726542576276343e+00, 1.9113985494671561e+00, 3.6327537518336311e-01, 
            7.2562075547960270e-01, 1.2519984655725303e+00, 8.0767464845010128e-01, 
            -1.5609983296839200e+00, -7.5469841416341821e-01, -2.4351375298484124e-01, 
            8.5821654137340997e-01, -1.5702328886665438e+00, -2.7084793887876719e+00, 
            7.8829332629314508e-01, 1.1510110277392263e+00, 2.1475144071644880e+00, 
            -1.3680237461326958e+00, 1.8118474126420636e+00, 2.3171482676195030e+00, 
            6.7679139582214454e-01, 1.7889469516323027e+00, 1.7273807629215240e-01, 
            3.3906553130193839e-01, 1.4482456841626692e+00, -1.0468335859546271e-01, 
            4.7328597589936022e-01, 8.7101504749894909e-01, 1.0766751866757878e+00, 
            6.6177738370113023e-02, 3.0007546057343465e-01, 9.3100473628439828e-01, 
            6.0954363279347251e-02, 2.4701047963216588e-01, -2.0968951797373490e+00, 
            -1.5308690427442830e+00, 2.4798470109021373e-01, -3.5285475037574882e-01, 
            1.1305854205758149e-01, -6.5803583300157964e-01, 3.4455848036151621e-01, 
            2.0675387829030351e-01, -7.0204297037314223e-01, -6.2914192506609001e-01, 
            -3.1478702702417127e-01, 5.4748730605287461e-02, -7.6244027698892058e-01, 
            1.3774918331989581e+00, -1.2970576275189255e-01, 7.0254035964760664e-01, 
            -6.0768933331831265e-01, 1.4841005461987127e+00, -1.4038591464503176e+00, 
            1.8546359227952045e+00, 1.7380907504640977e-01, -9.4306632299923587e-01, 
            -1.0385963826744011e+00, -1.7785791676633196e+00, -1.2492369074056826e+00, 
            2.1927205561407832e+00, -6.7299149147186466e-01, 5.7277139959804568e-01, 
            -2.3093633234753055e+00},
        {7.8898117594920880e-01, 4.8956529849643221e-01, 9.7315155875249015e-01, 
            7.7503143507867953e-02, -1.7572845538465207e+00, -9.2046650465006249e-02, 
            -3.0719634817136182e-01, 9.3228191555130957e-01, 6.8886488376239929e-01, 
            1.7063325711416351e+00, 2.0543578986472696e-01, -2.4173225038471641e-01, 
            1.8831973331011198e+00, 3.3450021498721211e-01, 3.9256816202777861e-01, 
            -1.0528154666132492e-01, -6.4465498161602941e-01, -2.3896962218962114e+00, 
            -1.4120056426346342e-01, -7.7825876579959996e-01, -1.0434466792028112e+00, 
            -9.7171289385538495e-01, -4.2659230245594293e-01, 2.0028168091514922e+00, 
            8.3258482167159875e-01, -3.2832392748620931e-01, 5.4418027766472712e-02, 
            -8.9732742766576734e-01, 1.1906726383820150e+00, -6.5568678252022139e-01, 
            5.3310623528041579e-01, -3.5356867549975252e-01, -2.2896457119172058e+00, 
            -5.9375733975027753e-03, 8.3602046281501607e-01, -4.4057014124210054e+00, 
            -1.1057679955401152e+00, 1.6178398591427712e+00, -1.0851508913912633e+00, 
            -2.5194831725246960e+00, -5.7587526814805745e-01, 4.1666307295655897e-01, 
            -1.0890968183836032e+00, -1.8111648632659512e+00, 1.3304304989056062e+00, 
            5.7639851480957349e-01, 7.9355313336579847e-01, -2.1569299459825556e-01, 
            -1.4481846945800552e+00, 2.5279945949652988e-01, 1.1945874973251189e+00, 
            -1.4026886600767778e-02, -3.6053033088887898e+00, 2.1343543102953806e+00, 
            2.1328020338795600e-01, -2.4394972920484326e-01, -9.8773835165042523e-01, 
            -6.6433949498738842e-01, 4.2682555404552042e-01, -1.4089520563854983e+00, 
            1.0443837590858958e+00, 5.6770040228181058e-02, 2.0220345743355717e-01, 
            5.3152936914756665e-01, 8.3453714058305073e-01, 6.8512965822471206e-01, 
            -3.3741756661728961e+00, 8.9126040375916080e-02, -2.0099954416264239e+00, 
            4.2779428123624114e-01, -9.9937413995378221e-01, -1.7563577835702207e+00, 
            -8.6094668274181629e-01, 8.3383476466141226e-01, -7.2679569490270823e-01, 
            6.5994901174980236e-01, -1.1977992200282674e+00, -3.1274718261570116e+00, 
            -4.8931055033724496e-01, -1.0096743066465781e+00, 1.0265515776426017e+00, 
            -1.8964483187524026e+00, 7.2904552306338910e-01, 6.9302363950887647e-01, 
            -5.3044344602537130e-01, -6.8321980195403842e-01, -4.4436407348828183e-01, 
            1.6140208671141248e-01, -5.1865608254967832e-01, -6.9219204993190109e-01, 
            -4.0003353793801372e-01, -1.0029605461345548e+00, -8.9011809949513532e-01, 
            2.7470120106802098e-01, -1.0682601265662328e+00, 3.1378256081218359e-01, 
            -4.0232935890069026e+00, 2.3929799196444057e-01, -6.4123076926989053e-01, 
            8.4898639372667017e-01},
        {-3.9346725972042540e-01, -2.1179250862953896e+00, -1.5875194192324615e+00, 
            -4.8363812405112011e-01, -1.3354117622252015e-01, -7.0221948824491864e-01, 
            3.2240248783562159e-01, -1.2069069964117533e-01, -3.5406550914335233e-01, 
            -6.8807673864190921e-01, -1.4809495219758426e+00, 6.1725254498851889e-01, 
            -3.6690278407822361e+00, -1.1298399859133437e+00, -6.0996187155124570e-01, 
            4.0672622042689099e-01, 8.2225708550276566e-01, 4.7469784572533186e-01, 
            -1.3488137376302825e-01, 9.4294445257066839e-01, -7.2894716593169739e-01, 
            -1.3355110885645869e+00, -8.5664459162531389e-02, -3.6167015940213892e-01, 
            1.3834128888157511e+00, 3.3122315924335594e-01, 2.7425823182932341e-01, 
            -1.3770138015258884e-01, -3.0376128195537494e-01, -4.9544317953476608e-01, 
            -1.1056661941966288e+00, 2.7699901110334546e-01, -1.8717184841247261e-01, 
            1.4483469495644888e-01, 5.2653594989387353e-01, -1.6944223677374123e-01, 
            2.8917324108595333e-01, -2.0099403019778110e+00, -1.0450324469764947e+00, 
            -8.9327641199717978e-02, -1.2644769244363747e+00, -9.3372002713568458e-01, 
            -8.6137474383226686e-01, 5.7546920503158128e-01, -1.4700059484132502e-01, 
            -1.0140143008731577e+00, -6.3089789325275347e-01, 4.5734211602232799e-01, 
            -1.0086360359413122e-03, -1.3301187838740591e+00, 3.9063229931596516e-01, 
            2.5557827039286835e-01, -1.0212032707353444e+00, 7.1276152119355562e-02, 
            -1.5331502590651462e+00, 2.3868771737292327e-01, -2.4860945582933178e-01, 
            -3.0294145574112086e-01, 1.2031709563999806e+00, 1.1047756363314953e-01, 
            -4.1566167608668841e-01, -1.4059066579020141e+00, -1.2081326433274726e+00, 
            -1.9217362941987346e+00, -7.0226556478134139e-01, -3.1178891074251547e-01, 
            -6.8314658265411443e-02, 1.0494847981424160e+00, -7.3464633226634857e-01, 
            5.8335117433219519e-01, -2.0128581483593986e+00, -8.0486285725803630e-02, 
            -7.1106144368471758e-01, 1.7013479568408843e-01, -3.2324311167318029e-02, 
            -3.7278367489808986e+00, -1.1207329938812336e+00, 7.9967437068779360e-02, 
            3.4811716715241851e-02, 7.0372093579059125e-01, -2.3490024906858267e+00, 
            1.5081214187245814e-01, -1.2998377182035976e+00, -5.1445009406851883e-01, 
            -3.5708774729825926e-01, 4.4257883158233829e-01, 1.0396733690398769e+00, 
            -2.3244068586689429e-01, -5.4242584013489081e-01, 5.2525298523221842e-01, 
            -5.9618529982759982e-01, 2.7089277298117220e-01, -6.0373838422625847e-01, 
            -9.8698441974931350e-01, -2.6014900700425581e+00, -3.3393624255903140e+00, 
            -2.8145457002819796e-01, 9.1811580343866128e-01, -6.7152982016767238e-01, 
            1.4373577459088721e-01},
        {6.0252794934710985e-01, 3.1524085580809791e-01, 1.0210310155129705e+00, 
            -3.5508561237993408e-01, -2.2382287197902921e+00, -2.7100707796755872e+00, 
            -4.6348063630637848e-01, 1.0086280929902567e+00, -1.5408096446975663e+00, 
            1.1056701557598962e+00, -9.7651753334959079e-01, -2.4355873595125979e+00, 
            5.4455930731000901e-01, 9.9283592930015996e-01, -1.7321664401914179e+00, 
            -9.9349023710449313e-01, -9.1274905941544068e-02, -2.8700469234135562e+00, 
            -1.9885968029860224e-01, 7.4669603949563745e-01, -8.2546161743420554e-01, 
            -8.1994665210326867e-01, -1.0225452965117026e+00, 1.3967812261331596e+00, 
            -1.3702310164000231e+00, 1.2102327735527330e+00, -1.7834178076941062e-01, 
            2.6824451360221813e-01, 1.1784412771959540e+00, 3.1924865598380558e-01, 
            2.2033109545291798e+00, -2.0930240189435310e+00, -3.8959315573765569e+00, 
            6.9225275404330289e-01, 7.4511229280176727e-01, -5.5041197186071522e-01, 
            -8.0089365813817370e-01, 5.6706279601705956e-01, -1.3337760291470130e-01, 
            -1.2076157151854214e+00, 9.4982545750946279e-01, 4.2519107251952615e-01, 
            2.1636061506271134e-01, -8.6506775856384022e-01, -1.6173899437329480e+00, 
            8.6872835463301024e-01, -1.0598207690255350e+00, -3.0314352434010283e-01, 
            -2.3100549787058369e+00, 1.3291666920766663e+00, 1.4826647432536053e+00, 
            -2.2682794309023480e-01, 1.0725730855378118e-01, -5.7902017066283729e-01, 
            -1.7459288868626172e-01, -2.1271765602449211e+00, -6.1844319728678365e-01, 
            2.1583973395686238e+00, -3.2167462289415105e-01, -8.3913207156824751e-02, 
            1.4858603904416325e+00, 1.1788450277551645e+00, 3.7958245334467555e-01, 
            2.5551182045682513e-01, 5.7507928654032658e-01, 7.4910851979545917e-02, 
            7.5547960927586380e-02, -1.0836185575671711e+00, -1.4117534027454557e+00, 
            6.1481660001689153e-01, 6.4320666323305253e-01, 8.3819445584563362e-02, 
            -7.8378356183397824e-01, 7.6864763646113987e-01, 4.2603005947888173e-01, 
            1.6665067994163687e+00, -1.4196687203068331e-01, 3.2918223748731018e-01, 
            1.3359271473102913e-03, -8.9732339646248116e-01, -4.3255484790117382e-01, 
            1.5367035511161881e-01, -7.5618577494386796e-01, 8.1208114368368722e-02, 
            -2.0372463359448005e+00, 6.6498137840694960e-01, -4.6088765619644201e-01, 
            -9.6832863839788075e-01, -1.1332237404643926e+00, -2.9480419155324351e+00, 
            -6.9363030363176970e-01, -2.7043528822603424e-01, 6.2269370456134965e-01, 
            -2.4875328443909019e+00, -1.0805709131248138e+00, 1.3653839573530302e+00, 
            -6.0147962905288899e-01, -2.2209040302527433e-01, 6.7419187670567904e-01, 
            1.3245231063447902e+00},
        {1.3009704532763964e+00, -8.8323530026572517e-01, -2.3953676246014330e+00, 
            5.6221114435523423e-01, 6.2499618169860760e-01, 9.4594981392489452e-01, 
            6.8709451508102226e-01, 8.9710147560185360e-01, -8.9317486441903834e-02, 
            9.0764239723633422e-01, 1.0508435394059572e-01, -5.8115319368996521e-01, 
            1.2960152194898349e+00, -2.0586298747771252e+00, 4.8907250045964523e-01, 
            7.8400701317640697e-01, -1.2014190094687651e+00, 8.0493225390486400e-01, 
            7.9462771913180108e-01, 5.4388843989750357e-01, 1.0837490634122251e+00, 
            1.2224498656800509e+00, -8.1842259718672905e-01, -1.7698778794216299e-01, 
            1.2154250917179408e+00, 1.3711799555338766e-01, 7.6535293058228915e-01, 
            -1.4751227231889017e+00, 1.2278800790962587e-01, 9.6649884710453027e-01, 
            -3.0635985728859993e+00, 3.9672867290343999e-01, 1.1710487480722909e-01, 
            -1.5750796837570002e+00, -2.4948029795374413e+00, 1.0886317845880826e+00, 
            9.2460394139308599e-01, 1.2037414923350185e+00, -4.4414057624177877e-01, 
            4.7997895896757631e-01, 9.2308588187536789e-01, -1.8483401905923105e+00, 
            1.5175076815299435e-01, -1.1308798732106640e+00, -6.1728296750484202e-01, 
            1.9473391854742436e-01, -1.1689501916085225e+00, 2.2005381270051666e-01, 
            6.6541728126646238e-01, 3.8065113302760573e-01, -3.8751913589431228e+00, 
            -1.1602152063209363e+00, -1.6795883053194627e+00, -7.4526647325078266e-01, 
