#include "nn_params.h"

const unsigned short LAYER_DIMS[] = {
    5, 100, 100, 100, 2
};

const Layer LAYER_TYPES[] = {
    DENSE, RELU, DENSE, RELU, DENSE, RELU, DENSE, TANH
};

const double INPUT_SCALER_PARAMS[2][NUM_STATE_VARS] = {
    {-3.0435046419745814e-03, 5.1169485196201321e-03, 2.0453527862097973e-01, 
        1.7347149701777387e-01, -1.5624883269195589e-05},
    {3.9275714351302344e+00, 2.8835535626764481e+00, 3.7568953590706267e+00, 
        2.6645224279954220e+00, 4.8193106295486104e-01}
};

const double OUTPUT_SCALER_PARAMS[4][NUM_CONTROL_VARS] = {
    {-3.4694574707264558e-02, -1.0245744171166749e-04},
    {4.1880517308708254e-01, 6.1060686154151966e-01},
    {4.1880517308708258e+00, 1.2212137230830393e+00},
    {9.6530542529273546e+00, -2.0491488342323777e-04}
};


const double BIASES[NUM_DENSE_LAYERS][MAX_LAYER_DIMS] = {
    {-7.0522332670294799e-02, -2.0946257469162148e+00, -6.2876810464634392e-01, 
        -1.4363034962679890e+00, -2.4038447237237341e+00, -1.1612687059775382e+00, 
        -1.2154450157708507e+00, -6.8973966628929895e-01, -2.8355263829756998e+00, 
        -3.6586743701948199e-01, -1.2221393627256609e+00, -1.0492948591118059e+00, 
        -4.4117222267460376e-01, -3.8642350322562580e-01, 1.2394815957276482e-01, 
        -1.3548211805651282e+00, 5.9185919047718548e-02, -1.8684736228195933e+00, 
        -9.8047734854058058e-02, 3.8706197976241297e-01, -8.6354872905285451e-01, 
        -2.9304512828948952e-03, -1.1386789890316544e-02, -2.0143089857138863e+00, 
        -1.9210212609625962e-01, 5.3285428000653234e-01, -9.5867684447557489e-01, 
        -1.4384820801921823e+00, -1.5293647570302990e-01, 2.2746887777179853e-01, 
        1.3308549823798371e-02, -8.2465928112270881e-02, 8.3150003170613856e-02, 
        5.1082831712824928e-01, -1.8881593634675469e+00, 5.4643239697386869e-01, 
        -3.5760988583634199e+00, -2.1848559315281132e-01, -1.0125773512070870e+00, 
        -2.1815247296608891e+00, -8.3895927846850904e-01, -7.3878136301528730e-02, 
        -1.1340315086612293e-01, 4.2153189002198627e-01, 1.1948493805757518e-01, 
        -3.3470891694572051e+00, -1.5797505173910237e-01, -1.5468922461451791e-02, 
        1.4986403709157156e-01, -7.4118906851940747e-01, 2.9612227406624642e-01, 
        2.9884530841553048e-01, -1.9071637199497109e+00, -2.2522708930028044e+00, 
        -9.6746478758238186e-01, -3.2996050039029096e-01, 1.4951574754591895e-01, 
        -1.0194518913015274e+00, 1.0356103828405538e-01, -9.6761628676620623e-03, 
        -1.8022628727544360e-01, -1.0378778177748280e+00, 2.4742348967743136e-01, 
        -1.2502901625497134e-01, -2.5901878218595145e-02, -1.7121220482001781e-01, 
        -5.8927564984679810e+00, -7.4549588430912195e-01, -3.0391714546604693e+00, 
        -2.3428178784752514e+00, 1.1514788094972231e-01, -2.4366128251461907e+00, 
        1.1219973289310727e-01, -1.9089216195440759e-01, 3.7443004510308096e-02, 
        8.0748054861259688e-02, 1.9047977036640426e-01, -7.6840538748059206e-01, 
        -4.1182435766916481e-01, -1.7469190947984894e+00, -1.2446324725421603e+00, 
        -4.4806603282939665e-02, -1.2186635101855783e+00, -3.0011758315494115e+00, 
        -2.9504341464610153e+00, -8.5949564054329991e-02, 3.7553601647638012e-02, 
        -1.8385099305697858e+00, -9.8541206424240535e-01, -7.2641999857973838e-01, 
        -1.9007218321468111e+00, -9.6271781141433671e-02, -1.8056946039624744e-04, 
        -2.3987645618346520e-01, 1.1743781922636440e-01, -9.7541922161031011e-02, 
        -6.3796231613465870e-01, -4.0251052497882123e-01, -1.2980393879076881e+00, 
        -9.7978405147973857e-01},
    {7.9299750316846696e-01, -8.3571921460225107e-01, 8.7505250410137536e-01, 
        3.1170527132963954e+00, 5.3774418822271546e+00, -3.0121243935356183e+00, 
        2.0445915681739337e+00, 6.7552597065940245e-01, 1.6072982743323820e+00, 
        3.6807428320675770e+00, 2.8822341138056915e+00, -2.8693195113184498e+00, 
        1.9654700108280705e+00, 8.9572049790137942e-01, 2.6256093183144409e+00, 
        9.4222148510785220e-01, 2.3568650056135323e+00, 1.5226423536548916e+00, 
        1.1615729490033204e+00, -1.0469016862549365e+00, -2.1878231589039214e+00, 
        8.3789219092265332e-01, 1.5911579023558726e+00, 2.2761031424778411e+00, 
        -8.7721231413177031e-02, 1.8423852475303899e+00, 8.9264252229751084e-01, 
        3.0587345856858827e+00, -2.1104221952477329e+00, 2.7078119569575363e+00, 
        -3.3443783547047867e+00, 2.2647861576086252e+00, 2.2371087631141897e+00, 
        1.6101388905297678e-01, 2.6756369681155712e+00, 6.1072635294986355e-01, 
        2.7278942782318696e+00, -8.8625941620817286e-02, 1.9763721965070462e+00, 
        1.9440998719041080e+00, 1.6230345990238864e+00, 3.3165540447772163e-01, 
        -9.7383641831791579e-01, -2.9627615349092338e-02, 1.8900927367123688e+00, 
        1.8167497027542696e+00, 2.3479626812774841e+00, 2.4973837281832916e+00, 
        2.1747127696694957e+00, -2.7112940285041263e+00, 3.3791455236500456e-01, 
        1.7185005019617203e+00, 5.6595346526944184e+00, 2.1095325077481930e+00, 
        4.3427153525279127e+00, 2.4955840353749725e-01, -2.9168387066391815e-01, 
        1.3154803019160557e+00, 2.5540921356401949e+00, -5.3988253713273392e-02, 
        1.7313973540969732e+00, -1.3917585141941251e+00, 2.9145922087561544e+00, 
        -5.8234411040876575e+00, 9.1909845033682136e-01, 1.7731749632224141e+00, 
        2.7165307276664703e+00, 2.7137382091551769e+00, 1.8588718753705413e+00, 
        1.2782855526818290e-01, -1.2026301920565440e-01, 1.5126378408510957e-02, 
        1.7175266983774908e+00, 1.4686429233675020e+00, 2.0519814904339748e+00, 
        1.3992409962450372e-01, 3.5989212742416832e-01, 3.1705749490919346e+00, 
        -2.4221865676506047e+00, 3.6127651244285303e-01, -6.2980547877541637e-01, 
        2.2321131128860014e+00, -3.7523741870000302e+00, 1.4955014690494084e+00, 
        2.9199382571623400e+00, 2.4932768384486876e+00, 1.5781993737909031e-01, 
        -6.2985785880966310e+00, -2.3221066482783428e+00, -1.7933936901175562e+00, 
        4.5853519323554759e-01, -5.7161316377026310e-02, 1.1930692802441636e+00, 
        1.4927651689667767e+00, 2.5155963021072658e+00, 2.4374753072793518e+00, 
        3.8184409534429742e+00, -5.0884411876841215e-02, -1.0306118152250848e+01, 
        -1.7509487835364195e+00},
    {-1.4928629120402861e-01, 6.1020862577501067e-01, 5.2784744284584495e-01, 
        -7.2389267567733462e-01, 4.5864294251886299e+00, 3.5399346095163114e-01, 
        -2.4169484326064791e-01, -2.3132375907668803e+00, -1.4075416265181844e+00, 
        3.0187896392913832e-01, 2.5342799910197816e-01, -1.4868460364170352e-01, 
        2.5760462644869858e-01, -1.0986770361090035e+00, -7.8774144829465975e-01, 
        -5.2873253012956622e+00, -3.3829573973609683e+00, 1.1370867174736763e+00, 
        -1.0048304752056227e+00, 1.9558771743392225e-01, -2.0804476089602084e+00, 
        9.5521608188756824e-01, -1.1327023304241006e+00, 6.4744281343315524e-01, 
        -2.4485821099442293e-01, 4.8117717390616761e+00, 1.9646762106135760e+00, 
        -8.2039259892829257e+00, 1.4331680961892617e+00, -1.5599812023130883e+00, 
        -7.8333207267137190e+00, 4.2207609590845144e-02, 9.9266602161957407e-01, 
        2.3612537426594601e-01, -1.1141445016604945e+00, -9.8904741792358708e-01, 
        1.0404821859776234e+00, -7.2650427650299925e+00, -5.6215194868887721e+00, 
        -1.1856986212419796e+00, -7.2959508808396727e+00, 7.5212413289442559e-01, 
        -5.8425756059831002e+00, -8.7093467121043003e-02, -3.1958982827331173e-01, 
        5.4388101071704431e-01, 1.1306844814056576e+00, -1.9465409813716079e+00, 
        -2.0622938100657282e-01, -1.6047347051173404e+00, -9.6501569267101384e-01, 
        -6.0312828956879540e-02, 2.0711610528331373e-01, -1.3120872567705624e-01, 
        -2.1049196311301706e-02, -5.3446025528992189e+00, -1.1419478950687088e+00, 
        -3.0442706242577589e+00, -8.2110598537150448e-01, -3.9955425597210255e+00, 
        1.9312798439341386e-01, 6.0971555248142462e-01, 1.5707817784696446e-01, 
        1.6962911759948835e+00, -1.5637014448409088e+00, -9.0422279218371049e-01, 
        1.3196090546934809e+00, -3.2989583535708187e+00, 5.5820020438302231e-01, 
        2.1818409899101349e-02, -6.0224711148136922e-01, -8.4982698584674754e-01, 
        -6.6239990262022774e-01, 2.4735720152558413e-02, -5.7139348256636732e-02, 
        -3.9096370430216187e-01, -4.7251320630649021e+00, -1.5701940302761532e+01, 
        -1.8010992913845325e+00, -1.9720560739679300e+00, -1.6683418367623021e-01, 
        1.8785274809946830e+00, -2.2181853408063334e-01, -7.5856428886715230e+00, 
        1.2379929363707280e+00, -1.4525630265565195e+00, -5.6690794417249570e+00, 
        -1.2998435411028399e+00, -3.9480140669251940e-01, 7.1222357120957924e-01, 
        -7.4107100650260671e-01, -2.0729837490104222e-01, 4.2677810496527524e-01, 
        -6.4412101385872180e+00, 1.9446109595089847e+00, 1.0847797860912956e+00, 
        -1.8300724263817947e+00, 4.6342660638986377e-01, -2.5637724532658596e-01, 
        -5.2993070211306055e+00},
    {1.5953867665856075e-01, -1.0110483306929240e-01}
};

const double WEIGHTS[NUM_DENSE_LAYERS][MAX_LAYER_DIMS][MAX_LAYER_DIMS] = {
    {
        {-8.4075052183468224e-02, -5.0536438756907665e-01, -4.4940210850354925e+00, 
            -5.7205149052703963e-01, -2.1651494516366315e-02},
        {-1.5509075282027203e+00, -1.0924973335179049e+00, -1.3088937186963552e+00, 
            -1.1727258895096095e+00, 1.3901829435075419e+00},
        {1.9546552808890738e+00, 1.9825366633241515e+00, 4.7911119853642081e-01, 
            -3.4586564626182797e-01, 1.3044160220025327e+00},
        {-1.2420733966334948e-02, -1.3886245903240966e+00, -2.4543766915334224e+00, 
            -1.3690511628168782e+00, -1.6690562349331637e+00},
        {1.3770058817012250e+00, -1.0931762841023309e+00, -5.0579265666976303e-01, 
            -6.2964082817976563e-01, -2.0435313753582949e+00},
        {1.6377489912633145e-01, -1.3290963238062128e+00, 5.6212438140262089e-01, 
            1.1629842767451699e+00, -2.3060802102145378e-01},
        {-1.4397540400514968e+00, 4.8179062969004627e-01, -1.2681416301474562e+00, 
            -1.3879912462372610e+00, 1.2795501041715331e+00},
        {9.8080084870851625e-01, -4.8217918007706619e-02, -1.1320989250245417e+00, 
            -1.0973277346250467e+00, 9.2911179190665927e-01},
        {1.2723372588398698e+00, 1.7870890920407763e+00, -5.2318171118277368e-01, 
            -8.6535823059872785e-01, -1.1807582391909288e+00},
        {-1.3943283015285497e+00, 1.3611995076859376e+00, 1.0328958749611026e+00, 
            -2.1877548981111530e-01, 6.9114957587310799e-01},
        {-2.0412286942479181e+00, -1.5230223819099029e+00, 9.5670310839891015e-01, 
            -3.7209583463800966e-01, 3.1078514957964287e-01},
        {-4.0541478982637287e+00, -1.6888667405383788e+00, -1.1372104221888368e+00, 
            -4.0849117037999433e-01, -1.0299070670338899e+00},
        {1.8324556304577306e+00, 4.4845153555855460e-01, 6.2306664640932807e-01, 
            -8.5009724801355324e-01, -6.7545950293346549e-02},
        {-2.4438168103685740e-01, 1.0597425336778770e+00, 2.5049975433003913e+00, 
            1.1931926275301170e+00, 1.0209382169499673e-01},
        {-3.3965135224617549e+00, -4.8113616289504675e+00, 1.8047917393547430e-01, 
            1.5835994537331283e-01, -3.8334650486398558e-01},
        {1.3212594635097148e+00, 1.6456066952723338e+00, -5.3534161451203766e-01, 
            -7.5489524392853125e-01, -8.1514606466043660e-01},
        {-1.6544341406593757e+00, -2.2782972052468335e+00, 3.3260572705598274e-01, 
            -1.0560911016510950e+00, -8.1346212671268525e-01},
        {8.0527927233362262e-01, -5.1048095100152480e-01, -1.4916599517269327e+00, 
            -1.5039802625629584e+00, -1.4289140757067189e+00},
        {-4.5613753596398471e-01, -3.7909114348033485e-01, -2.6027780666489280e+00, 
            -1.7123544823052574e+00, 8.9400643582826689e-01},
        {-2.3237456517507198e+00, -3.6277201870057438e+00, 2.2396756267390758e+00, 
            5.8802209084211510e-01, -7.0976327065735134e-01},
        {4.4625643740169378e+00, 2.7038882073755213e+00, -1.7411709269262827e+00, 
            -4.4871458839799577e-01, 1.0104902735030363e+00},
        {1.5711480087959309e-01, -2.1442954027693957e+00, -2.4578646285482314e-02, 
            -4.4538139301193863e-01, -5.3482672467531400e-01},
        {4.4817207694340189e+00, 7.1680330245130519e-01, -2.8282321687102407e+00, 
            -4.6875368245844601e-01, 3.7279436493227826e-02},
        {8.8169101452486731e-01, 2.1437609442463450e+00, 7.5118801133886270e-01, 
            7.5176484494463458e-01, -1.2465951157994419e-01},
        {-1.5655173133054265e+00, -2.4480584976918016e-01, -3.2731405255338824e+00, 
            -1.6397610230194202e+00, -9.1955312272291934e-01},
        {3.0565863349173444e-01, 4.3949672234865650e-01, 5.6277161507665374e+00, 
            6.3967228756146977e-01, 9.8189716396456628e-02},
        {2.1138453166444040e+00, 6.6319712429454025e-01, -1.4240457729051357e+00, 
            -1.5381285024931111e+00, 9.7785737505821169e-01},
        {-1.2635163778121203e+00, 1.3977382649407102e+00, -2.3950348846807568e-01, 
            2.1534395187370362e-01, 1.1794860757000745e+00},
        {6.0461392341342945e-01, 7.4470819466394256e-01, -5.8528272792111946e-01, 
            -4.1421324657643011e-01, 1.0525639436010339e+00},
        {-5.4331106828828331e+00, -8.6491167699939719e-01, -1.3756585942250002e-01, 
            -6.8177053896625830e-02, -9.1392794392445867e-02},
        {9.4659289957928494e-01, 7.8019883721061334e-01, -1.3649152462909578e-01, 
            3.5030865230797120e-01, 6.5752825686794369e-01},
        {-2.1629465469882569e-01, 2.1422162819400573e-01, -7.2345124411939044e-01, 
            -6.2145294351163938e-01, -3.9876560064270411e-01},
        {-1.6615400316310434e+00, -8.6405169215198441e-01, 1.2214599824669095e+00, 
            1.1320383724237393e+00, -3.9308159428255102e-01},
        {-4.0263449470677113e+00, -1.1647500683186856e-02, 2.5960872581857810e+00, 
            4.3339456406295446e-01, 2.8141947354745783e-01},
        {-3.0417550095284390e-01, 5.5312732169553924e-01, 2.3763326288896014e+00, 
            9.6425192005638150e-01, 1.5785476037818108e-01},
        {3.8506595730184081e+00, 5.0275791375463674e-01, 3.7277200289788768e+00, 
            5.2963336396268124e-01, -6.2873624493626962e-02},
        {1.8428165816302644e+00, -4.7617755651884014e-01, -8.3496077080734099e-01, 
            -1.1358882754570507e+00, -1.9155395865800213e+00},
        {4.6815087670924316e-01, 1.0590417711321416e+00, 8.7553245197887319e-02, 
            -5.9775890580517421e-01, 3.2315870869947722e-01},
        {6.9595448086094455e-02, 1.7533014190479833e-02, 9.4706219626624555e-01, 
            1.5586855429887150e+00, 1.0883106618345588e-02},
        {2.5321995853782404e+00, -1.0622660818959435e-01, -1.7980094610582062e-01, 
            9.4138370819730888e-01, 2.1601789185924306e-01},
        {1.1330673782087204e+00, 9.8198629087761369e-01, 2.1589186596113938e+00, 
            1.4178784321630216e+00, -3.4613232847099756e-01},
        {1.1339688418856905e-01, -1.9140307048980917e-01, -1.6433691249107116e-01, 
            -7.3413779307455185e-01, 2.1930216486551266e-01},
        {2.6562873259145958e-01, 1.9061551389733762e+00, -1.1246986232502743e+00, 
            -1.0708516875976402e+00, 8.3750302035572854e-01},
        {-3.2680771867441529e+00, -1.2349397141679201e+00, 1.3943955177359555e+00, 
            5.9123451019543150e-01, -1.8933081173607844e-01},
        {1.2142175139289639e+00, 4.6515401327881611e-01, 3.0037386583338450e+00, 
            6.7126131952465329e-01, -3.5708354678484500e-01},
        {1.5415828248919763e+00, 1.1362781910119801e+00, -1.4806776820609169e+00, 
            -1.2124196803946419e+00, 2.0407196773105141e+00},
        {8.8482635211182790e-03, 2.5526330156366732e-02, 6.4105823997935634e-03, 
            4.5405573024407953e-02, 1.1986311357774598e-02},
        {-1.9867475432146124e+00, -1.2495880241224753e+00, 2.1418966667590782e+00, 
            4.8909841612338739e-01, -4.6223119262427115e-02},
        {-7.1151372082958375e-01, -2.8610879369254016e-01, 5.8767933135795182e-02, 
            5.1865618393233304e-01, -5.8739432790582402e-01},
        {3.0531733454921733e-01, 1.0446539130203072e+00, -1.1773549345016872e+00, 
            5.0254354269040613e-01, 9.3772431077581631e-01},
        {7.2923322302664706e-01, -1.2345777144306682e+00, 4.6705091016497224e+00, 
            2.9075895147067838e-02, -2.1249645142453216e-01},
        {7.0485231566044533e+00, 1.3102375070392644e+00, 5.2763270536603835e-01, 
            1.0138338696440721e-01, 2.1351872869036936e-01},
        {-9.5762855843452910e-01, 1.1677872829967213e+00, -1.4266080332002420e+00, 
            -6.9274968650022628e-01, 2.3141167968570064e+00},
        {8.4855647301020232e-01, 9.4622704749550179e-01, 1.4625975585161363e-01, 
            1.9150458925893291e-01, 1.5813344799309461e+00},
        {-9.3677290573031968e-01, -1.6666625399369819e+00, 1.8955439733916903e+00, 
            6.6237249322554648e-01, -4.8520264570417360e-01},
        {1.4187383440019035e+00, -6.3858628134972284e-02, -1.2104199882407165e+00, 
            -1.1461468541218696e+00, -2.0100541283683798e-01},
        {3.4335778515726258e+00, 6.3666461761417426e-01, 1.8412264407445076e+00, 
            1.2508413530515432e+00, -8.9265733083399620e-02},
        {-6.3240247953031059e-01, -2.2070653108143343e+00, -7.1459160683487205e-02, 
            -7.1867981648273227e-01, -1.5607632801846685e+00},
        {5.0347472956081285e+00, 1.4695473143150686e+00, -1.3635321964383316e+00, 
            -4.3609777588472365e-01, 4.4818954084817447e-01},
        {5.5815667804692137e-01, 5.9601205749470287e-01, 2.1201331808808832e-01, 
            -7.1134797822700058e-01, 4.9248416705434128e-01},
        {2.3262146857480652e+00, -3.5241488384426539e-01, -5.4607695395753204e+00, 
            -4.6568422919103142e-01, -1.7966116321924538e-01},
        {7.7342516185064236e-01, -7.8802857279383423e-02, 1.3006066522047943e+00, 
            5.9911464560607941e-01, 4.9462080963455418e-01},
        {3.9444011204287506e+00, 2.7173771654205821e+00, 1.2237444206232402e+00, 
            3.6483307679307314e-01, 4.9999306054604681e-01},
        {-5.3977794857878703e-01, 2.6350031531262360e-02, 2.0140702001949121e-01, 
            -9.5879319380388861e-01, -3.4428061899488688e-01},
        {1.5172039745206449e+00, 3.8087970181270525e-01, -8.1828863475315028e-01, 
            -8.4988991767220956e-01, 7.6799867644938657e-01},
        {1.4487958770321376e+00, 3.2978541213757445e-01, -2.0398105261754167e+00, 
            -9.5476291881508113e-01, 6.7089911959660742e-01},
        {-8.9025417837716514e-01, -1.3583449752984718e+00, -2.0192510651064834e+00, 
            -1.1157899111349627e+00, -2.8337612598004696e+00},
        {-1.1310839434070288e+00, -1.6434345199496527e+00, -1.8362901980946631e+00, 
            3.5987226601980088e-02, -1.3387975058495341e+00},
        {-1.9317979794650879e+00, -2.3757050997809026e+00, -3.4784613067711634e-01, 
            -4.8697600857452650e-01, 6.7012054312727964e-01},
        {-1.1856930967844821e+00, -1.1553085458950443e+00, -1.1622750169406517e+00, 
            -9.9180485857534739e-01, -1.9181541248557628e+00},
        {-6.8461362095122817e+00, -7.9238609845492458e-01, -1.8166595366373419e+00, 
            -3.9054755974837763e-01, -1.0885913923919292e-01},
        {-1.6543458780195710e+00, 5.4007130190993291e-02, 2.7665012594169441e-01, 
            -1.0446435114066599e+00, 1.6097914702811098e+00},
        {5.9602214895542993e-01, -1.1083701486649569e-01, 7.8634925985520210e-01, 
            7.2457784007159431e-01, 3.1317057996951803e-01},
        {-7.0634383568752268e-01, -1.0929930035535840e+00, -2.3045677798095285e+00, 
            -1.2503507438147914e+00, -9.0185141248446754e-01},
        {-3.3572688345966859e+00, 2.0137944430482321e-01, 7.0744619316327306e-01, 
            2.3748114909898654e-01, 3.0095623689003193e-02},
        {2.9146847739303552e+00, 4.4012920107786542e+00, 3.6037551745393963e-02, 
            7.4191575830744885e-02, 2.6371561440407221e-01},
        {8.9968336564875582e+00, 1.0394777325718603e+00, -6.6992868185983490e-01, 
            -1.4976490594506497e-01, 5.3116628528381823e-02},
        {-2.4301325771919338e+00, -1.1924558001837928e+00, 7.7921963651001125e-01, 
            1.0509782245430903e+00, 1.9327646905701940e-01},
        {2.1863010664209686e+00, 6.1625403980610149e-01, 3.8522737790469774e-01, 
            6.6541640363623600e-01, 6.7833034187674857e-01},
        {-1.0046661544652871e+00, -1.1797649496210223e-01, 5.3905112572619807e-01, 
            -9.3871838650460238e-01, -9.6154177058966628e-01},
        {-7.0925794335005310e-01, -1.6623296034542718e+00, 6.2329274897434650e-01, 
            7.3129319335972076e-01, 2.9058843858660383e-01},
        {-2.8599816213795428e+00, -8.8663609759309286e-02, -2.6584480950219160e+00, 
            -4.9807147506050736e-01, 4.8087141222744531e-02},
        {2.4252269730239004e+00, -5.5305569763519902e-01, -8.1168687165508313e-01, 
            2.5919113014047696e-01, -7.8268678658357249e-01},
        {-1.6611974855894676e+00, -1.4418895477466236e+00, 7.5368020778097145e-01, 
            -9.4365049532540679e-01, 1.1168867225987515e+00},
        {3.1546826644439334e+00, 1.1089076613570104e+00, 1.4136981544947607e+00, 
            -4.0026820311215677e-01, -9.8206068580558725e-01},
        {-1.4318807742158457e-01, 1.6459093351171264e-01, -5.3992954083334888e-01, 
            -5.5397406959087270e-01, -6.4999097811824103e-01},
        {-4.4876794997663536e+00, -1.8995054329723846e+00, 2.5834961747475438e-01, 
            -6.6314710287208434e-01, -6.3763376358407509e-01},
        {4.8235930590481008e-01, -5.1897703891582081e-01, -1.5711442303183334e+00, 
            -1.6069176304533070e+00, 1.1842326174814444e+00},
        {2.3768135940538127e+00, 2.5610810622221292e-01, -9.5885763488749143e-01, 
            -1.0288939893246658e+00, -6.9830113774594105e-01},
        {-1.6225388651278281e+00, -1.5240776910393969e+00, 1.0351826180953292e-02, 
            -1.0424860652813184e+00, -1.3688396944603898e+00},
        {-3.0307517798289627e+00, -1.7836876786167424e+00, 6.7514152157420582e-01, 
            8.2052163775238340e-01, -9.9201594040831031e-01},
        {-1.8359494753170678e+00, -8.2412581280605735e-01, -6.8128842214876006e-01, 
            -8.9930436007856684e-01, 4.0207136020549089e-01},
        {2.8684851419329433e+00, 2.2813766457313918e+00, -2.7065229756307825e+00, 
            -4.3677662058945882e-01, 6.5960280333533228e-01},
        {-4.6418920702747946e-03, 1.8643567020060155e-02, 1.3935550413036492e-02, 
            5.4364267698475237e-03, 2.2098790534365279e-03},
        {-3.7363882581292898e+00, -1.0980731239149961e+00, -5.9578019478951927e-01, 
            -2.4247376201505869e-01, -3.5213376832940746e-01},
        {-6.5075296908919189e-03, -4.4507525690239899e-03, -7.1091435505596596e-03, 
            -3.0351359288557426e-02, 1.0431318903379590e-02},
        {7.5220676352682936e-01, -4.1448871063093007e-01, -1.0117702176623142e+00, 
            1.5977151404254258e-01, 3.8251431852749915e-02},
        {-2.8785111632324232e+00, -1.7579687453650708e+00, -1.9849809120789224e+00, 
            -6.2078782373230690e-01, -7.5126636908421440e-01},
        {-3.7182485620539851e-01, -1.2523660973732054e+00, -9.8122241790216058e-02, 
            -2.6843556358920162e-01, 5.2448301046172563e-01},
        {1.7673414428131036e+00, 1.3640292925596802e+00, 1.4748304551661067e+00, 
            -1.1664957994136442e-01, 5.5462270598947017e-01}
    },
    {
        {-1.3471710303112181e+00, 1.9016191462948977e+00, 3.8029949563994365e+00, 
            -4.4334443611600896e-02, -1.7450643114489678e-01, 1.6823647175946332e+00, 
            2.5146912672090118e+00, 3.0757900575168264e+00, -1.4218823677531406e-02, 
            -2.1899064753805277e+01, -1.7219068488972897e-01, -9.5724971682186633e-01, 
            -1.1175931637397815e+01, -1.5669383116636353e+00, -4.8509443908699081e+00, 
            -2.0327482769911938e+00, -2.2211315900064825e+00, -4.4142412450229190e-01, 
            3.3594310225555046e-01, -2.8148212175793268e+00, -9.2248663042901011e+00, 
            -2.5746686539698098e+00, 1.3801920433185494e-01, -9.7639413162759847e-01, 
            2.1952709821958765e+00, 1.5208825755417050e+00, 1.3491173485686436e+00, 
            2.4032736510534264e-01, -2.6429482421788913e-01, -5.9236181674546341e-02, 
            -3.7835326038987860e-01, -3.8225073948444690e+00, -2.8445870484924383e+00, 
            -5.0020331277640206e-01, -2.4427256354551622e-02, 1.2704989660618609e+00, 
            1.9715113959656212e-02, 8.0928424212402172e-01, 8.0307063042610249e-01, 
            2.3520743036789971e+00, 1.1913617079389003e+00, 3.8282761622002726e-01, 
            7.7859441430162835e-01, -1.9454209597243288e-01, -1.2280525097971973e+01, 
            -3.3082712461251256e+00, -1.5626989292438184e-01, 1.4096862862630957e-01, 
            1.5242031118691179e+00, -1.3417533780073482e-01, -2.8925938200797034e+00, 
            6.0690985247526341e-01, 2.0591393987726807e+00, 2.2077391510886839e+00, 
            4.2959928920562468e-01, -5.4815706117009300e-01, -1.6009684426547379e+00, 
            -3.2063646401458268e-01, -2.0158951166842973e-01, 9.7991301843695267e-01, 
            -1.2072517794415161e+00, 9.0537261129522961e-01, 3.0650023711459129e-01, 
            -2.3873885988268642e+00, 1.0275498859983873e-01, 1.2857843756990386e-01, 
            1.8665387302654380e-03, -7.0399084396847847e-02, -2.4660940636720749e-01, 
            -2.6654968328861089e-01, 1.2631600494855791e-01, -9.5409418508050532e+00, 
            1.2029435960823147e-01, -4.3440505645650651e+00, 5.3881109619211449e-02, 
            4.4925188585591291e-01, 7.1766233221540132e-01, -6.1292824541526028e-02, 
            1.2846474238516914e+00, -2.0586899611301196e-01, -1.7338689034466688e+00, 
            -1.2646389863150795e-02, -1.4428845518242706e+00, 2.0566706268695095e-01, 
            -2.4620059692462228e+00, -1.0303690872793357e+01, -1.9249990760646092e+00, 
            -3.5134525237281766e-01, -2.6801108199600208e+00, -1.3823767915101348e-01, 
            2.0668976805551246e-02, 2.9488697359891108e-01, -8.6471158355636257e-01, 
            -1.4795386326024901e-01, 6.5572607559114759e-01, -1.1337887990489792e-01, 
            -2.8935101900321754e+00, -1.1900026619073107e+00, -1.3921227931637983e+00, 
            -5.1372901218476592e+00},
        {3.0223373695448408e-01, -2.3880960953780224e+00, 1.0646402374372076e-01, 
            -3.4678790095127748e-01, 1.4269390578113246e+00, -2.5098902311828158e-01, 
            -2.8563531644333238e+00, 7.0158905306045760e-01, 1.5883692146707395e-01, 
            1.0885451708677676e+00, -2.4114159105239525e+00, -2.0242109013323653e+00, 
            -2.3108212319005733e-01, 5.9918817583397277e-01, 1.3033014200167481e+00, 
            1.1376468546189848e+00, 1.1367956664870238e+00, 5.9344955491776807e-01, 
            -5.9067160846027678e-01, 7.8365867534836797e-01, -5.2083916462523372e-01, 
            1.4329956379643494e+00, 1.6147147182315891e+00, -9.6801919135981818e-01, 
            8.7334054093487401e-01, -4.0995660285304875e-01, -7.6704163070997899e-01, 
            1.4574511968175961e+00, 8.3685894421225859e-01, -1.1310622161857988e+00, 
            4.3986580386922609e-02, 2.3294367783699585e+00, 8.9468838101745141e-01, 
            -8.6927329222576344e-01, -1.5868993645140190e+00, 8.4307111977015003e-01, 
            5.1597759570066737e-01, -1.1587695734951411e-01, -1.8790992576829582e-01, 
            -1.7608647322980751e+00, 3.9312352808132761e-01, 2.0426946136912760e-01, 
            -1.3291139295165031e+00, -6.9836533385619148e-01, 2.5586319529424983e-01, 
            6.9741750312758644e-01, 3.5706197354769237e-01, 2.1854636441037716e+00, 
            1.3786244828312118e+00, -1.8732505151837116e+00, 1.2196818156903837e+00, 
            -4.0793412063963162e-02, -2.1127917693847353e-01, 7.9636696467317958e-01, 
            -2.1390174250036198e+00, 1.0237226652272720e+00, 4.3994888751787919e-01, 
            -2.3447067476659600e-01, -3.2452149301220973e-01, -8.9740547282611705e-01, 
            7.2834144486569363e-01, -8.3517585470861255e-03, 1.7089304881139261e-01, 
            3.0341350238250677e+00, -3.7806947606388885e-01, 7.3251354566449770e-03, 
            1.1320097685569656e-01, 1.8630961055608020e-01, -2.0333157882172350e+00, 
            -2.4101673795376866e+00, -1.0004532047435635e+00, 2.6561988955186799e-01, 
            -1.7406459096045965e+00, 2.3084754901120390e+00, 1.1195062691469292e-01, 
            5.9963675284422879e-01, 4.8341342321684483e-01, -1.6153216765946915e-01, 
            -1.2897392981943248e-01, 2.1033547164559270e+00, 1.2222566940060369e+00, 
            6.3957783745835706e-01, -1.2178632849075759e+00, -9.1656128164420048e-01, 
            -5.7598151417320276e-01, 4.6786673699237822e+00, 1.4814502259448981e+00, 
            -4.6110031610848751e-01, -4.9351112580476136e-01, 1.4934699554408153e+00, 
            -1.0831478555682297e+00, 1.2129906315471601e+00, -4.9759736916331704e-01, 
            -3.2192921098756849e-02, 1.4249343774983185e+00, 1.5327535471511455e-01, 
            -2.4749275354593596e+00, 1.6239461259921968e+00, 1.0446565992410675e+00, 
            -1.8297987424680839e+00},
        {-6.4855959022533816e-01, 1.0279691528135704e+00, -6.3318015202762090e-01, 
            -3.9362161373507426e-02, -9.1668543181093198e-01, -7.9973057163139039e-01, 
            -1.4388487596691661e+00, -4.5185361979122757e-01, -8.1280279026925736e-02, 
            -2.3074728076777598e-01, -1.4864621512435265e+00, -1.8379438210145183e-01, 
            -1.2705026350243394e+00, 1.1552413288881989e+00, 6.7549701602624010e-02, 
            9.5627446177847342e-01, -3.3858292836112308e-01, -3.4879519338791042e-02, 
            5.7236286197207409e-01, 6.8943930410169707e-01, 2.3488093865289539e-01, 
            7.5422544876015063e-01, -9.8226976965469492e-01, -1.5489250547173559e+00, 
            2.6637831653734356e-01, 9.9746370931517958e-01, 2.9210599524027564e-01, 
            5.1533739219621921e-01, 1.1257169142379069e+00, -2.7242624356500389e-01, 
            4.9882156020663831e-01, 1.0863027320568941e+00, 1.5752367362499684e+00, 
            8.7694015911035228e-01, -2.2235043525463589e+00, 7.2840072340784123e-01, 
            -8.3442438912924233e-01, 1.6499139375066654e-01, -1.0632590044816194e-01, 
            2.2048064136218550e+00, -5.4784056597941588e-01, 4.4159914466323624e-01, 
            -1.3674082576405236e-01, 5.0838641213968072e-01, -2.9900374854516226e-01, 
            -1.8229505540656166e+00, 6.3513663804400391e-02, 7.0239067686419299e-01, 
            -2.0498842599534721e+00, -1.0714797615819796e+00, -1.1538033298877176e-01, 
            -9.1799798097885310e-01, -1.0351854242316465e-01, 4.8353823052388376e-02, 
            -2.8471232830123039e-01, -4.1297762887679551e-01, 1.6842248617297044e+00, 
            -9.7007968252536392e-01, 3.3984158016579419e-01, 5.9093219393995500e-01, 
            -1.8368674478679028e+00, -6.4277765841025469e-01, -1.5200975798040151e+00, 
            -5.8179428374101276e-02, -4.5592240013141744e-01, -1.2004593393990590e+00, 
            -4.0513416924153783e-01, -2.5016813174432273e-01, 3.0668472135932179e-01, 
            2.0867173549488314e+00, -1.7525108106053264e-01, -1.1787450108026947e+00, 
            6.1824632974479221e-01, -7.7478051967352224e-01, 1.0144291924628035e+00, 
            -8.6151805631778544e-01, -4.2640540047507856e-02, -1.5859694489205705e+00, 
            1.9062845007670650e+00, -3.8766801202902851e-01, 6.7747494258473273e-01, 
            8.8152670979841175e-01, -5.9915463311104193e-02, -1.2421269377740503e+00, 
            6.7719525962141103e-01, 2.5312846909318948e-01, 1.9660114550836155e-01, 
            -4.4448968579008978e-02, -9.2030418757715482e-01, 1.0458131577890086e+00, 
            -3.8773385552508061e-01, -6.7274014670032944e-01, -7.6859288323107999e-01, 
            -1.2992910443933103e-01, -1.0526463647301150e+00, 1.1360802199826339e-01, 
            2.1958838480904741e+00, -4.0665932077008021e-01, -8.8016458420766797e-01, 
            -2.4382514842830245e+00},
        {-1.7174017469305383e-01, 9.6650320144748980e-01, -9.3228940520511372e-01, 
            -1.9082750033445846e+00, -2.5208469158285673e-01, -2.3613677504312006e-01, 
            -4.0020770076880535e-01, -7.7335377186226839e-01, -7.3272654305097629e-01, 
            7.4715100555577008e-01, 1.9094922765546685e+00, -4.7128826443767208e-01, 
            -1.5513954337595715e+00, 8.4431473769065613e-01, -2.4128850150172762e-01, 
            5.6395038553887729e-02, -2.9340716595251315e-01, -3.7227477683193473e+00, 
            2.4270668315679189e-01, -5.5413639549660687e-01, -1.2811967636793706e+00, 
            -8.2188728862184202e-01, -9.1426897107558325e-01, -2.0276723935087664e+00, 
            6.0818175311971402e-02, -2.8741686863809474e-01, -9.9780752620978130e-01, 
            1.7034554283711598e-01, 6.6621018375074137e-01, -8.1814861274070205e-01, 
            2.1804508317476440e-01, -8.4441653320879995e-01, 1.1068622408001325e+00, 
            -9.2961353157047366e-01, 3.5919942425128931e-01, -1.0323985731241747e+00, 
            -6.9776534795010794e-02, 1.4646625624326068e+00, 5.6164657088815040e-01, 
            3.6435291820202282e+00, -7.4589121928903768e-01, 1.0916595844837966e+00, 
            7.0483329182871746e-01, -6.2213696935899154e-01, -1.3320777003045949e+00, 
            -2.1403167434897314e+00, 7.3704998773876221e-02, -1.9087415209661532e-01, 
            -5.8548539679380474e-01, -1.6698924330117748e-01, -1.0496356394189725e+00, 
            -6.9518125173046963e-01, 2.6542840539078172e-01, -2.8377092361655576e-01, 
            -7.1606399342394556e-01, -1.2460579167712362e+00, -1.1808685221456210e+00, 
            -1.4855624377715209e+00, -1.5810802712412848e+00, 1.4637354244265027e-01, 
            -5.3028570553953114e-01, -5.1963249102246356e-01, -9.3373710101671781e-01, 
            -6.5411275663441437e-01, 2.9295230770960295e-01, 2.1867165546668049e-01, 
            -2.9978436082380272e-01, 2.3323579686374388e-01, -3.7600235111430030e-01, 
            -2.0490413620072174e+00, -2.8139901779684862e-01, -1.2065841408595644e-01, 
            4.3651436323535922e-02, -6.8623043002285400e-01, -1.7663964530229265e-01, 
            -4.3731265619208669e-02, -3.3395912897579687e+00, 3.9918915431031005e-01, 
            4.8326739453174988e-01, -7.2135448924479650e-01, -1.8439824339280131e-01, 
            -1.3913188068101089e-02, -1.9530265311587855e-01, -4.8580971978975135e-01, 
            -6.2075467939651387e-02, 1.3366405084651887e+00, -5.0101769473401827e-03, 
            6.3396689432007314e-01, -2.3507800052030019e+00, 2.1775210310567195e+00, 
            -8.1065438946354593e+00, -3.6463571438408388e-03, -5.7726874274091655e-01, 
            1.6379535904859563e-02, 7.3291884811005970e-01, -2.5331943679352403e-02, 
            -7.9860119572157506e-01, 7.4173982815173922e-01, 1.1230031555106132e+00, 
            -3.8969456019358200e+00},
        {-5.7482193482535533e-02, 1.2673741430588412e+00, -4.1108998267944197e-01, 
            -1.5126248189362790e+00, -1.3994067182857874e+00, -3.5035405012475640e-01, 
            7.1712267438432542e-01, -9.4089706218835001e-01, 1.7242245358823110e-02, 
            -1.2566852090705509e+00, -4.3624839068856919e-01, -1.2130567340850464e+00, 
            1.1817693063811643e+00, -5.9094482107121371e-01, -6.1221117724033758e-01, 
            -1.8430409503840144e+00, -1.4623096485150477e+00, 1.0383116656014546e+00, 
            -8.3753670555835569e-01, -1.7815069249438289e+00, -4.5542446501200544e+00, 
            -2.4774303714097101e+00, -1.3726999818573691e+00, -6.3489554090520717e-01, 
            3.3482166566419398e-02, -8.2170276343140924e-01, -1.8727334691587678e+00, 
            -7.4045046908059198e-01, 8.4970475248718991e-01, 7.7187262480804630e-01, 
            -2.6477463368243709e-01, 8.3991929070212801e-01, 1.4951955342050747e+00, 
            2.6385163522545146e-01, -8.3585345625162955e-01, -4.7426074536718170e+00, 
            -3.4246673122437814e+00, 8.3266813280981433e-01, -1.5574744082264442e+00, 
            -1.3026603716938783e+00, -3.6048896405628801e+00, 1.6110219466169449e+00, 
            -2.7491863018841123e-01, -2.2004317911687929e-02, -2.0997393870090479e+00, 
            -1.5220475103222997e+00, 1.1757615990532125e-01, -1.0937796944045823e-01, 
            1.8510716253744317e+00, -5.4414025364883301e-01, 8.3142579681048956e-01, 
            -5.4950035907118426e+00, -2.5458476426518184e-01, -5.4379256000064649e+00, 
            1.7018359877802014e+00, -5.2609322985048346e-01, -1.7464737066187286e+00, 
            -2.6598389783098990e+00, -2.2343449421543515e+00, -2.7024926654791254e-01, 
            -1.5456756219768605e-01, -1.6949135703407928e-01, 9.5916969076537761e-01, 
            2.0830517011971261e-01, -8.0285787714537926e-01, 7.6967115421119198e-02, 
            -9.7328960479291249e-01, 1.3306115402808938e-01, 9.3381830243791564e-01, 
            2.9580311728161437e+00, 9.1315294205644859e-01, 1.1078354474438388e+00, 
            3.6129340243028785e-01, 8.4625533328868674e-01, -1.8407865811811078e-01, 
            6.6428479267169960e-01, -6.2584624355340246e+00, 1.7296343067367009e-01, 
            4.8433459927185574e-01, -3.6568911832025469e-01, 1.1064704342960632e+00, 
            -3.6317660070492967e-02, 2.4929638296363992e+00, 9.2430862346247061e-02, 
            -2.9505127637049564e+00, 1.9852445914733556e+00, -2.1179419937173183e+00, 
            -2.3535789671689520e-03, -3.8777233739596378e-01, -3.2537796603591201e-01, 
            7.0328492923316610e-01, 4.0632647910723813e-01, 5.5709113893671602e-01, 
            1.3992038551157851e-01, -1.1424897353226207e-01, 1.4914728512882394e-01, 
            2.1897910420417959e+00, -1.5818417589310174e+00, 1.7442090621780526e+00, 
            -6.5452906439909930e-01},
        {-1.3343733839758634e-01, 7.1436484179548165e-01, 1.2652725463655345e+00, 
            -7.7635753631791704e-01, -1.9421476455814544e+00, 4.9309387718568035e-02, 
            1.0550263538481414e-01, 9.4952843821758603e-01, -1.1639216522411060e+00, 
            9.2998604755480704e-02, -2.1867178990585585e+00, 4.6317029846947666e-01, 
            -9.4405152801399739e-01, -9.0696284503730962e-02, -3.8113976418504408e-01, 
            -1.0224086028654966e+00, 1.1256706619778649e+00, 8.6687595754812963e-01, 
            -1.1749954597702285e-01, 9.1100664990082647e-01, -1.8424583162582114e-01, 
            7.0584275639582772e-01, -6.1731003866791390e-01, -2.4377097079016741e+00, 
            5.5033459700120946e-01, -1.7357721228387873e-01, -6.2889904453905920e-01, 
            -1.4812701178290244e-01, 1.6670069220954993e+00, -6.4450683812811749e-01, 
            -8.7471667722518395e-02, 7.2808921384392045e-01, 2.2227704977626805e+00, 
            -4.2015390687931331e-01, -1.3628631559029574e+00, 2.4964655044285930e-01, 
            -1.5630997711967174e+00, -2.5277721461358310e-01, 5.7492869836283012e-01, 
            1.9850520411790200e+00, -1.0883096502063558e+00, 5.0824066910387508e-03, 
            -2.4189856920945091e-01, 1.0951091657152454e+00, 1.8448467874167124e-01, 
            -1.4927599416893607e+00, 2.3498943293253874e-01, 1.5355009971712230e+00, 
            1.6169421608631585e+00, -2.9152861112485329e-01, -9.3933404776833235e-02, 
            -4.6296178005815580e-01, -5.0820326816980947e-02, -2.9300444766491784e-01, 
            8.3017022873898372e-01, 3.4563333145783731e-01, 1.0842842095772187e+00, 
            4.1944259745007600e-01, -6.2881516265074211e-01, -1.4486887015005574e+00, 
            2.8201631933048860e-01, -2.4408775151705486e-01, -3.9216497401583311e-01, 
            1.1809836382935948e+00, -9.0700421069726456e-01, -7.4551638140828758e-01, 
            -9.8891240048429530e-01, 1.1733350337718974e-01, -1.3497778850013769e+00, 
            1.8795218558062499e+00, -8.8921263971250453e-01, -1.1795915762527714e-01, 
            1.7757829005719645e+00, 8.1574987651939068e-01, 4.4152847075098500e-01, 
            2.1239404555255073e-01, 1.7013090037662804e-01, -9.6263414794591107e-01, 
            1.0274257354665675e+00, 1.0008261494688613e+00, -9.3175226931093413e-01, 
            -2.6745118815686775e-01, -1.7438132862704867e-01, -1.3249325358145940e+00, 
            -1.1935748352710509e+00, 1.1798220343022010e+00, 1.6438874288844499e-01, 
            6.1076660209749986e-02, 2.8952977531686763e-01, -6.4651205195540917e-01, 
            -3.6316925817705470e-01, -1.2764435031165620e+00, 7.6064268722108841e-01, 
            4.7229870595648614e-02, 5.8979059446443272e-01, 1.2528780846029053e-01, 
            -2.5481244321384872e-01, 1.0653890032095918e+00, -1.0323858982083500e+00, 
            -4.5693329403350186e-01},
        {-1.9329982983503899e-01, 7.1241577852885485e-01, 7.3470904004504556e-01, 
            -4.3420186441820108e-01, -1.3775726378056778e+00, 2.1052683477333051e-01, 
            -1.5246072277372107e+00, 2.1651276113868562e-01, -5.9011149808272412e-01, 
            7.1019527885393743e-02, 1.2936854006094678e+00, -3.3130382688948273e-01, 
            4.5715793433709678e-01, 6.6826700830348507e-01, 6.1754214247828357e-02, 
            -8.4227637217766960e-01, 1.6597960408475143e-01, 1.1551348552817728e+00, 
            1.1719679593228971e+00, -3.9032961312400316e-01, 1.2771299578943822e+00, 
            -3.3106577735007553e-01, -5.7715893026891618e-01, 1.3557386505342225e-01, 
            4.0877472595031106e-01, -1.5711561212392229e+00, -3.3660870969254693e+00, 
            -1.4239070796515105e-02, -8.9060917057222433e-01, -3.7433163577196371e-01, 
            1.4332188066006979e-01, 2.2792545613893850e-01, 1.3476060969307446e+00, 
            -8.1437201755748101e-01, -5.7836864732275730e+00, -9.7686778648971753e-02, 
            -1.7093589423292364e+00, -4.8067454014639704e-01, 7.9792850237606405e-01, 
            2.5671513044355310e+00, 2.0454100595234276e-01, 4.1061375011633439e-01, 
            4.8883165920586291e-01, 2.8485829851129230e-02, 1.4363343915114171e+00, 
            -4.3284284986761516e+00, 3.0923871268148989e-01, -6.8126502501345687e-01, 
            6.7908944586502451e-01, 9.8937124422005185e-01, -1.7912048702073617e+00, 
            -2.6411302485979991e+00, -1.6311580975724138e+00, -7.7047404063899561e-01, 
            -9.8022134734618616e-01, 7.5273670048655694e-01, 1.1388020571648168e+00, 
            -3.8763691569877684e-01, -2.0548992316183798e+00, -1.8577719013398369e-02, 
            -1.1515033446375005e+00, 1.3301391604471532e-01, -7.1196003659351836e-01, 
            2.9698055242144605e-01, 1.6488423580578240e-01, 6.3322116450164334e-01, 
            -4.3405176355431241e+00, -2.7269449150691294e-01, 5.9309942640052050e-03, 
            -3.2492455919274676e+00, -1.9175111446810825e-01, -3.3028378651824103e-01, 
            -4.1017884122989651e-01, 1.0029317472236212e+00, -1.4008273882959212e+00, 
            -5.0093630154939406e-01, -4.1238371946507533e+00, 1.2620409689527906e-01, 
            9.9838347308699016e-01, 1.7134638795297030e+00, -2.9607991120450688e-01, 
            -9.8926222513910450e-02, -4.1854033012426939e+00, 1.3938548814039173e+00, 
            -2.1441680362950781e+00, -3.1888796528868862e-01, -3.4123691441810838e-01, 
            1.1765328903063883e+00, 1.8346452433835798e+00, 1.8692043533360109e-01, 
            -1.0331825142783688e+00, 7.7836292471959645e-01, 3.7136434280664077e-01, 
            1.2008657623011405e-01, 1.0423180646848753e+00, 4.0532726739582886e-02, 
            4.7378073089160605e-01, -3.2944297923335186e-01, 4.9068946575745576e-01, 
            -7.6859756984335559e-01},
        {7.6396618105763614e-01, -7.6413041925258540e-01, 1.7406919084363888e+00, 
            1.6628663284559156e-01, 4.2875798703831808e-01, -1.7024357147722102e-01, 
            -1.5739855914034968e+00, 9.7763941360964790e-01, 6.8077947710965481e-01, 
            2.0897273934752243e+00, 1.8735986786165664e+00, 5.3708262545697005e-01, 
            5.4437210929407298e-01, 5.7670600419180107e-01, -1.4982798345470147e+00, 
            2.7954124578300504e-01, -2.6445429427955941e-01, 1.8627022320888620e+00, 
            -1.6131896793850569e+00, 5.3690923216921804e-01, -1.1179760570597557e+00, 
            -5.2389375389434034e-01, -5.5412666373426456e-01, -1.2955468471439346e+00, 
            5.9916964602273826e-01, -3.3690410444753455e-01, 4.0903543621412117e-02, 
            -3.0617822907164394e-01, -2.0544003312019923e+00, 7.9983514295776315e-01, 
            -4.9433157128671890e-01, 2.5736057937903561e-01, 3.5196957011964318e-03, 
            -5.6398190931042602e-01, -1.1263165143264258e+00, -2.4462137781712792e-01, 
            -6.2091267153171958e-01, 3.6317732258593129e+00, -7.0812347063793668e-01, 
            5.7640126292192118e-01, -1.7327634186924325e-02, -4.6546758007938127e-01, 
            -5.7328438167361273e-01, -2.2608208859545339e-02, -3.8822440683470832e-01, 
            -1.2481258213549700e+00, -1.2608860538015174e-01, -7.3042225463275550e+00, 
            -3.9459027403956537e-01, -2.4468142123241307e-01, 4.5059131181859402e-01, 
            4.4144594079262800e-01, 1.2089804184171554e-01, -1.1540778135042604e+00, 
            -3.0012942457697611e-01, -1.5363854259426319e+00, 7.7839103466810089e-01, 
            5.8540958331517690e-01, -3.0719467646754700e-01, -2.1082441134574803e+00, 
            6.4850606159040947e-01, -1.3888441600246133e+00, -4.4951385918015091e-01, 
            -8.6320555577578595e-01, 1.6104243139684760e+00, -2.1465087398676162e-02, 
            -7.8003481342749337e-01, -1.2730208698613898e+00, 6.1101448492768684e+00, 
            -4.8477848792585748e-01, 5.5060180763147148e-01, 2.1398037322832382e+00, 
            -5.7723354167216701e-01, 4.3819467712842602e-01, -6.4705987038460422e-01, 
            -1.4153057891998826e+00, 5.7387361075626908e-01, -2.5625365143527368e-01, 
            -1.0081971707713712e-01, -2.6824550279390489e+00, -5.8241904603561441e+00, 
            -5.0503391266642339e-01, -1.3782087864727619e+00, -1.5382929182610274e+00, 
            3.7385696322057405e-01, 2.3629520243561369e-01, 8.8935768262499118e-02, 
            1.9514837421560636e+00, 1.5709867101635244e-01, -2.1140354325355859e-01, 
            -2.8527106185423241e+00, -5.2317839910272301e+00, 1.5901064083156274e-01, 
            -1.1995403506716359e-01, -1.3652623840291789e-01, 8.6878971261521887e-02, 
            -7.5511764413322446e-01, 1.8156401240967443e-01, 3.0641919250956393e+00, 
            1.1879257411828350e+00},
        {-9.4740691459119319e-01, 1.4373828179242152e+00, 2.6645469487875606e+00, 
            -2.3927545302561608e+00, -5.4645277194371944e-01, -1.5208130968632720e+00, 
            1.8379792382816587e+00, 1.4252468908550697e+00, -3.0978910458594661e-01, 
            -1.2242933654982670e+01, 2.3201100857227246e+00, 2.7434420241136537e-01, 
            -1.6150544445021697e+00, 1.5590541149591616e-01, -3.1795841809189547e+00, 
            -5.0982004333739326e+00, -6.1671076648491607e-01, -1.4529208552583368e+00, 
            4.0470970576009729e-01, -3.9475542383719229e+00, -1.0513111280671898e+01, 
            -4.0145599709861796e-01, 2.6020697038815938e-01, -1.0193928322282135e+00, 
            4.5574820600910254e-01, -6.3804412491432416e-01, 1.3188068488091229e+00, 
            -1.1272681904737911e+00, 1.4768036373137555e-01, -2.9023771730044895e-03, 
            1.0131458258046797e-01, -8.9944051299539285e-01, -1.8022414948098784e+00, 
            2.0323884880494678e-01, -7.4669018436827927e-01, -4.8075799169216693e-01, 
            -2.5203860007360884e-01, -5.4855481975019627e-01, 1.3880976414371855e+00, 
            -9.8246604867936227e-01, -8.0157022992475302e-01, -9.0290086540010206e-01, 
            -2.6688993722024042e-02, 5.1959762644855534e-01, 4.9838226339367564e+00, 
            -4.4184694948807577e+00, 8.0837374486456143e-02, -2.9969974569639346e-02, 
            -1.2605459869089366e+00, -4.1718768184734911e-01, -2.8940524548891107e+00, 
            2.8162343445490007e-01, 2.9603963096894654e+00, 4.7356312848667625e-01, 
            -3.7658613976410196e-02, 1.3865681745216307e+00, -2.9838301378245826e+00, 
            1.1931930642391059e-01, 1.1203773407060129e+00, -8.3631299170325302e-02, 
            -8.3108051768039870e-01, -4.0344394094449854e-01, 2.4191663111722317e-01, 
            -3.0232495148235222e-01, 4.3113696475965263e-01, 4.3049840679295015e-01, 
            -2.1572347626296748e-01, -2.3089610909886220e+00, -8.8887783656915365e-01, 
            -2.3505731228374382e-01, -1.4894569488464213e+00, -3.2139324772708078e-01, 
            -2.8255728052418372e-01, 2.7647723179836253e-01, -8.3620542740757398e-01, 
            1.3509699251780277e-01, 3.4082586992372910e-01, -1.6972066254788363e+00, 
            1.0376899312548808e+00, -1.3037697946901958e-01, 1.7127276552588397e+00, 
            -8.2811487189291355e-01, -5.3461731751573781e-02, -2.7280114105802267e-01, 
            2.3738795755766536e-02, -2.0941541099023095e+00, -2.4103325468677392e-01, 
            -1.4569396084543340e-01, -3.2528044255646886e+00, 2.3083024997684533e-02, 
            -4.3588497419184341e-01, -7.7585500442887656e-01, -3.9992354123558738e-01, 
            -1.1133393903917711e-01, 6.7533307403326448e-01, 4.0955040855683009e-02, 
            -3.5742183310118394e+00, -9.7133685302802437e+00, 2.1427022611272917e+00, 
            -5.4138494408384981e+00},
        {2.1642204332876455e-01, 5.9716778622250266e-01, 7.5062515316824896e-01, 
            7.0117628959236189e-01, 1.3765742753435291e+00, -1.2072232782872860e+00, 
            2.0590233403640665e+00, 5.3339961453309848e-01, 2.5751349035284882e-01, 
            -8.2675141867876334e-01, 2.5194928059476105e+00, 1.2659788072119615e+00, 
            -3.8034379497233677e+00, -2.0032232083658932e+00, -8.8642193496707766e-01, 
            -1.3978721866854272e+01, -8.5432497616613456e-01, -6.9548715603368128e-01, 
            -5.7867432981053867e-02, -4.2547043769380288e-01, 1.7473234058654519e+00, 
            -1.2632933358403768e+00, -1.0796914830534722e-01, -2.7292038055655596e+00, 
            -4.1902566473540026e-01, -2.8524965359007202e+00, 2.4137870697144592e-01, 
            9.9216250816109042e-01, 3.5632301698074720e-01, -4.7200008084086720e-01, 
            6.5655360196518753e-01, -1.3316105242429250e+00, 8.1142898324572929e-02, 
            -1.0142859110470834e+00, 4.9614275373278927e-01, -2.2580424653161200e+00, 
            -1.2506635798197301e+00, -8.0771051216622855e-02, -9.1088931857749222e-01, 
            -2.5047515432476120e+00, -2.0120016358013384e+00, 4.9482924397919259e-01, 
            1.0848298296442682e+00, -1.5105692622098665e-01, 2.0435174867667456e+00, 
            -1.1277770378945688e+00, 2.0084103977881326e-01, -2.2164161932996751e+00, 
            1.6882424905214148e+00, 4.7467340181153789e-01, -1.7853475037636140e+00, 
            -8.2434874016593396e-01, -7.2393167921872670e-01, 2.0197514669185903e+00, 
            -5.6146285389905959e-01, -4.5245073445882031e+00, -9.4809798197399919e-01, 
            -9.2879425823195944e-02, -2.0711995383205528e-01, 3.0226125602295784e-01, 
            -2.2516026323005323e-01, -6.3974819122020210e-01, -2.3378080886637681e-01, 
            -1.0801264653655307e+00, -3.0109546942210280e-01, 3.2246367240195639e-01, 
            2.9105194811139667e-01, -5.1255527664419775e-01, 4.9620896017027066e-01, 
            1.2294888312324261e+00, -1.2477542702079432e+00, 2.2186854228651050e+00, 
            4.5303393561510287e-02, -1.0810840966087358e+00, -5.1794449992003533e-01, 
            -8.1267279805032167e-01, -1.9798316553663053e+00, -9.0619232268443273e-01, 
            9.5839783295262859e-01, -2.8139360898326632e-01, -1.4878307379411320e+00, 
            -1.3257983102453512e+00, 4.0591889627739475e+00, 1.5018659227779991e+00, 
            -4.3432140613687548e-01, 7.8228115698322132e-01, -2.3835822213598452e+00, 
            6.5475747254368655e-01, -5.9918097835277955e+00, 3.7533157052530908e-01, 
            1.1224984882343934e+00, 1.8519802623872339e-01, 3.7410093952777848e-02, 
            -8.0957994533171235e-02, -1.9393909999222714e+00, -1.3532961180982689e-01, 
            1.2614506529765930e+00, -1.3316877759662544e+00, 1.3428493459551640e+00, 
            3.3981000056332439e-01},
        {1.0565198640204965e+00, 8.9519990633368490e-02, 2.9425192242652716e+00, 
            3.6399273843276803e-01, 8.4507958024154139e-01, 1.8151771350107342e+00, 
            -7.7837143446882551e-01, -5.1035840641063335e-01, 3.1889998830107018e+00, 
            2.0800457635782066e+00, -3.9767614230272591e-01, -1.7042920573649256e-02, 
            -2.4524001175498666e+00, 2.5495073006857338e-01, 5.2094912295666784e-01, 
            2.6716053112747438e+00, -3.5296614921781505e-01, 3.8874419761570547e+00, 
            -3.3469233815785300e+00, -1.1438249640294647e+00, -3.2024989013792364e+00, 
            1.6373881880946104e+00, 8.0562008908193117e-01, -1.8834981692215529e+00, 
            -1.1205578779794998e+00, -3.1573494026438080e+00, -4.0771856501647402e-01, 
            1.9644733382287589e+00, 1.1413101378044743e+00, -9.2977900691823254e-02, 
            8.2561806789522718e-01, -5.5741737775238021e-01, -6.1577015519077516e-01, 
            -6.2308287110390714e-01, 4.5971894002629172e+00, -2.1484031440721357e-01, 
            3.9022109993899576e+00, 4.3555813130403453e-01, 5.3480931718378821e-01, 
            -3.0440478606159411e+00, -1.5341527874840359e+00, -2.1699167394108909e+00, 
            -9.0331391866236432e-01, -2.8856734067123030e-01, -3.5488843094958575e+00, 
            -5.4828477732448428e+00, 1.6575744288066796e-01, 1.2392154427921851e+00, 
            1.1769259365141322e+00, 4.5482007469504711e-02, -2.3167140590290505e-01, 
            -2.6948431441460396e+00, -1.2107149303725759e+00, 1.0972280706530522e+00, 
            -2.9453856035149617e-01, -2.5390490625136528e+00, -8.0216185754460589e-01, 
            2.7831799733132874e+00, -2.3868898502295264e+00, -2.9913716334060387e+00, 
            1.5788846270557916e-01, 1.8914498571725487e+00, -1.9887843745919456e+00, 
            -3.0926120926707017e+00, -7.2595668172002403e-01, -1.1933473513804533e+00, 
            -2.0584421393441024e+00, 5.5608235736503753e-01, -1.8944880653462082e-01, 
            3.1703696966660377e-01, -3.7504103171425079e-01, 2.0738990853781231e-01, 
            -1.0244001718177329e+00, 1.7568621078206279e+00, -7.8988825578928590e-01, 
            -1.9773400029341712e+00, -8.6922137255678278e-01, 1.2423799155748765e+00, 
            -5.6522339567569357e-01, 5.7634954110999397e+00, -5.9558772944850424e-01, 
            6.2795591918302218e-01, -1.4719485249639193e+00, 2.3458714571667665e+00, 
            2.5602626483434996e+00, 1.4354374841204676e+00, 3.8538985136601075e-02, 
            2.4128188447873036e-02, 1.2243870775193493e+00, -3.5470843478609526e-01, 
            -5.7017544963306022e-01, -1.5965603807130742e+00, -4.7293430377435208e-01, 
            -1.1243673695416773e-01, 1.0195137774395285e-01, 3.3401799194357776e-02, 
            -5.4802326661456757e-01, 2.2389586393621390e+00, -2.3988784928562090e+00, 
            1.1916157545373629e+01},
        {-1.6373571084249253e-01, -8.6400458563014682e-01, -2.0709454340441003e+00, 
            7.2891768868901696e-01, -1.0095240863399262e+00, 5.5519854114650202e-01, 
            -3.1107026162864604e+00, -1.7391984677630206e+00, -9.5643989277249708e-02, 
            7.4125486530595652e-01, 3.1929092226745398e-01, 1.2832488155761232e+00, 
            -9.0332123648956764e-01, 1.6809244727229888e-01, -3.1712598955817112e-01, 
            -5.1548516569081404e-01, 8.9686488792011065e-01, 1.6019955471187659e+00, 
            5.0681438338870299e-01, -4.2686249939070492e-01, 8.5697254632902560e+00, 
            2.9047631580668987e+00, -7.1844053176238143e+00, 3.5430101770945659e+00, 
            1.2084606889239851e+00, 3.2472347759296960e-01, -1.4796331669181186e+00, 
            -5.9449560594729535e-02, -2.7197360383383573e-01, 1.0820057074590621e+00, 
            7.3010637283648849e-01, 7.9029101528496792e-01, 7.3140572743265331e-01, 
            1.1131317901275783e+00, -2.8584969907861097e+00, -1.3129759535000252e-01, 
            -4.9506238240291367e-01, -2.1463372915855952e+00, 3.0602339265555840e+00, 
            2.6707368009514618e+00, -6.6884428450032629e-01, 3.4707183759768827e+00, 
            -1.2371173992685975e+00, 3.3997010062512834e-01, 7.5383496643183279e-01, 
            2.2570131659933965e+00, 2.0745878583486241e-01, -4.1788633111008805e-02, 
            -1.8902377887451924e+00, 1.9818439236876559e-01, -3.8407340555533687e-01, 
            -1.8615337542054238e+00, -1.6053650375805288e+00, 1.4714520930126151e+00, 
            3.1747414305644839e-01, -1.2122486455860677e+00, 5.7383730924436915e-01, 
            3.4126248805026138e-01, 1.1561953173676918e+00, 2.4619434616181368e+00, 
            -1.0937416526105430e+00, -2.0329310815604792e-01, 1.0849836618184066e+00, 
            -3.4709171478141021e-01, 9.9524189904799021e-01, -3.5818183274889801e+00, 
            -1.4708785576799785e+00, 2.1131204900381841e+00, -3.1160147961277320e+00, 
            -2.2500299504939849e+00, -1.0716474054435197e+00, -1.2838993859920418e+00, 
            2.1224512552010948e+00, -2.4053046834883736e+00, 5.8802908261475328e-01, 
            -4.1943694090908262e-01, -1.5699749429208347e+00, -1.8339064751644322e-02, 
            1.8457218107982651e+00, -1.1200216314580981e-01, 4.0849030235172917e-02, 
            -1.1693108479721397e+00, 1.0531382360230257e+00, -6.1817510903110717e-01, 
            1.8078452196026775e+00, -3.0364840796735248e+00, -8.0193145554979883e-01, 
            -1.2829721153202276e+00, 1.0358573596282949e+00, -5.3298701790807679e-01, 
            -1.7102360946383584e+00, 1.4104924347992951e+00, -4.6046908182591029e+00, 
            4.3489280801896076e-02, 3.7307229742317544e-01, 3.2881898478276883e-02, 
            3.3709296632514643e+00, 1.2080352270334411e+00, 1.7847653628058038e+00, 
            -2.2276082659636476e+00},
        {1.4107858119902061e+00, 2.4445173899325329e-01, -6.5876356582991158e-01, 
            -7.5275403306323274e-01, -8.0065753160030551e-01, -7.9453535463534186e-01, 
            6.1041082060639018e-01, -4.8277160727487428e-01, -6.6602877939042504e-01, 
            1.9752238840087835e-01, 2.2535928393372933e+00, 8.2170590345855143e-01, 
            4.8757045850219710e-01, -3.9728219795630781e-01, 4.5980161544755399e-01, 
            2.7713672273215395e-01, -4.4969720727534418e-01, 8.6919497445790639e-01, 
            -3.4364949475243586e-02, -6.2250507903843268e-02, -5.9175016195484609e-01, 
            4.7818047645413947e-01, 3.2862549914724920e-01, 9.3216241806496347e-01, 
            6.9732588904719162e-01, -2.9862346368603712e+00, 1.6656062581713593e-02, 
            2.9017460050988664e-01, -4.9050758156054852e-01, -7.8805955277297279e-01, 
            -4.8114196769220496e-01, 1.2724686397986187e+00, 3.4528788779929326e-01, 
            -7.3621324352065587e-01, 1.5108602070158130e+00, -1.1738556419017034e+00, 
            7.1719976801983587e-01, 1.6975863026877227e+00, 2.6188031845779246e-02, 
            1.3684508864937734e+00, -1.2886534315638170e+00, 1.1386584560145367e+00, 
            7.0799897558284464e-01, 7.4530908426973419e-01, -1.2334704285800417e+00, 
            -8.1478205591391628e-01, -7.4396083942631752e-02, -1.6901822067317978e+00, 
            -1.6919681331500689e+00, -1.2966645803919992e+00, -2.3562525767012228e+00, 
            -9.9971677877299625e-01, -3.2499052356892294e-02, -4.0198243527267365e+00, 
            -5.4867798483577754e+00, 1.1401536762721476e+00, -7.9526936339059842e-02, 
            1.1356962676271004e-01, -9.9226115355780364e-01, 1.0326260806585290e-01, 
            -4.5577816542170174e-01, -4.1869121290676334e+00, -6.0594153338648271e-01, 
            -1.2556162706291452e+00, 1.9191981130281041e-01, 6.8018323987206253e-01, 
            -5.9497739930666649e-01, -1.4263120658717183e+00, -4.7936564153738942e-01, 
            4.9454732226721893e-01, -2.5519806685154672e-01, 4.6994628770318125e-01, 
            -3.1494737836514108e-01, 5.6270512974915220e-02, 9.2804363113432253e-01, 
            4.9597733805191607e-01, -1.7905707116222469e-01, 6.4482914631369431e-02, 
            5.9983517784790208e-01, -3.1092188152189641e+00, 5.6740000736238283e-01, 
            5.5367752435196793e-01, 6.1501644042263992e-01, -8.2465814751098054e-01, 
            -2.1468678856660315e+00, -4.8164200460511603e-01, -1.1424456708774575e+00, 
            4.5126120687896892e-01, -1.3199766987076196e+00, 1.8708627810572767e-01, 
            4.3876139387819624e-01, -7.7781813834595748e-01, 2.4252345772464068e-01, 
            2.2028294079371978e-02, -1.9208990839320943e+00, -2.4072539365084838e-02, 
            -5.5743395822856145e-01, 1.9166315446104549e-02, -1.8146658958643737e-02, 
            1.5066525500019678e+00},
        {-1.3913037570745479e+00, -3.4496471370820081e-01, -2.0681723061055335e-01, 
            1.4474041853731963e+00, 5.3991675033178543e-01, -9.5701679177024579e-01, 
            3.4272672344267857e-01, 5.6909657267342528e-01, -6.5273894341055061e-01, 
            1.5170145529270265e+00, 1.6308894788427366e+00, 9.0494082123491137e-01, 
            -5.9502878490301625e-01, -2.9370510012253510e-03, -1.1033613212732796e+00, 
            -1.4235876912384000e+00, -1.2438178825545536e+00, 3.3783605793174334e+00, 
            1.9572504856661752e-01, -7.5258402170588989e-01, 6.5801339399841341e-01, 
            1.2507617113314997e+00, -7.4275526443808537e-01, 2.3834460550347946e-02, 
            -1.6767966324729338e+00, 8.2279881464478954e-01, 1.7236294824603979e+00, 
            2.1101880137721932e-01, 6.6352679979396689e-01, -1.1298468567255870e+00, 
            7.4027474936647975e-01, -1.0654528536080095e+00, -2.3538254368612441e-01, 
            5.9414387914404165e-01, -1.6748869326928455e+00, 3.6350928671978555e-01, 
            -2.2321969056100591e-01, -1.0468887212866769e+00, -5.8260248723357208e-02, 
            -9.2083796546093766e-01, 3.3486275361817586e-02, -4.5136823299749229e-01, 
            5.9694991186490698e-01, -1.4802033621846802e+00, -1.3509094471684477e+00, 
            2.3146485817625453e+00, -2.1595619681867254e-01, -4.8250152473212027e-01, 
            1.3123649723823869e+00, -3.1547824924729706e-01, -2.1008978800780057e-03, 
            -3.6335114643068467e-01, -6.1484914613362329e-01, -7.2468246422629190e-01, 
            -3.8768563703304609e-01, -2.7857472035550250e+00, -2.1615757441646397e-01, 
            7.1609364430623032e-02, -2.8774893013107261e-01, -2.1205783022058577e-01, 
            1.7854416280871768e-02, 1.0827111587830249e+00, 2.1775415193361312e+00, 
            -9.7533012216806403e-01, 5.7894154911916662e-01, 1.2352575307423104e+00, 
            -1.3921359735977772e+00, -3.9046941685746889e-01, 6.0295705329296312e-01, 
            2.9126299118225725e+00, -2.1790056166207544e-01, -7.9060344198704127e-02, 
            1.3481791192360468e+00, 9.6958672982754213e-01, -7.7537623214530685e-02, 
            2.6785496435943745e-03, 2.3971132431532308e-01, -2.4643155203520481e+00, 
            8.5645955068577184e-01, 1.1414996553670718e+00, -1.5708670329669718e+00, 
            -1.0607613386524763e+00, -2.3386055865771778e+00, 2.4188855700105905e-01, 
            -9.3072835589429737e-01, 1.0473547449360604e-01, 6.9317475631195535e-01, 
            3.4044903085765443e-01, -4.4904183618315114e+00, 4.2757229676789793e-01, 
            1.3832738260841035e+00, -6.2812336275820579e-01, 1.1194380545509170e+00, 
            1.3044687413899717e-01, -2.7728764752846016e+00, -3.2312777611579746e-03, 
            1.8842967931041790e+00, 2.3675924734465608e+00, 3.0226122751543627e-01, 
            1.1517298268234642e-02},
        {-1.2779660742991448e+00, 9.1892209941601710e-01, 1.3630001443160984e+00, 
            -7.3693506105110981e-02, -7.0213466276190939e-01, -2.0899216631357147e+00, 
            -7.9928364970431875e-01, 1.6225121764141586e+00, -1.0107936098748596e+00, 
            -7.4034828347724235e-01, -1.9630657457976199e+00, -2.5927356678043809e+00, 
            -2.0149191670897655e+00, 1.4378263934977522e+00, -1.7003795738993259e+00, 
            -2.2703865526962730e+00, -4.0756165830641722e-01, -1.6195517240558426e+00, 
            -2.6108138591959934e-01, -6.5239823532735963e-01, -2.5959980797628428e+00, 
            1.8604798452803550e+00, 1.8044002800348762e+00, 7.3477977923397064e-01, 
            -1.0314924781171314e-01, -6.6831096073632315e-02, -3.0373861483419240e-01, 
            3.5272533397904988e+00, 1.2381694474393148e+00, -2.9577191586975489e+00, 
            -7.8875788397414959e-01, 6.4267573076486262e-01, 1.0333144688477598e-01, 
            -7.0412973582868810e-01, 1.4796040728806770e-01, 2.6173563395394456e-01, 
            -3.5351890194773667e+00, 2.1460363919088210e+00, 6.0125545122371649e-01, 
            3.5550942239667643e-01, -2.0602200052652586e+00, 5.8784646781004024e-01, 
            6.8627135852653931e-01, -1.9762823939205021e+00, -3.8898361158019645e-01, 
            -1.4953166926522434e+00, -8.3489342964130547e-02, 1.1927451026552496e+00, 
            -1.1927517760675249e-01, 2.0959184723716875e-01, 1.3018216017768738e+00, 
            9.4793938207783579e-01, -1.7256557537673374e+00, 1.7936653457844701e-01, 
            -1.0003641441428031e+00, 1.4512717090991512e+00, -1.5092833479217518e+00, 
            -1.6752908542061296e+00, -1.6520057487291467e-01, 9.8626741181218980e-01, 
            -2.6417936584196613e+00, -2.4872545204838784e-01, 4.1551230023587055e-01, 
            1.7025290245500549e-01, 1.2647707067837872e+00, 2.2840460298167775e-02, 
            -4.2914164476831912e-01, 4.0042647998749598e-01, -1.4573143900411105e+00, 
            -1.6428606133278792e-01, -2.5206202352519536e+00, 5.6965103217028035e-01, 
            -3.5227140850630251e-01, 8.3398125179341920e-01, -1.8924894145545432e-01, 
            1.5947250618041904e+00, 7.9862179100604488e-02, -2.1652560731237034e+00, 
            -2.0435904327070333e+00, 7.7902057768384869e-01, 2.8323063871380616e-01, 
            -1.7717944047409337e+00, 8.5900781887911556e-03, -7.0405970806638452e-01, 
            -9.1681206748245514e-01, -1.0398430046370277e+00, -1.5277547980711288e+00, 
            1.2391470952403920e+00, -4.6299238649898715e+00, -1.5784298545218183e+00, 
            -8.7153746634143450e-02, -7.9510893499244117e-01, -3.5805357428121704e-01, 
            2.9567087688842732e-02, -1.2068934537784735e+00, 9.7655648149940794e-02, 
            4.9012271943901640e+00, -1.3709695109488180e+00, 1.1598099726853854e+00, 
            1.0656608027450194e+00},
        {-4.4716245071639132e-01, -6.8014407139336319e-01, -1.1137364560295238e+00, 
            -1.4819106671638860e+00, -7.7062106779571482e-01, -6.0619650085545684e-01, 
            -3.2155791821084001e-01, -2.1575346644113341e-01, 9.9046353484339034e-03, 
            -1.8831456857602937e+00, -5.2286936786375515e-01, -3.6764904657867675e-01, 
            8.8313071545904079e-02, 9.3797876326595142e-02, 1.6059290011365497e+00, 
            -3.1199651621222824e-01, -4.2785102347383241e-01, -1.1087621475615843e+00, 
            -9.1097449169118427e-01, -6.2709361510939610e-01, -7.8444161646406246e-02, 
            -7.6737718156931434e-01, 7.9975097551480656e-01, -7.6237392337947596e-01, 
            -4.1477023678634517e-01, 3.1670296574992979e-01, -4.8483669325856288e-01, 
            -1.4197795167093115e+00, -4.2337653987757804e+00, 3.4906568476654376e-01, 
            -1.5550012985314188e+00, 1.6295902893679719e+00, 4.7695230854890236e-01, 
            5.8474285526954584e-01, -2.5357928891569259e-01, -4.0903407571377692e-01, 
            -1.8401022074857573e-01, 1.0315602906057138e-01, 1.5988654503317432e+00, 
            -4.3744133576063432e-01, 6.0046112797827456e-01, 1.7966970987030420e+00, 
            -2.8198436462358476e+00, -3.8150119641772035e-01, 1.0169968377114447e+00, 
            -3.5668755275539665e-01, -1.5911734885017434e-01, -1.9018230207450280e+00, 
            1.1833165928556909e-01, -4.5650170697025766e-01, -7.0919846808764606e-02, 
            -3.2753511508144589e-01, -5.3185894233479680e-01, -2.0295593341489646e-02, 
            -1.4799881759700451e+00, 2.4978235587496713e+00, -4.9579677140740408e-02, 
            -2.2057615478138821e+00, 2.3785211192667988e+00, -2.3895960349953889e+00, 
            -1.9642140206249361e+00, -5.3511903318600595e-01, -5.8922173700144620e-01, 
            1.9473376435677654e+00, -4.1551392517062160e+00, -2.5550232385625438e+00, 
            -7.8451789147977208e-02, -4.2211375298373049e-01, -1.0202824177362291e+00, 
            -3.9854390149815694e-01, 3.7570378329954346e-01, -9.8819461071469417e-01, 
            1.4969634339913479e-01, 5.7012225186374188e-01, -6.6167216230112491e-01, 
            -6.8238441252039497e+00, -9.7036000863246663e-01, -8.8071986300169869e-01, 
            -2.1953797922086129e+00, -1.2585982406923937e+00, 4.1481777569356876e-01, 
            1.0774946217182297e+00, -1.6897772310094801e+00, -3.4921731348279134e-01, 
            -2.4637481721463825e-01, 7.7007098185570277e-01, -5.5445127824294083e-01, 
            -3.7373763945184679e-01, -1.4207757490703992e+00, -1.5361125596309624e+00, 
            -1.0586215645342412e+00, -1.3783820306827441e+00, 4.2959781446358708e-01, 
            -1.3665005831943067e-01, -3.3000190249637673e-01, -1.5372645353918027e-01, 
            -1.4558058576128294e+00, -1.2335406508225886e+00, -1.1375640961581766e+00, 
            -1.6693733110282924e-01},
        {-2.4785120729338095e+00, -1.0221360314587390e-01, 1.0823732231599603e+00, 
            -1.5729181990921017e+00, 3.5110575415170037e-01, 6.6651261501013637e-01, 
            -3.5876996238148751e+00, -2.9138721512824741e+00, -1.3517412555052571e-01, 
            -1.0210387037489572e+00, -7.9277891045712257e-01, -4.4455401861041794e+00, 
            -1.7618352589487576e-01, -4.5028629144218785e-01, -4.0659799692517371e+00, 
            -1.0645609868964532e+00, -3.4562901983155625e-01, 2.0951163942820679e+00, 
            1.1510744902335330e+00, -1.4402727182796602e+00, -4.3490303605796834e+00, 
            -1.4562144901631668e+00, -2.0061908347022843e+00, -4.2414258655301778e+00, 
            6.7763098322628890e-01, -9.8244881152942631e-01, 2.4343850106983003e+00, 
            3.0892091692504492e-01, 1.1965368968721433e+00, 7.1472187795120090e-01, 
            -2.0082320865166530e+00, 3.3119671019679708e-01, 4.1985562607008742e-01, 
            1.5241077395271499e-01, -2.8607112413727696e+00, 1.4384533278752414e+00, 
            -2.1162649473590345e+00, -2.5716988492369914e+00, 1.2419121529470718e+00, 
            -3.4629076292437694e-01, 1.9448806919300337e+00, 1.1467545474464202e+00, 
            7.6227875140463608e-01, 6.9821711454200985e-01, -1.3367035279280099e+00, 
            1.4091040705982588e-01, 3.2822934772340367e-01, -4.8265674635660494e+00, 
            3.5708397087464205e-01, -9.0668074229414375e-01, -4.0431054232960717e+00, 
            4.3445445295563934e-01, 3.5082665409362956e-01, -5.3948953326874327e-01, 
            -1.3794797433510655e+00, 2.6825723110086663e-01, 1.1196220008980950e+00, 
            -1.2215952690143168e+00, -1.7457542701846240e-01, 1.8892420890104436e-01, 
            -3.6408226935890902e+00, -6.6482047166967206e-01, -5.3624766109836741e-01, 
            6.7382889076477481e-01, -5.9577519109882082e-01, -2.1494009740829600e+00, 
            2.7780303922053090e-01, -8.9186617328817364e-01, 1.2050762959877175e-01, 
            -2.6336628123322967e+00, -8.6420239399916055e-01, -3.7977956496283716e-02, 
            -3.5364927204224594e-01, 4.8465835656850687e-01, -1.3528993570557961e+00, 
            3.0537810094077755e-01, -1.3491674083774006e+00, 3.0430639389969527e+00, 
            1.1946308736907876e+00, -3.4516669935492659e+00, -1.6666705801960282e+00, 
            2.6408896196811193e-01, 4.0007848950133402e+00, 1.7165859948659087e-01, 
            -5.7718057755829011e-01, 2.4512186838338462e-01, 4.2817495630651425e-01, 
            1.1088862219297579e-01, 1.5491991466557624e+00, -1.5802460391850970e+00, 
            -3.6344104606327541e+00, -3.7846654916683220e+00, -2.6025219255189929e+00, 
            8.7487555233201009e-02, 1.3555549569781340e+00, -1.1361804346863838e-01, 
            -5.7076462225216940e-01, -3.0078470670162671e+00, -2.6733294229601590e-01, 
            -1.5581687618900464e+00},
        {1.6230429442506276e+00, -1.2244831338210240e+00, 1.0814123002195259e+00, 
            3.9237835139783322e-01, 1.1045689092358049e+00, -1.3052878808636235e+00, 
            1.4148777531022192e+00, -1.9925483081088699e-01, -2.3226016342236249e+00, 
            2.7056045188077151e+00, -1.5045472756353555e+00, -8.6345770903231456e-01, 
            -2.1313006439291944e+00, -5.4818200605591727e-01, -1.1140044688195473e-01, 
            -5.0577875639050929e-01, -4.9343739716987572e-01, -1.5235981876631630e+00, 
            -4.5404919299347041e-01, 1.2261510272449685e+00, -1.2926911313093041e+00, 
            -1.0006989558436503e+00, -7.0856823973182370e-01, 8.3292499431058098e-01, 
            -2.3515070464830709e-01, -4.4635821840263983e+00, 6.6424921169038398e-01, 
            7.4200560930363244e-02, -6.1947284305491968e-01, -1.4687106914549721e+00, 
            -1.7830170688356124e+00, -7.4933905883675789e-01, 2.4695800272534429e-02, 
            -2.6829472356222959e+00, -1.4824411105317825e+00, -1.7514069926522517e+00, 
            -1.9437827123843467e+00, -1.8869553366444380e-01, -6.4589748855948137e-01, 
            7.2391876931016186e-01, -1.3234073130275614e+00, 2.4651370706158743e-03, 
            1.6350434515258194e+00, 1.1264704049346188e+00, -1.0393113309658990e+00, 
            1.2879426369379929e+00, 2.1841290764587457e-01, -5.8915151450384795e-01, 
            1.8394390938109575e+00, 1.0459235713198745e+00, -2.9498487387462352e-01, 
            -1.9774270093184557e-02, -6.2534232356184183e-01, -5.2836214561967703e+00, 
            8.5147954984777952e-01, -3.5855132845021831e-01, -1.2087430085846360e+00, 
            1.4742114656236693e+00, -9.4294495064816652e-01, -1.0554926566922822e+00, 
            3.6945594555097057e-02, -1.8207676281407830e+00, 1.0269417410254755e+00, 
            3.4150789794494807e-01, -4.6780846159362793e-01, 4.6776188371405403e-01, 
            1.2079289041848462e+00, -2.2441994487966032e-02, 4.8737935792379211e-01, 
            3.8054056024985461e-01, -8.4698091157050381e-01, 2.0200760386309264e+00, 
            -6.0580950265590638e-01, 1.2857706060989695e+00, -2.0114259008080285e-01, 
            1.9535934125538709e-01, 1.1834028338010640e+00, -9.9480538107792138e-01, 
            -8.2080555250811182e-01, 3.2233716426029493e+00, 8.1430566421564404e-02, 
            -3.8270658968539450e-01, -2.4686920802893280e+00, 5.6630107664336817e+00, 
            -1.8826465333412512e-01, -6.2139132068772356e-02, -1.1999913172683394e+00, 
            1.3519746135186073e+00, -7.6685179077070631e-01, 9.9388599889602136e-01, 
            1.7166819332397905e+00, -1.4631598924487432e+00, -4.9794922453498958e-01, 
            -3.8121132769934715e-02, 3.6790066714554603e-01, -1.2121811608260026e-01, 
            -7.8860468406090101e-01, -8.3026205247033980e-01, -4.1295985355862963e-01, 
            2.0534022591909586e+00},
        {3.9633246595538746e-01, -2.9890276608210981e-01, 1.6781427019424511e-01, 
            -9.5462895312658158e-01, -6.9685075517907358e-01, -3.7398257922359407e-01, 
            -6.5237889370735358e-01, 1.1101034519061266e+00, -1.1568207012662932e+00, 
            2.2234343813237061e+00, -1.3811053607700479e+00, -8.3810232275060059e-01, 
            -1.0401941001171460e+00, 1.1698870472829435e+00, -3.0426819443017439e-01, 
            -1.3473909143251717e+00, 5.7584235734219447e-01, -2.3375011661189711e+00, 
            2.3592455527774944e-01, 2.6916202991316912e-01, -9.0128963136523044e-01, 
            9.9229765323708599e-02, 5.1121262357004460e-01, -1.2219418514306457e+00, 
            -2.2563320913791315e-01, 4.5262848581526405e-01, 3.0466002960548033e-01, 
            2.2897599832451602e-02, 3.8624718908220917e-01, -1.9365149460635909e+00, 
            6.3176161137256470e-01, 4.0776801075918456e-01, 4.6085972682218884e-01, 
            1.9101573067660818e-01, 6.1589487958954547e-01, 8.6620821502866097e-01, 
            -1.7205525292714521e+00, -2.0123652301486661e-01, -9.5183748012678249e-01, 
            -1.3402081800616725e+00, -1.2301510628702594e+00, 1.0250386074772759e+00, 
            -1.0041915505363492e+00, -1.2799102674002623e+00, 7.5950577764649219e-01, 
            -1.1102566531989566e+00, 8.6593230889651887e-02, -3.4606972049519519e-01, 
            -1.4132088118418390e-01, 9.8177260663389976e-01, 2.0535917616791319e-01, 
            8.0190285678305528e-01, -2.7052077616592485e-01, -2.1415589648170759e+00, 
            -2.8711736633290879e+00, -4.5910423993962252e-01, -5.0715490357359549e-01, 
            -5.7016455313481207e-01, 9.4539871282429488e-01, 2.1759006299438000e-01, 
            2.5601910912475617e-01, -4.0028090720042325e-01, 1.5514836068877041e-01, 
            2.0652700818686895e-01, 1.7108232084267281e+00, 1.2533271658565674e+00, 
            -2.8184028725801824e-01, -1.3476861113764380e+00, -1.5572259202418002e+00, 
            4.5104305306391499e+00, -1.4754962440323243e+00, -1.6797251473507360e+00, 
            1.7358746731878694e-01, -1.2332433537393115e+00, 7.9843528960765453e-01, 
            1.1400460592374557e+00, 6.6955085908160406e-01, -3.5215323270127485e-01, 
            1.5102427143802466e+00, -6.8430551331466460e-01, -1.2665771959146234e-02, 
            -1.5829653912544268e+00, -1.1048535339038785e+00, -1.2066774024626814e+00, 
            -1.3747750684224151e+00, 1.5237906335174385e+00, -1.5521615602514971e+00, 
            1.4895698350502014e+00, -1.8494348864029524e+00, -7.5011506577137543e-01, 
            -1.3414901386658604e+00, -3.9444922206054295e-01, -2.1693214694167506e-01, 
            -1.3218764334812425e-01, -1.2419260388967848e+00, 7.8683558609700804e-02, 
            -8.8797667982502840e-02, -8.8914822507734292e-01, -2.9544504526768423e-01, 
            -7.9365865239284883e-01},
        {5.9633514505846019e-01, -2.6063410449029756e-01, 2.1459427523029481e-01, 
            4.3449060546125867e-01, -1.1825593879938594e+00, -4.0869047842785677e-01, 
            -2.6044044570493883e+00, 1.2217956064939701e-01, 1.6135113538311349e-01, 
            5.6002718493652803e-01, 2.3009242205620266e+00, 1.8786023284259151e-01, 
            -1.6662678954281676e-01, 1.5131135435251419e-01, -2.5803778218006423e-01, 
            -6.4903508591173842e-01, -1.1500914638745103e+00, -2.9143085930565347e+00, 
            4.2919005927061021e-01, -2.4439038893060983e+00, -1.8957533243919176e+00, 
            -1.0936607909838715e-01, -1.0410393392175981e+00, 8.1261456180386538e-01, 
            -1.5052044455135063e+00, -1.6181028498507120e+00, -9.7604232226725562e-01, 
            -1.0912923808148643e-01, 3.7585507344805036e-01, -5.0147767247304431e-01, 
            1.4398457972376753e+00, 2.5562728241952898e-01, -1.0696092518510751e+00, 
            -5.7840539868681595e-01, 4.1928516309764063e+00, -1.7325001688901087e+00, 
            -7.3140034639284779e-01, -4.0722451429757767e-01, -3.0104061790546094e-01, 
            -2.3689546602820997e+00, -1.4696974841477917e+00, 7.9920458726384980e-01, 
            1.4343326338812767e+00, -1.0570194071052654e+00, -2.7992968898223525e-01, 
            -9.1748166528572632e+00, 1.4595375705089297e-01, 1.0330176682043775e+00, 
            -1.5507901633217671e+00, -8.5453482880711126e-02, -1.6075109360400497e-01, 
            -1.4584535666414296e+00, 7.7649569927565598e-01, -9.8776106260993934e-01, 
            1.1534495839337535e+00, 6.3636468617052599e-01, 1.2282832926788683e+00, 
            -2.4955114916875742e+00, 1.1589268070033218e+00, 4.8325090914317070e-01, 
            -3.0203119886317059e-01, -6.5747521585902347e-01, 2.5696045515385296e-01, 
            3.6568041685264641e+00, 6.1534773853407373e-02, 3.8110428551077696e-01, 
            -3.7114191600287955e-01, -5.9359107312151171e-01, -1.8219020706697198e-01, 
            -9.7013303335396266e+00, 3.5995123132537221e-01, 3.1417080461384161e+00, 
            1.2991997350084997e-01, -8.2298370067944127e-01, -5.4801516752966317e-01, 
            -4.1768421820774046e-02, -1.6809929301068183e+00, -6.5236566724300504e-01, 
            -3.8944304366956350e-01, -1.6640989165069282e+00, 1.6719862077277514e-01, 
            8.3743459428371636e-01, 4.4890099496041141e-01, -2.7451828366544619e+00, 
            -4.4144043196991534e-01, -1.1279077913039266e+00, -3.7567918241030718e-01, 
            -2.4249179951729813e-01, 5.7567269607049845e+00, -2.7291042635890310e+00, 
            -5.0026199416670085e+00, 1.3864016000510215e+00, 1.4463245391278809e+00, 
            -5.9232913200197725e-02, -6.4919162005611186e-01, 6.4445817428576996e-02, 
            2.8134696876828474e-01, 5.4710368748411242e-01, 5.0290862659950957e+00, 
            -2.2158972514236727e-01},
        {5.1991794912257216e-01, -1.6780577874610692e+00, 1.2672044926116580e-01, 
            1.4710673558344542e+00, 2.7131894171277988e+00, 2.0349179344101412e-01, 
            -7.7676652968381510e-01, -7.9493779170252432e-01, -1.9472210611473326e-01, 
            1.0475908021429579e+00, -2.3012710162988004e+00, -1.6103199564520645e-01, 
            -4.3249664144326516e-01, -3.2541537987629430e+00, 8.7228025977435664e-01, 
            1.5116988951962980e+00, 1.0444363525742206e+00, 1.6644457476156871e+00, 
            -2.7345733800287947e-01, 1.0015275472358571e+00, -3.9775371051158520e-01, 
            4.0379447396371920e-01, 6.5055727979931255e-01, -9.9651811303073878e-01, 
            6.3133399455919628e-02, -1.1891839225265353e-01, 3.6518443122097027e-01, 
            -7.0612926104990708e-03, -2.3887066153188794e+00, 1.0975862282970210e+00, 
            -2.5172444412939483e+00, 9.4913590114658419e-01, 3.4802497563897243e-02, 
            -3.3389161566803893e+00, -6.3078903544692255e-01, -1.2741183759977541e+00, 
            1.0870171937486774e-01, 9.4707775366441405e-01, -8.8981044194492809e-01, 
            -2.4434946902522794e-01, -1.7028290846719756e+00, 3.5955155677208878e-01, 
            -4.1898705243031614e-01, -3.5835800101895583e-02, -1.0478066929571312e+00, 
            -3.9297485227610816e+00, 1.9684982749858377e-02, -4.4465043511449608e-02, 
            -2.1388622151679929e-01, -1.6800537849901815e+00, -3.9532506993173233e-01, 
            -6.8803408943150013e-01, -2.1887015999283332e+00, 2.5907927822546650e-01, 
            -1.0047363840796828e+00, -7.1487046253766728e-02, -5.4461061440395686e-01, 
            -4.6983300862564242e-01, 2.6994339618454832e-01, 2.2734424126400614e+00, 
            3.6689730697759204e-01, 4.1525225749998755e+00, 1.4845231586138288e-01, 
            -9.7124256926997155e-01, -2.2368974668974047e+00, -2.1380793469424173e+00, 
            -9.6976946348164947e+00, 2.2267371988463465e+00, -1.2715028586631338e+00, 
            -2.1359599893495509e-01, 2.3135533170983474e-01, 1.9468908663339946e-01, 
            -1.2632873668244766e+00, 1.0149704786738754e+00, 3.7283257013264871e-03, 
            -6.9615283843075104e-01, 2.0120882262052037e-01, 1.0563228711845776e+00, 
            -1.0364292839080951e+00, -2.8482931677962586e+00, -1.4247213822188496e+00, 
            1.6706174794504544e-01, -9.6455767634520628e-01, 4.8508163104311963e+00, 
            -2.1703069582688017e-01, 1.8804101174162766e+00, -2.3935847923195821e+00, 
            -1.3242724876264484e+00, 1.2328137724503769e+00, -8.4406499710775051e-01, 
            -3.6271346788724732e+00, -4.2857718729766831e-01, -2.8897465446299980e-01, 
            1.9802609458531578e-01, 4.2717076066093268e-01, -2.5722512783470115e-02, 
            -1.5556594673259689e+00, 6.8261625070308463e-01, 1.2704071473020753e+00, 
            1.3585621318695285e-01},
        {-4.9464800079768478e-01, -4.8548053585553119e-01, -5.9863839605064462e-01, 
            3.7816029254290523e-01, -1.6206052081862521e-01, 1.1844157331301985e-01, 
            -4.3847678984422378e-01, -2.7445688087556647e-01, -2.4272277871911294e+00, 
            -2.3755028566751899e+00, 9.0223413958146523e-02, 2.4240147070798448e-01, 
            -1.4077036154634004e+00, -1.3805310736330021e+00, -1.6419028183669324e+00, 
            -1.1864370408774871e+00, -5.9241862044760751e-01, -5.3791424646761838e-03, 
            -1.3038396870732361e+00, 1.1168223930458721e+00, -9.5706212015549397e-01, 
            1.9091492705078879e-02, 2.2562970806158048e-01, -8.2467901665725274e-01, 
            -2.3573132862467343e+00, 3.9245971757295151e-01, -5.6730339679327579e-01, 
            -4.8034536328033572e-01, -3.7971816493922550e-01, 2.7547300404052127e-01, 
            1.0161343224296799e+00, 3.3507405858794542e-01, -1.0376454239840078e+00, 
            1.2523589158165975e-02, 2.3502300054556111e-01, -5.5595219417804521e-02, 
            -2.0537587622002026e-01, -2.1544204771014184e+00, -4.5265303051651601e-01, 
            6.7053385256600137e-02, -9.6264677367540374e-01, 4.6802124914804033e-01, 
            7.5030478275047935e-03, -2.4493229215538356e-01, 8.4661767684540135e-01, 
            -1.6483299447649671e+00, -7.8984152871504534e-03, -1.8560278606771636e+00, 
            -1.3831639326689599e-01, 7.7655438381620234e-01, 1.5399298571724920e-01, 
            -1.3474348188471391e-01, -5.6381708277631254e-02, -6.5399536630653143e-01, 
            1.0251638341801127e-01, -1.8130560878058415e+00, -1.6843197515897528e+00, 
            1.1705889056995045e+00, -4.8898289984414078e-01, -5.0888611219327484e-01, 
            -8.0325253664004526e-01, 6.5694681900107399e-01, -4.9710705996819254e-01, 
            -2.0837914374102953e+00, -2.6356889799027328e-01, -4.7891411934064709e-01, 
            -8.7590873434497687e-02, -5.8276893973390520e-01, 3.5620091447237999e-03, 
            2.6226051436839626e-01, 1.0910289525479064e-01, -2.1896320149802997e+00, 
            3.3845710168493587e-01, -4.3233657448331719e+00, -3.4180864359013726e-03, 
            -3.5789541599836427e-01, -3.0082601990522855e-02, -2.3148279104952114e+00, 
            7.5037699980294081e-01, 8.1728500085885103e-01, -8.0823424567459579e-01, 
            4.5090155283119820e-01, -8.1041424742173893e-03, -2.6308502914172021e+00, 
            -7.8365878549106704e-01, -4.8187203420236788e-02, -5.1694339234749487e-01, 
            -3.8120994451697088e-01, -1.6283448010204549e+00, 9.8505548370483187e-01, 
            6.4737907678710338e-01, 6.5103378063708450e-01, -2.7896586959762493e-01, 
            -3.2718885955832855e-01, 4.9151902568428679e-01, -1.7154054296344820e-01, 
            -2.0051703421969824e+00, -5.6190353208786445e-02, -5.7110806487060184e-01, 
            -1.5100427994030858e+00},
        {-2.9990783688347672e-01, 7.4941376449567354e-01, 7.1573714625954354e-01, 
            9.9238372960540022e-01, -3.6083372719792126e+00, -2.1417397266904292e-01, 
            -8.5964413129451786e-02, -5.7823943253319399e-01, -4.5658526884147937e-01, 
            -4.1056373810053639e+00, -2.7447849431487237e+00, -1.6877943634102466e+00, 
            -2.5448883246952065e+00, -1.2954656227990551e+00, 7.9790421918380883e-01, 
            2.4235435571305508e-01, 7.1046350970022010e-01, -4.2376154079716395e+00, 
            -2.2236313429469923e-01, -5.1020571765377309e-01, 1.8694499067168810e+00, 
            7.0062092952948762e-01, 6.9755791034744929e-01, -8.7234912907748619e-01, 
            -1.2494860449748166e-01, -5.9849649183866340e+00, -7.7417619671624061e-01, 
            -7.1281243568749941e-01, -2.8618421540379222e-02, -9.3273494870191964e-01, 
            1.2808801619645001e+00, 1.3280162974119274e+00, -2.2251655748444565e-01, 
            1.1486638762358368e+00, 8.2069738992380403e-01, -4.3554970633627166e+00, 
            4.4958738558018180e-01, 1.6375879555935278e+00, 1.3873708138715649e-01, 
            7.9438835656080076e-01, -4.5477282411781612e+00, 6.3769560492471089e-01, 
            7.0247523395016942e-01, -6.3411244922348606e-02, 6.6536459404748531e-03, 
            -1.0980113442227306e+00, 2.7382022828630131e-01, -2.5642687109790879e-01, 
            -6.6246233931720211e-01, -7.3881306929569879e-01, -1.2238451920800026e+00, 
            -2.1810743917483992e+00, -4.6192216460447283e-01, 7.0630063743168792e-01, 
            7.0832077481594136e-01, -8.1539069555701305e-01, -2.1212910574130345e-01, 
            -1.9842867681734758e-01, -4.7139957736145932e-01, 6.9853935938817924e-01, 
            -2.1025244219104337e-02, 3.2118187343157228e-01, 3.6982181588943808e-01, 
            -2.6815006781406553e-01, 4.2908968105796064e-01, 3.2002125802171472e-01, 
            -4.7885053710190728e-01, 1.2553493712788988e+00, 3.8431844918094281e-02, 
            -3.4662482597319273e+00, -1.0338057609715232e+00, 1.4058140102296286e+00, 
            6.4265753481645216e-01, -7.0218311078945650e-01, -2.4903726702913582e+00, 
            -6.7910996607943144e+00, -2.0625777665914944e+00, -8.9170817265827818e-01, 
            -7.7686125222141453e-02, 2.3852739097149955e-01, 9.3831470277697879e-02, 
            -4.9175051618958016e-01, 1.4670023838872108e+00, 2.7210870117386503e+00, 
            -1.5912331747513338e-02, 7.8004199560426435e-01, 6.8569846184793981e-01, 
            5.5887093213316741e-01, 1.6547630610370652e+00, -2.6496092408306540e+00, 
            -5.6037909841663085e+00, -2.8560455641814064e-01, -3.4646890487576859e-01, 
            -2.2883399907297128e-01, -1.5142026518372687e+00, -3.7787964813791508e-01, 
            1.4109498650569343e+00, -1.5076710403187186e+00, -4.7489651467963072e-02, 
            -4.7452079562230665e-01},
        {-1.0883614337004148e-01, 2.2766058009672614e+00, 1.1107823175516780e-01, 
            -8.7112271244266903e-01, -2.1127810356512322e+00, 7.8604231017262693e-01, 
            6.5563278846448125e-01, -1.1385194220622477e-01, -3.4418206349087355e-01, 
            2.3263651549038271e+00, -2.1659732885217999e+00, 7.0544112653209257e-01, 
            -5.5147367031642336e-01, -1.4364043188628226e+00, -3.5003696783903426e-01, 
            -7.8990886276560934e-01, 7.8008469104534695e-01, -1.7245947766355629e-01, 
            1.0517729731868455e+00, 1.3784390111873762e-01, 3.5265216888874357e-01, 
            -5.6023375180719703e-01, 3.0252656398422628e-01, 1.1100998810578968e+00, 
            -1.0220014689880257e+00, -4.1235660704711785e-01, 2.2807927349799609e-01, 
            1.9091525571112300e+00, 5.3550492646427306e-01, -3.2688489105114789e+00, 
            -4.5453627785160466e-01, -5.4883269731047013e-01, 5.7820475310130581e-01, 
            -2.4157607994359194e+00, -1.9301419819535637e-01, 3.9892885717377063e-01, 
            -6.8888431538612738e-01, 1.0269535855285041e+00, 2.9350953629562171e-01, 
            -1.5540459301375349e+00, 1.9858543624325542e-02, 1.4194932024849172e-01, 
            1.3447153418224775e-01, 6.1688548470593407e-01, 8.2939108718680843e-01, 
            -2.3793412374714897e+00, 1.8994851146504793e-01, -2.2775485557668422e+00, 
            1.7660554187034352e+00, -6.3865213274928556e-01, -6.9243363722215212e-01, 
            8.3313490267544321e-01, -3.9972857169177617e-01, -3.4110929038618298e+00, 
            -2.7059137293110873e+00, -8.1886012280811726e-01, 5.5212903496647370e-01, 
            5.9633317549953713e-01, 2.6520998450065408e-01, -1.1420781502927413e+00, 
            4.9270639514929948e-01, -8.5827156965849992e-03, -9.5396623058635122e-01, 
            9.8139722683440722e-01, 5.7285813495359916e-01, -8.2506934415615518e-01, 
            -1.6693309511876728e+00, 7.3545731275613724e-01, 5.4076685524733895e-02, 
            -5.0560092430023991e+00, -3.8092244221032643e+00, -1.5170818253382545e+00, 
            4.2989591033435071e-01, -1.4230031353736226e+00, -1.2789343091291094e+00, 
            -3.0113452469635182e-01, 8.3751481152057405e-01, 1.3331662790639265e+00, 
            2.4571055608609599e-01, -2.1418406410218243e+00, -1.3747568811261983e+00, 
            -8.0022201627487044e-01, -1.0945945680053764e+00, 8.8687180272926325e-01, 
            4.4109934259463128e-02, 2.1389419482361335e-01, -1.6969919586664834e+00, 
            8.6266736540966948e-02, -9.8581481155003359e-01, 2.3102344520720655e+00, 
            -4.4774078448540594e-01, 2.2873920926783387e-01, -9.8285229349687420e-01, 
            -9.6414123747781022e-02, -3.8132615893259986e-01, -6.8196866913203757e-02, 
            1.1051768086464743e-01, -2.1359157108512390e+00, -1.3701520998495693e+00, 
            -1.2776869313266520e-01},
        {-1.3032889325797592e-01, 1.0025736437810955e-01, -2.0419727813561975e-01, 
            -2.3106362611111722e-01, -8.2227213352968495e-02, -4.0455894251279947e-02, 
            1.2827614137332910e-01, 1.1570879267230300e-01, -1.2452032102261361e-01, 
            1.9841724302990329e-02, -6.0296087811933319e-03, 4.8482783523795786e-02, 
            -4.7082271828094976e-02, 8.8414093134468352e-02, -1.9972244369986275e-01, 
            2.3988595212968693e-02, -1.7903369783151030e-01, -1.6692376286590249e-01, 
            9.0145232850487325e-02, -1.8021471611785134e-01, 7.0290711345160115e-02, 
            4.9243915960304994e-02, -1.6027270677391672e-01, 7.9394284924746997e-02, 
            -6.6466563525885508e-02, -2.0984522239222366e-02, -1.0299474699020449e-01, 
            -2.1292041966934885e-01, -1.9846672134301305e-01, -9.2868752920144293e-02, 
            6.6566007817542546e-03, 1.7924850688498270e-01, 1.0770227072162626e-01, 
            -1.6686494429401488e-01, 1.2775379583163179e-02, 2.2569248867865271e-01, 
            -2.1896883163250561e-02, -2.8883412864622218e-02, 1.2404468093841536e-01, 
            -1.9649408979063301e-01, -5.0206714238773938e-02, -1.0932026184600412e-01, 
            2.5265065267841315e-02, -3.9795905149374269e-02, -1.1993987883987419e-02, 
            -1.6051850001173881e-01, -1.3534527409221134e-02, -1.3078908309923212e-01, 
            6.1395753571210090e-02, -1.0717174105942524e-01, 4.2322996667150080e-02, 
            -1.1494821199533517e-01, 1.2600920013332836e-01, -5.6888286290837399e-02, 
            -9.0045623871426478e-02, -1.6377731289973743e-01, 2.6357141599214061e-02, 
            -1.0077931824504593e-01, -3.6392908473548813e-02, 1.2276165333758460e-02, 
            9.1754878447054725e-02, -1.0271253677108355e-01, -1.6825242513796518e-01, 
            -1.2212895348490777e-01, -2.0708375393851561e-01, -3.3890626008156850e-02, 
            -1.9814484310391539e-01, -2.3518574570740347e-01, -7.9964327676194311e-03, 
            -1.8303044538722665e-01, -1.1999053230735765e-01, -1.0953591544066579e-01, 
            9.5884402428007207e-02, 1.0894469076773282e-01, -2.8029810056837695e-01, 
            -1.3990093694896810e-01, -1.0614986924477328e-01, -2.3514525568950423e-01, 
            2.3230233663409948e-02, -2.5298101722785837e-01, -6.4795356320891548e-02, 
            -2.0561472818302413e-02, 1.0274722211110064e-01, 4.1971816128324575e-02, 
            4.7991496079605241e-02, -9.8679709165216359e-02, 9.3478030392672343e-02, 
            -1.2232135871963385e-03, -1.5090511256139061e-01, -7.1085056745374409e-02, 
            -1.7217363623356804e-01, -1.5355287480822383e-01, -2.1940322234656354e-01, 
            -1.6195492565508957e-01, -1.1526186182786377e-01, -7.2166830184446890e-02, 
            -1.6868722891272725e-01, 8.3192835570233860e-03, -1.1181563029676542e-01, 
            -1.5591748887062729e-01},
        {1.1514477998824750e-01, 1.4895536917848498e+00, -2.6019542318667294e-01, 
            6.4222144413110316e-01, -2.4311631691324907e-02, -7.1013870145260738e-01, 
            6.6455929210946918e-01, -4.6675968225250292e-01, 1.3330845903741171e+00, 
            -1.0883835186469366e+00, -2.8935506420740298e+00, -4.1092888545032230e-04, 
            6.9812183526204519e-01, -4.7852847210811011e-01, -1.3000207413516567e+00, 
            -5.1615277749947597e-01, -6.1846149775783277e-01, 6.6998549981156996e-01, 
            8.0083974568179495e-01, -1.1972568525908731e+00, 9.4063655251774403e-02, 
            9.0046667324563723e-01, 1.8544439907983387e-01, 4.9287903185203735e-02, 
            1.2407731776571824e+00, -2.2157297778006342e+00, -1.2726160185389177e+00, 
            -1.2362829209138928e+00, 9.0704632888356806e-01, -8.6866595161093879e-02, 
            -3.8239283671025198e-01, 2.5966954541122400e-01, 3.9421581008124112e-01, 
            8.0487516723392244e-02, -6.3984693899106215e-01, -1.3306535082857813e+00, 
            -7.6359651822884539e-02, 1.2028585867620005e+00, -1.8812897324967467e-01, 
            -1.3279878107268646e+00, -2.4884796839202811e-01, -6.4673854912047402e-01, 
            8.1036179454298296e-01, 3.5585935100634730e-01, -9.3671607488793940e-01, 
            -3.9997481182830258e-01, 2.4400833846031711e-01, -2.0024551449029784e+00, 
            6.4610442895650755e-01, -5.9906430057146609e-01, -5.7099432268730812e+00, 
            -3.8312010650379746e-01, -3.9100129602408475e-02, -5.2617402747194850e+00, 
            9.8210740551422759e-02, -1.5703551167817873e+00, -1.3328443469620684e-03, 
            -1.1289236082369263e+00, -3.8306266710867048e-01, 1.0392624578833348e-01, 
            -8.1037863205128025e-01, 2.8324126066357758e-01, 7.7018725908978514e-02, 
            -1.3583373363491138e+00, 3.2171612383118492e-01, -9.7471283392113861e-01, 
            -2.4598302727575594e+00, -9.4651136427910365e-01, -4.8300381857310404e+00, 
            -2.5066854452949610e+00, -3.4734592979957252e-01, 5.5884195474709364e-01, 
            4.6655412881180031e-01, -5.5326320233768811e-01, 1.3086955342960338e-01, 
            -3.2918403244417005e-01, 3.1939848607927590e-01, -1.2256952651841233e+00, 
            4.6256504120623787e-01, 7.4819741056300693e-01, -2.9961488396507707e-01, 
            5.7960022036898609e-02, 8.0288543965375581e-01, -1.5335118228490148e+00, 
            4.8731275776245775e-01, 5.7951554494318891e-01, -1.1508481306936540e-01, 
            -6.1494220960866319e-01, -1.5626678669495592e-01, -8.4808966911223382e-01, 
            1.3461219345763773e+00, -9.1542276653241705e-01, 4.5006256577995174e-01, 
            1.1173223128016316e-01, -9.5944660237994051e-01, -1.3297928239459700e-01, 
            1.6282230010403176e-01, 2.8806484486925904e-01, -3.8698354959317371e+00, 
            1.4426276174230219e+00},
        {-4.5347014158472843e-01, -2.7396268591382628e-01, 5.8346985279604457e-01, 
            -4.6439066005391411e-01, 7.9636169717688821e-01, 1.3940181852914104e+00, 
            -1.5879547094830475e+00, -8.1495313629047483e-01, -5.8393078916334684e-01, 
            -8.2762464054657869e-02, -2.7739374383890216e+00, -2.3706798441613079e+00, 
            2.1824264334744312e-01, 1.4631086130985222e+00, -3.2364010553210770e-01, 
            6.6300479726859085e-01, -6.6446958413285817e-01, -1.4778033563042858e+00, 
            -5.7843675597203237e-01, 1.3372190541340097e+00, -9.0544711929019894e-01, 
            -5.9527989997046275e-02, 2.1732154159152087e-01, -4.6961398812023075e-02, 
            -4.5318564020276780e-01, 2.4414178234377946e-02, -3.2858303206310141e-01, 
